0.132003
-0.0461152
-0.0376869
-0.00576527
0.00923605
-0.0424415
-0.0239789
0.0372529
-0.0152346
0.196998
-0.0588212
-0.00770697
-0.095056
-0.233957
-0.0429788
0.000109481
-0.0629344
-0.0635034
-0.0533096
0.0220536
-0.0681862
0.0394121
0.00727847
0.146122
-0.342322
-0.0607587
-0.00295657
0.0883538
-0.0277255
-0.035839
-0.0340198
-0.132984
-0.0156027
-0.0995474
-0.017803
0.00306164
0.00653519
0.0155369
-0.186704
-0.00179227
0.186573
-0.0674479
-0.00883127
0.0122831
-0.0316001
0.0257355
-0.0173785
0.00790371
-0.0790414
-0.0408292
0.147184
0.0394313
-0.0443943
-0.0320784
-0.00892804
-0.22667
-0.224326
-0.085268
-0.0114093
-0.0478192
-0.117904
0.0049308
0.0522705
-0.0913979
0.0162681
-0.162463
-0.00820743
-0.0976217
-0.0147396
0.0197166
-0.0107593
-0.0154344
-0.00469306
-0.0209944
0.0787493
-0.144357
-0.0124955
0.160804
0.000304095
-0.0701124
0.208767
0.0258486
-0.0376179
-0.0195977
-0.0563697
-0.176415
0.0757438
-0.0594596
0.0177579
-0.0486076
-0.047052
-0.0959772
0.287377
-0.0350019
-0.156332
-0.133648
-0.132966
-0.00528949
0.147674
-0.0342568
-0.0646722
0.0398634
0.0449916
-0.072183
0.14222
0.0246747
-0.0429028
-0.0175713
-0.0255805
0.166716
0.277659
0.165445
-0.216408
-0.0404374
-0.0790863
-0.0624289
0.00691491
-0.293649
0.109657
0.197397
-0.0273147
-0.107085
-0.0643174
-0.0450221
-0.0702384
0.0648471
0.170436
-0.0859031
0.0414541
-0.0584671
-0.000817528
-0.0115988
-0.0736706
0.0697381
0.00637994
-0.0300538
0.00114887
0.0437257
-0.0237527
-0.0707947
0.214528
-0.0995764
0.0874604
-0.016162
0.164348
-0.0194284
0.0290749
-0.0324532
0.362377
-0.0325823
-0.133338
-0.126644
0.0757481
-0.0160057
-0.0987917
-0.023597
0.0226839
0.0125875
0.012205
-0.0356997
0.0182002
0.0411554
0.0265973
0.00169437
0.244203
-0.0494431
-0.429019
0.0460877
0.255476
0.148925
0.242382
-0.000989843
-0.046687
-0.132687
-0.155794
-0.159504
-0.0599692
0.0205632
-0.0737137
-0.113627
-0.0320524
0.0318607
-0.0248431
-0.0760868
0.0376887
0.166239
0.263361
0.0269796
-0.0848136
-0.227671
0.0143117
-0.00568566
0.00845472
0.042914
0.00516986
-0.0219838
0.0232023
0.111448
0.0158341
-0.00212915
0.198635
0.0480324
0.064007
0.00153307
-0.0398243
-0.0753283
0.00238799
-0.0425748
-0.0738583
0.176773
-0.0492008
-0.045131
0.0351243
-0.0220377
-0.0347765
0.00956295
-0.0635969
-0.0738044
0.154656
-0.0627812
-0.0559749
-0.022206
-0.0502334
0.127413
-0.0285141
-0.167532
0.00444329
-0.423782
-0.389813
-0.133181
-0.126167
-0.0101289
-0.109275
-0.0529966
0.183157
-0.0718912
-0.0138203
0.0869828
-0.0702126
-0.039799
-0.00545095
0.00470785
0.00157822
0.159262
-0.0308531
-0.506149
-0.018948
0.0424262
0.154047
0.0339034
-0.0355674
0.0239385
0.00577857
-0.0319196
-0.0367361
-0.271256
-0.0300955
-0.13085
-0.0743261
-0.0268364
-0.0351794
-0.0604453
0.179168
-0.00228656
0.204578
-0.0405135
-0.250155
-0.085484
-0.0499474
0.0364677
0.164648
-0.021334
-0.0273389
0.0121065
-0.00564166
-0.000318462
-0.0423925
-0.0713268
0.177298
-0.0756091
-0.0351484
-0.0320955
0.027286
0.169215
-0.00281843
0.219363
-0.261863
-0.028805
-0.0300375
-0.0653007
-0.0689006
-0.0530667
-0.288686
-0.220116
0.0214383
-0.0359023
-0.0266955
-0.0161461
0.199822
-0.0398451
0.13097
0.216127
0.0787398
-0.0552138
-0.0506075
0.141352
-0.033224
-0.0616255
0.0078745
0.00703685
-0.0125525
0.0118056
0.195502
0.000586384
0.00766283
0.154969
-0.328112
0.0122214
-0.0414574
-0.00907118
0.0204015
-0.0140522
-0.051989
-0.0607283
0.0163351
0.0109184
0.0102493
0.0255626
0.162903
-0.0135795
-0.00878051
-0.397456
-0.241084
-0.0183838
0.143318
0.193996
-0.0515199
0.21319
0.0613982
0.252789
-0.0379484
-0.0530842
-0.104868
-0.0986865
-0.0639679
-0.0857842
-0.00423483
-0.0304514
0.0766017
-0.0638084
0.200194
-0.0196339
0.0201827
-0.103108
0.0281441
-0.0192598
-0.0235482
-0.106031
-0.0723516
0.229189
-0.0130628
-0.0339105
0.0901321
0.00868209
-0.0278544
-0.0416987
0.209376
-0.0088529
0.133121
-0.0213517
-0.070374
0.0157722
-0.0668565
-0.0226397
-0.0303447
0.207947
0.0993916
-0.197056
0.182437
0.0217786
0.216905
0.0217817
-0.104101
-0.103363
0.0340122
-0.0897961
-0.0111962
-0.00733341
-0.0561906
-0.0293662
-0.0729288
-0.0117995
0.0457921
-0.0337793
0.107539
-0.0881937
-0.0713894
-0.00126091
-0.00818689
-0.0903956
-0.353005
-0.0349118
0.00101446
-0.0421041
-0.0403744
-0.0428071
-0.0552409
0.173769
0.136662
0.202663
-0.00740417
-0.00392149
-0.0716083
-0.109781
0.0948593
-0.0908654
0.0500175
0.224283
-0.0149097
-0.000566888
-0.0624658
-0.0541704
-0.0492629
0.0682887
0.0392913
0.190744
0.017539
-0.107875
-0.0878029
-0.0860162
-0.105462
-0.0196104
0.0849411
-0.0716197
0.21331
-0.0538164
-0.0404891
-0.0319143
-0.00812064
-0.05391
-0.0320513
0.0147517
0.00490809
0.00419545
-0.11505
0.0719093
-0.213406
-0.0455534
-0.0366611
-0.0703473
-0.0534943
-0.0596885
-0.0821578
0.0497162
-0.0154378
-0.0223819
0.223097
-0.0621819
-0.0118289
-0.218035
-0.00633095
-0.0197489
0.0479811
-0.0702439
0.238877
-0.019854
-0.102378
-0.0137141
0.00708776
-0.470926
-0.0789943
-0.278235
-0.136997
-0.046745
-0.0267599
-0.00401315
0.00243093
-0.00765067
-0.0344252
-0.0805247
-0.111597
-0.0809249
0.0172056
-0.0669429
-0.030584
-0.00445435
0.0249365
0.219592
-0.0277623
-0.0675446
-0.210962
0.188692
-0.0459647
-0.0124069
0.0384573
0.0893217
-0.0744307
-0.0161411
-0.025312
-0.0532066
