0.205824,0.0119069,-0.0180658,-0.0076633,-0.0367625,-0.0695923,0.0634238,0.00968044,0.013528,0.0046843,0.0113743,-0.103673,0.283445,0.315407,0.084619,-0.285801,0.0406118,0.0372843,0.0167881,-0.100063,-0.0814652,-0.0178841,0.109119,0.101716,0.0736885,0.00687178,-0.0919907,-0.0083261,0.0234358,-0.00981703,0.00819409,-0.00165308,-0.0467592,0.0654965,-0.0506306,-0.0878478,-0.0538056,0.0413703,-0.112392,-0.0669939,-0.056373,0.0520057,-0.0723454,-0.067269,0.0861908,0.0512535,-0.0207297,-0.00255552,0.0585953,0.0388372,0.0465957,0.0554051,0.285979,-0.0233076,0.0864812,-0.0806101,0.414634,-0.0664582,0.0830433,0.0298302,0.00228081,-0.140884,-0.00380628,-0.00978609,-0.0212121,0.00707573,0.0122682,0.00666965,0.025294,-0.175283,-0.0395933,-0.041671,0.0541848,0.0249529,-0.0581795,0.12062,-0.0264494,-0.335271,-0.0844553,-0.063307,-0.156385,-0.0310025,-0.00215814,-0.0338781,0.00153594,-0.0720403,-0.0822762,0.0415058,-0.0854923,-0.0464275,0.0136855,-0.119842,-0.036649,0.0528531,-0.0132832,0.265924,0.00949472,0.0204501,-0.0362165,0.00852107,0.0757011,-0.00855668,0.0213775,-0.0046109,-0.0133426,0.0481009,-0.0538792,-0.00683559,0.035109,0.00146356,-0.0364639,0.0754602,-0.128056,-0.0390571,0.049891,-0.00909526,-0.104057,0.0410607,0.142055,-0.059312,-0.0159477,0.0641426,0.0591495,0.0722896,0.100258,-0.104988,-0.0128736,0.103782,0.0108401,-0.0357084,-0.0319152,-0.0225284,0.0398128,-0.224179,-0.020475,-0.0205353,-0.0259664,-0.0854175,-0.0457007,0.0550071,-0.0251561,0.136512,0.128467,0.000453743,0.0521009,0.00500794,-0.0312153,-0.0198114,-0.02311,-0.0537124,0.323716,0.013909,0.0205225,-0.0167608,0.081022,0.0626381,0.0694995,-0.0182511,0.0029234,0.0245876,-0.101557,0.0421257,-0.0428311,-0.0574981,-0.295631,0.00725083,-0.17626,0.00244466,0.0738603,-0.0799511,0.00797348,-0.0839599,-0.0783721,0.0329993,0.00253926,-0.0913908,-0.0411068,-0.00147249,0.0414221,0.0475281,0.204733,0.0610582,0.0736378,-0.0379332,-0.0711103,-0.0203006,0.0130954,0.16529,-0.120443,-0.0398747,0.0446854,0.0738605,-0.0280746,0.00978277,0.0646418,-0.0326596,-0.0528003,0.0277394,-0.00371735,0.0174226,0.0264861,-0.104703,-0.0037098,-0.0826217,-0.0127759,0.0317129,-0.0235137,0.106082,0.0864325,0.0426874,-0.0837581,-0.0448438,0.047952,-0.0322727,-0.00321023,-0.00250066,-0.039159,-0.06218,0.138529,-0.0330607,0.102238,0.0290795,0.00675798,-0.067193,-0.0744995,-0.156254,0.00291356,0.0252472,-0.124817,-0.0233338,-0.00991394,-0.0349957,0.0249547,0.00734914,0.0032051,0.00910771,-0.0206883,-0.0606072,-0.218985,0.00705986,0.0667322,-0.0605819,0.0102851,0.0345794,0.0118847,0.0135343,-0.0228467,0.000789896,-0.243578,0.0288884,0.0814185,0.0336935,-0.0301187,-0.0104012,0.0346481,0.0256974,-0.0421734,0.014296,0.0857624,-0.0106106,0.0315174,-0.0455996,0.0552406,0.0218769,-0.162683,-0.0511151,-0.0499842,0.130196,-0.00112293,-0.0195745,-0.121038,-0.0521932,-0.00180506,-0.0600145,-0.00286265,-0.0672026,0.00985355,0.00421685,-0.0741604,-0.00121921,-0.0511995,0.0235494,0.0548319,-0.0218532,-0.0153142,0.087642,0.169132,-0.0419347,0.0392479,0.0434316,-0.0390566,0.150895,0.0893238,0.00618541,-0.000681183,-0.0260639,0.052501,-0.0607137,0.027017,-0.032553,0.0458706,-0.0127073,0.0206067,0.00342845,0.048437,0.000113194,0.00132432,0.137939,-0.000490791,-0.0820096,-0.0885595,-0.0344105,0.0230482,0.0623173,-0.0188002,0.00697663,-0.156552,-0.0621271,-0.0135116,-0.0425418,0.0199982,-0.105117,-0.00682063,0.0111924,0.0319209,-0.00956323,-0.00767778,-0.0131885,-0.083714,-0.0675292,-0.0653443,0.266591,0.0194244,0.0775382,0.14117,0.00280634,-0.0164458,0.0019517,0.0755203,-0.025848,-0.0812591,-0.0816625,0.0179249,0.0355277,0.0149807,-0.00461626,0.00821512,0.00257358,-0.00539148,0.00387302,0.0384215,-0.0262882,0.0979248,-0.280914,0.00878013,-0.0583805,-0.0782427,-0.019763,-0.0677746,0.040131,-0.0896929,-0.0572045,0.0650907,-0.0475742,-0.0259305,0.0375085,0.0401274,-0.116365,0.209833,-0.00659581,0.0413023,0.0228943,-0.00617336,0.0244015,-0.0335062,-0.0524692,0.00678132,-0.0463077,0.0419951,-0.0579966,0.0533073,-0.087288,-0.0946002,0.0300823,-0.0360137,-0.0133556,0.0512139,0.0194731,-0.0816702,0.00632166,-0.0520613,-0.0149887,-0.0226342,-0.0240737,-0.0618852,0.0415205,-0.0119971,-0.0149597,-0.0490657,0.0250655,-0.0250124,-0.0187226,-0.0333326,-0.0177123,0.0491868,-0.021983,-0.11457,0.239928,0.0233237,0.0733489,0.0141662,0.0567432,-0.0238019,-0.306625,0.109754,0.0057001,-0.0356586,-0.0269444,-0.0470629,-0.0677918,0.0545724,-0.0321984,-0.0093093,-0.0318906,0.0357337,0.0585637,0.0124664,-0.212207,-0.0285058,-0.0871509,0.0113651,-0.0319732,-0.444136,0.0653829,-0.0810635,-0.0160569,0.00997954,-0.0393081,-0.0147786,0.0499125,-0.0666461,-0.122568,-0.0675899,0.0348938,0.311159,-0.0673535,-0.0287929,-0.0108313,-0.0328061,0.0595874,0.0437987,-0.00505095,0.0110088,-0.0707922,-0.00740511,0.0474478,0.0297778,-0.0137088,-0.011957,-0.0363898,0.00694203,-0.0509824,-0.0178417,-0.0423171,0.0751333,-0.035632,0.0105492,0.0490595,0.0136862,0.0304598,-0.00369459,-0.0688451,0.0696822,0.0479845,-0.080541,-0.044101,0.0116731,-0.00967846,-0.0245678,-0.0326947,-0.069338,0.0218199,-0.0113901,-0.0473448,0.0174624,-0.0670073,-0.0125089,-0.0145675,0.0635177,0.0558213,0.0034989,0.00104961,0.0122953,-0.0781731,-0.0290367,0.0167131,-0.0330863,-0.00310721,-0.0281874,-0.0788614
0.0621216,0.0234792,-0.0478168,0.0318192,-0.0859624,-0.0729725,-0.0162481,0.0978496,0.0242719,-0.0509947,-0.0896437,0.0382066,0.280147,0.213819,-0.018206,-0.154008,0.0264491,0.00647876,-0.0569039,-0.0364429,-0.0538201,0.016351,0.102886,0.0401752,-0.0659901,-0.0461752,-0.0272992,-0.0408979,-0.0522563,-0.0202041,-0.10985,-0.0357861,-0.00153132,-0.0276319,-0.0391607,-0.0503256,-0.0139987,0.00514767,0.0578159,-0.0170406,0.00315362,-0.0851439,-0.114167,0.0126591,0.0601535,-0.0878221,-0.0617343,-0.128662,0.0176084,0.052638,-0.176579,0.0544225,0.268335,0.00320851,-0.00354577,0.107964,0.191507,-0.0251595,0.0052667,0.00314231,-0.103556,-0.113301,0.065471,-0.0389413,-0.0509045,0.0453881,-0.0433325,0.025432,-0.0567249,-0.435571,-0.05592,-0.135019,0.0620345,0.0905517,-0.0425743,-0.0991194,-0.0528547,-0.0513215,-0.0232751,-0.0471871,-0.204299,0.0435534,-0.000931604,-0.0137567,-0.0915132,0.0728108,-0.108053,0.0692807,-0.00910123,0.0661888,-0.0263172,-0.00186705,0.0163118,-0.0338301,0.0439655,0.237733,0.0144134,-0.0474592,-0.222432,-0.0290523,0.0862407,-0.0615135,0.0977093,-0.0175156,0.0137332,0.0508577,0.00297229,-0.0294789,-0.0404123,-0.0159785,-0.0507242,-0.122462,-0.109428,0.000974685,0.0955014,-0.0177831,-0.00702773,-0.00600951,0.0075771,0.023897,0.00549303,0.0736178,0.0807458,-0.014673,0.00303269,-0.174398,-0.00756713,-0.0425458,0.0552859,-0.0606149,0.0299206,0.0212096,-0.0557274,-0.148599,0.0294788,-0.0492874,-0.0649996,0.00432031,-0.089585,0.000934221,0.0028529,0.075645,0.195796,-0.0102706,0.0752259,0.00545346,-0.0189852,0.0132878,-0.0893204,0.0156982,0.188612,-0.0092762,-0.00109356,0.00398154,-0.106139,0.0659753,0.092736,0.0284978,0.0743243,0.0168086,0.0684894,-0.0424306,-0.0468915,-0.0285435,-0.300438,-0.0381894,-0.0266115,0.0102959,-0.0127389,-0.0168742,0.0263793,-0.0179644,-0.00305731,-0.0778525,0.0897972,-0.0842662,0.041462,-0.0386866,-0.0190134,0.0421834,0.136778,-0.0427308,-0.00474231,-0.0139799,0.0204229,0.0982109,0.0371657,0.16268,-0.0426565,-0.0152502,-0.0342203,-0.0151652,0.000320783,-0.126012,-0.0955065,0.0295311,0.012284,-0.0270747,-0.124509,-0.0858536,-0.00677175,-0.00447632,0.138467,-0.0770503,0.022236,0.0418671,-0.00891535,0.0467476,-0.065094,0.00579206,0.0567937,0.0157907,-0.0332892,0.0244118,-0.0158916,-0.0460564,-0.0683106,0.00727272,0.100184,-0.0957771,-0.0302043,0.0206513,0.0312213,0.048234,-0.0485382,-0.138434,-0.0412447,-0.0838892,-0.128652,0.0644292,-0.0592751,-0.0736241,-0.0370735,-0.105733,-0.073027,0.0128718,0.0446901,0.0219513,-0.267522,0.0266209,0.00154641,-0.0608231,0.00905955,-0.0525427,-0.0458017,0.0747055,0.0631035,0.0284027,-0.15569,-0.0158051,0.0526469,-0.00496425,0.0304543,0.0018328,-0.110384,-0.0664434,0.0137564,0.00982136,-0.0508407,-0.0272478,0.066647,-0.0947408,0.080402,0.00249847,-0.0220209,0.0222959,0.0506333,0.0409694,-0.0345178,-0.0453329,-0.0516565,0.0642508,-0.0300656,-0.0416075,-0.0957497,-0.0296802,0.0586437,0.0149624,-0.136994,0.0404613,-0.0298027,-0.0159597,-0.00439485,0.0184086,-0.0845281,0.0991952,0.106667,-0.0322416,-0.039861,-0.0500747,0.0532926,0.115107,0.00856982,0.160134,0.103976,-0.0357554,0.0254895,-0.08941,0.00652139,0.0482062,-0.123083,0.0513896,-0.0010828,-0.0696568,0.0118726,0.000987385,-0.0430256,0.142738,0.0182382,0.0194544,0.0915057,-0.0118498,-0.0200959,-0.0361803,0.0258094,0.0402859,-0.102883,-0.0425965,-0.0538821,-0.0366689,0.0905662,0.0350048,0.0270507,-0.0741063,0.0320129,0.0575872,0.0464268,-0.0409152,0.00320672,-0.0649747,0.00970514,0.22874,0.0688736,-0.00736585,0.062704,-0.00426994,-0.0110285,-0.00425912,0.207312,0.11091,0.0176187,-0.0640721,0.0389183,0.0117735,0.0362271,0.0382818,0.0339508,0.0879404,0.0262788,-0.0660412,-0.00491349,-0.0434593,0.0971041,-0.260059,-0.0259186,-0.0205786,-0.0905144,0.0139636,-0.0767191,-0.075429,0.00828659,0.0705686,0.0187171,-0.038582,-0.0832299,0.1543,-0.0623953,-0.154559,0.0175047,-0.0607896,0.0205205,-0.0171158,-0.0856921,-0.0140101,0.0612843,-0.0448393,0.0618601,0.0936005,0.00276999,0.0324072,-0.0501642,-0.0268146,-0.135496,-0.0145182,-0.0811277,0.0808443,0.00545422,-0.0300831,0.0824455,-0.0524138,0.128475,-0.00215596,-0.0921496,0.0307533,0.0153369,-0.0935413,0.0171719,-0.0514062,-0.0471021,-0.00564427,0.03671,-0.00236943,-0.0689479,-0.00256462,-0.0366935,0.0858702,-0.0996616,0.0681591,0.0359186,-0.025127,-0.0289449,-0.022224,-0.0602464,-0.273254,0.0293535,-0.0454617,0.00238046,0.0585231,-0.0138576,-0.0462115,-0.0124892,0.0134537,0.0390729,-0.027599,0.153115,-0.0437781,0.0431521,-0.0846119,-0.0402302,0.0650084,0.0887144,-0.0142804,-0.334956,-0.00561397,-0.10746,-0.0126906,-0.0694788,0.0286486,-0.0233571,-0.0404049,0.0885821,-0.106805,-0.0613558,-0.108174,0.17401,0.0189409,-0.02902,-0.0633975,-0.00839901,-0.0581429,-0.0427507,0.0630076,0.0471713,0.0482793,-0.00370877,0.0580225,-0.0461097,0.0646323,0.0225523,0.0209626,0.013312,0.0250126,-0.111233,0.00474755,0.100567,-0.0338715,-0.00318438,-0.00341212,0.0223765,0.0932013,0.0994705,-0.158649,-0.0895081,-0.0185736,-0.093976,0.048843,0.0382364,0.0181963,0.0156188,-0.0724876,0.107278,0.12301,-0.0760535,0.0312109,-0.0273899,0.0113645,-0.0528255,0.0380677,-0.0799904,0.00771229,0.0822845,-0.0373046,-0.0672538,0.0132522,-0.0168966,-0.0266127,0.0595444,0.00775099,-0.0547782,-0.00555342
-0.0794995,-0.0481489,-0.124254,-0.0368745,0.00137182,-0.0599477,-0.0480557,0.029645,-0.0125172,0.0296976,0.0107551,-0.0662132,0.0500415,0.179912,-0.0786682,-0.15976,-0.0392042,0.00457889,0.0265343,-0.0228588,0.0337592,-0.068903,0.0570174,-0.0137904,0.0411988,0.0429036,0.0488174,-0.0132542,-0.0237734,0.0153275,-0.0722996,0.0217638,-0.0412889,0.0128158,-0.0246245,0.00535815,-0.0576365,-0.00513605,0.115008,0.0504139,0.0550764,0.0326769,-0.0491895,-0.0562245,0.047319,-0.0270229,0.0386541,-0.057444,0.00189715,0.0391882,-0.0824252,-0.0966713,0.126898,-0.0226229,-0.12388,0.13776,0.109745,-0.0806531,0.0697902,0.0265843,0.0914108,-0.0513863,-0.163274,-0.0558483,-0.046997,-0.0624511,-0.062816,0.0332018,0.00910091,-0.439854,0.0391267,-0.0663957,-0.0828381,0.142689,0.00610389,-0.00404023,0.0119856,-0.0656601,-0.0777874,0.0207958,-0.0765389,-0.0247508,0.0138105,0.0168762,0.0236472,0.00144765,-0.0693758,-0.0369875,-0.0475413,0.0106056,-0.0822572,-0.0143066,0.0650887,-0.0216535,-0.0379221,0.0923118,0.102171,-0.00874566,-0.274836,0.00695746,-0.0107091,0.0316661,0.0307169,-0.00358792,0.00110195,-0.0179778,-0.0395747,-0.00467641,-0.0413765,0.00894714,0.104705,-0.0164464,-0.155845,-0.0762739,-0.0752745,0.0083451,0.0920352,-0.0986865,0.0336902,0.0587989,0.0117832,0.0787225,-0.0449358,-0.0104034,0.0117789,-0.0733454,0.0409274,-0.0377691,0.0113005,0.0398188,-0.00156372,-0.03026,-0.0341882,-0.0910758,-0.0936516,0.0385685,-0.105577,0.0606405,-0.0153206,-0.00910278,0.0439205,0.0343613,-0.0308084,0.0647255,0.0555297,0.00665829,-0.0751515,-0.0484232,0.0753559,0.0646377,0.0691056,0.070798,0.0138513,0.0282136,-0.0295565,0.0212502,0.0364374,0.0143883,-0.0321123,-0.0955966,-0.0214652,0.00887229,-0.0186491,-0.0315512,-0.206085,0.00514986,-0.0247944,-0.0356633,-0.12988,0.0434833,0.0560016,0.0756019,-0.00105954,0.0270263,-0.00323694,-0.0557907,0.0173679,-0.0624798,0.0632562,0.0103916,0.0656504,-0.0173259,-0.150087,-0.0153664,0.0296996,0.109188,0.00437037,0.0842589,0.0340047,-0.0364979,0.00924912,0.0212029,-0.00627193,-0.20664,-0.038238,0.0661451,-0.00459702,-0.0457395,0.0120824,-0.0828544,0.0521339,0.0707552,0.0341595,-0.0599553,-0.0133936,-0.0479943,-0.0645004,0.03437,-0.029731,0.116102,-0.00319646,-0.103776,-0.00257792,0.00512262,-0.0235494,-0.00412845,-0.0752643,0.0297301,-0.0522503,-0.0580813,-0.0293557,0.0185205,-0.0705771,0.0057317,0.0652706,-0.0767747,-0.0440493,0.033324,0.0203373,-0.0201006,-0.0072596,-0.0175824,0.00889474,0.0162021,0.0232699,-0.0513316,0.0133181,0.11723,-0.153093,0.0308433,0.106207,-0.0177261,-0.00714509,-0.149025,-0.10431,-0.00512948,-0.0645878,0.0215649,-0.119647,0.0168395,-0.087144,-0.0967837,0.00847451,0.0187702,-0.0125268,0.0145284,-0.0521194,-0.0814139,0.0139197,0.000373361,-0.0765446,-0.00120003,0.0302417,0.0321648,-0.0113023,-0.00594244,0.00833805,-0.00377398,0.00157694,0.00641623,-0.0946057,0.043486,0.0341243,-0.0441548,0.000220293,0.0167789,0.0409183,0.102325,-0.0293563,-0.0166601,-0.0654226,0.0584788,0.0518573,-0.0193865,0.0771202,-0.00675813,0.29279,0.0306323,0.00283745,-0.0757732,0.00307166,0.118116,-0.0387379,0.121718,-0.0478472,-0.0886049,-0.0594559,0.00883801,-0.105945,-0.0320441,-0.0700729,-0.0643126,0.0100771,-0.0353677,0.00356981,0.0351878,-0.0515814,0.158734,0.0379727,-0.0591453,-0.0586297,-0.0537476,-0.0385561,-0.0678087,-0.00451997,-0.0467635,0.119058,0.00447851,0.0500771,0.0303247,0.107462,0.100715,-0.025514,-0.026554,-0.00202689,-0.015528,-0.0359665,0.0536639,0.116189,-0.106756,-0.128029,0.250099,-0.0403573,0.0234599,0.0117127,-0.00509178,-0.00125401,0.0224087,-0.0390525,0.0520056,-0.00852312,0.0475022,-0.00536509,0.0578938,-0.0657967,-0.145555,0.0433716,-0.0139393,0.0764873,-0.0349017,0.0196001,0.023528,0.0877578,0.0110494,0.0628635,0.0570487,0.0182938,0.015945,0.052364,0.00658061,-0.0664162,-0.0573115,0.00592251,0.0225833,0.111371,0.0285746,0.00286071,-0.286048,-0.0230284,0.0347013,-0.022034,-0.00570091,-0.000703126,0.0013057,-0.00103508,0.0491897,-0.028301,-0.039423,-0.0466216,-0.0248934,0.0992935,-0.0467612,-0.0214795,0.00157921,-0.132139,-0.0450098,0.0143328,-0.060167,-0.00315571,-0.0482615,0.0324573,0.0354409,-0.0446827,0.0559722,-0.0537119,-0.0514589,-0.0123872,-0.102359,0.0419167,0.0438726,0.175855,0.117777,0.0624787,-0.0195675,-0.0433982,0.0722415,0.0375985,-0.197056,0.00421087,-0.00322998,0.0117514,0.059753,-0.120463,-0.266835,0.113894,0.04338,-0.0213373,-0.0418955,0.0383402,0.0126218,-0.0526278,0.00323857,0.0717856,-0.00845501,-0.0277599,-0.0205303,0.0538553,0.0945791,-0.00264745,0.0877626,-0.0583559,-0.024646,-0.0767869,0.0691806,-0.16128,-0.0292886,0.0759004,-0.0845506,0.0378753,0.0494075,0.0314769,-0.0211963,0.00169757,-0.0243789,0.0508654,-0.0903501,0.0499003,0.108925,0.0383461,0.0312793,0.0456972,-0.0763453,-0.0173768,0.103991,-0.0463331,-0.0816142,-0.0181834,-0.0118344,-0.0297105,0.0406362,0.00951058,-0.0380471,-0.0107451,-0.0365596,0.0850652,-0.0665022,-0.0460679,0.0200362,-0.0669544,0.262998,0.033241,-0.12389,0.0614822,0.0727917,0.0830031,-0.0297683,0.0314133,0.0199914,0.025827,-0.0679367,0.0511262,0.185687,-0.0577163,-0.0511989,0.0124963,-0.0511725,-0.0859968,0.0368969,0.000265989,-0.0829818,0.0202336,0.0390654,-0.00356723,-0.044589,-0.0271823,0.0552665,-0.00506606,-0.00933154,-0.0415407,0.0559637
-0.147577,0.0559022,0.0463341,0.107585,-0.0361769,-0.0402848,0.0407788,0.0741884,0.0127496,-0.0273782,-0.0286644,-0.0724413,0.126484,0.00551949,0.0164278,-0.176048,-0.0849721,-0.0635184,-0.0308085,-0.0779412,-0.0221727,0.021618,-0.00693602,-0.224314,0.00316921,0.0567626,0.0105816,-0.119738,0.00324671,-0.0540418,0.00647078,-0.0263253,-0.0268072,-0.0554651,-0.0449687,0.0793038,-0.00628343,-0.0292468,0.182944,0.0139892,0.0158315,0.00558235,0.016112,-0.0239164,0.130927,-0.0299832,-0.0136888,-0.0101117,-0.00139332,-0.0363355,-0.0274282,0.0629383,-0.00533391,0.0111389,-0.00413601,0.265385,-0.0287183,-0.0314484,-0.00406463,-0.0541537,-0.00329907,-0.0941609,0.0126822,0.0241196,0.0613688,-0.118053,-0.0120548,-0.00172689,-0.0690696,-0.316455,0.00391996,-0.0629717,-0.0722398,0.183978,0.0962585,-0.158659,-0.0523991,0.133854,0.091801,0.0402547,-0.125234,-0.113977,0.0325809,-0.0901327,-0.0345449,7.20134e-06,-0.0668577,-0.00324187,-0.0528124,-0.0280954,0.0502744,-0.0522162,-0.0330366,-0.045011,0.0194234,0.0592366,0.04713,0.0541277,-0.189252,0.0719433,-0.0546813,-0.0967304,-0.0393981,0.129965,-0.00762859,0.0540124,0.010528,0.0209152,-0.000588649,-0.0294316,0.0435725,-0.0520376,-0.111673,0.00026198,-0.121601,-0.00894591,0.00783497,-0.0161629,0.00449954,0.0666751,-0.0186693,0.0558965,-0.0597984,-0.0234246,-0.00919246,-0.0554054,-0.0242594,0.0269322,-0.00748229,0.029778,-0.0711489,0.0327224,0.0523655,0.00734282,0.0427707,0.00252761,-0.0305081,-0.0416788,-0.0947267,0.00843789,-0.0240455,-0.00573279,0.00442062,0.00686446,-0.1187,-0.0754206,0.0232425,0.0769939,0.0169896,-0.0302737,0.0488853,0.0379522,0.0404478,-0.0417076,0.0498353,-0.0565795,0.0969061,0.0346746,-0.00422458,0.0159805,-0.0875666,-0.0261444,0.00958195,-0.0277057,-0.0294343,0.0301209,0.0784411,-0.0187916,-0.128859,0.0855881,0.0214838,-0.0155154,-0.0219362,0.00370533,0.0647107,0.0964558,-0.0029151,0.0121906,0.0766637,0.0280848,0.0735336,-0.095411,-0.0179209,0.0125161,0.0269822,0.00798158,0.184534,-0.0214052,-0.00447279,0.105959,-0.0206061,0.00653395,-0.0916116,-0.214644,0.0406302,-0.075861,0.0649342,0.178672,0.000487994,0.0263803,0.0708991,-0.0101724,0.0540745,0.0237126,0.012768,-0.0340716,0.0773463,0.0674608,-0.00801533,0.113291,-0.0286106,0.0173472,-0.0594939,0.109816,0.0863706,-0.0208223,-0.00469574,-0.0234724,-0.0658036,0.120759,-0.086002,-0.0939212,-0.00430342,0.0803078,-0.0588886,-0.212699,0.0139485,0.114714,0.153426,-0.05233,0.0854018,0.0238192,0.0261794,0.00522163,0.0760413,-0.0520223,-0.0350065,-0.0517097,-0.128957,-0.0558226,0.049274,0.00482577,-0.0545233,0.0358783,-0.00401959,-0.0512149,0.0446959,0.0562507,0.0508999,-0.02365,-0.175278,0.0217924,0.045854,0.00280845,0.0707569,-0.0153019,-0.0564056,0.0266121,0.0334834,-0.0492801,0.00217377,0.0416711,0.042798,-0.0565195,0.117214,0.0275445,0.024616,-0.148591,-0.047101,-0.0415092,-0.127381,0.0729927,0.0605076,-0.0185644,-0.0466027,-0.127638,0.0896891,0.00997145,-0.107831,0.0432328,-0.0816249,0.00953032,0.0741871,0.0403882,-0.00326546,-0.0105211,0.219192,-0.00631161,-0.0175587,-0.0401355,0.0433602,0.108042,-0.109028,0.165994,-0.00968158,-0.0163343,-0.0642971,-0.0530768,0.0862162,-0.00796294,-0.00920485,0.0376089,-0.0407996,-0.0831361,0.0314552,0.0089258,0.112811,-0.00396387,0.0140001,-0.0742821,-0.0754224,-0.0482115,0.0335685,0.0278274,-0.0393445,-0.019935,0.117582,0.0725938,-0.0213272,-0.022558,0.0473495,0.0473166,0.00603415,0.0472765,-0.0887936,0.0283075,-0.057481,-0.0972717,0.167849,-0.107209,-0.0445604,0.0879379,0.0655202,0.00897209,0.139175,-0.00406052,-0.0991693,0.0143312,0.031422,0.0624875,-0.0184128,0.0399346,-0.0636929,0.0124155,0.0188671,-0.00947405,0.0242174,0.0321792,-0.0161868,-0.0346489,-0.0691795,-0.0306735,0.132501,0.0227706,0.0616179,-0.00702822,0.0317978,-0.0538867,-0.0752953,0.0363152,-0.0378178,-0.0134914,-0.0758223,0.090492,-0.0518525,-0.0205499,-0.0715186,-0.237893,-0.0902929,0.034607,0.0116302,-0.071787,0.0557367,0.00567887,-0.0189377,0.070335,-0.0855175,-0.0409666,-0.023696,-0.0501998,-0.0299914,-0.0627528,-0.131044,-0.00642899,-0.055571,-0.0171799,0.0385209,0.0479422,-0.0127227,-0.0614453,0.0398994,-0.058604,-0.0226577,0.0744944,0.00993211,-0.0826078,0.0243293,0.0305368,-0.0105264,-0.0483103,0.295444,0.0212366,-0.124446,-0.00453955,0.024099,0.00439093,0.036512,-0.1796,-0.062324,0.0313879,0.0577624,-0.0474172,-0.0898831,-0.192803,0.0609792,0.0244342,0.0628414,0.018471,0.0932368,0.0608119,-0.0191298,-0.0568462,0.00325133,0.0742369,-0.0969784,-0.0672212,-0.0166234,0.173196,-0.053095,0.0545312,0.0177613,0.0320045,-0.000901478,0.0366713,-0.0372638,-0.0502472,0.0259565,0.0178436,-0.0550047,-0.0217881,-0.0126559,-0.0195546,-0.103187,0.0539484,0.0419172,0.0324136,0.028706,-0.0229106,0.0793358,-0.0417243,-0.0215987,-0.0690892,-0.0117573,0.117757,-0.0640499,-0.0353379,-0.0230761,0.0675837,-0.0766414,0.0535543,0.0111541,0.0151689,-0.0752556,-0.0337091,-0.0909361,-0.0335667,-0.00448058,-0.00666491,0.0603031,0.203081,0.0485989,-0.137342,-0.0412678,0.0319457,0.0329836,0.00519924,0.0274333,0.013355,0.00242355,0.0666163,0.00355702,0.126611,0.0545992,-0.0425863,-0.0138862,-0.00507641,-0.0104316,0.0467253,0.0353822,0.00883959,0.0688629,-0.0366006,-0.0339826,0.0236141,-0.0598826,0.0583572,0.0760875,0.0235983,0.0211403,0.0250515
-0.174709,0.0696303,0.0414686,-0.0189565,0.0909184,0.0500844,-0.0178562,-0.0452329,-0.0188252,0.0193931,0.08716,-0.0759782,-0.0747747,0.0400051,-0.0344899,-0.0371992,-0.0891473,0.00113643,0.0338544,-0.020008,0.0118034,0.0558556,0.130799,-0.15828,-0.108077,-0.0282597,-0.0594323,-0.106988,0.0406753,0.0528557,-0.0818861,0.110287,-0.113913,-0.0466853,-0.0406306,0.00489489,0.0212597,0.0374947,0.238014,0.0191905,0.0170423,0.0622824,0.0272777,0.0928324,0.0528429,-0.0887011,0.00976475,0.0180873,-0.0428625,-0.0589681,-0.0946791,0.0133491,0.0250874,-0.0481243,-0.052995,0.26805,-0.168934,0.0335566,0.0719464,-0.0773229,-0.0685057,0.134083,-0.0177889,-0.0496436,0.05483,-0.0944274,-4.0378e-05,0.0327164,0.0235159,-0.172464,0.00988731,-0.0367636,-0.0326595,0.168374,0.192665,-0.0694984,-0.0353783,0.0397993,-0.0472629,-0.0263876,-0.0354982,-0.00994802,0.0263965,0.0796169,0.0559915,0.0154289,-0.00838039,-0.0568055,0.0020074,-0.0773283,-0.0614895,0.0356592,-0.00481107,-0.0322084,0.00455468,0.00673351,0.0227039,0.0433504,-0.151825,-0.0288283,-0.0581735,-0.0158668,0.0940259,-0.0364015,-0.0139593,0.0630097,0.0505409,0.0576528,-0.0345289,-0.00379388,0.117029,-0.0409904,-0.128713,-0.0363446,0.00627222,-0.0491952,-0.00317521,0.0465495,-0.00864855,-0.0171467,0.083237,0.0392628,0.0101056,-0.0126436,0.0120784,-0.0810723,-0.0405631,-0.0262834,-0.00966942,-0.0360651,-0.0441949,-0.0163093,0.0307763,0.0390249,-0.0553365,0.0204593,-0.0698829,-0.0511954,0.0184422,0.0599544,-0.00502967,0.00993997,-0.112438,0.032163,-0.00587104,0.00626203,0.0643809,-0.0325678,0.00199032,-0.0622186,-0.0865043,-0.0341389,-0.00826674,-0.012916,0.0488131,-0.00518985,0.078496,-0.00960969,-0.113641,-0.0030888,-0.0280416,-0.0786414,-0.084237,-0.128187,-0.0945856,0.0503358,0.148356,-0.114052,-0.251652,0.0914526,0.059512,0.0644563,-0.0896284,0.0392144,0.0201423,0.169752,-0.0572933,-0.0227425,-0.0529218,-0.0966885,0.0633652,-0.00322802,-0.089057,-0.116101,0.0152229,-0.0710628,0.00639743,-0.118917,0.128299,0.079207,-0.0517812,-0.0479195,0.0820361,-0.254485,0.0292482,0.0691995,0.0534028,-0.0218161,-0.0269781,-0.0377504,-0.0472577,-0.037523,-0.0166185,-0.0213545,0.0520073,-0.0366519,0.0267107,-0.0289341,-0.0905597,0.0300509,-0.0805109,-0.0239073,0.0552442,-0.0891179,-0.0508413,-0.0370325,-0.0819529,0.0624155,-0.226978,-0.000706526,-0.00834868,0.0159305,-0.0519203,-0.042516,-0.030787,-0.200894,-0.0410757,-0.0514048,0.316701,0.0299729,0.035412,-0.0335561,-0.0452015,-0.0495462,0.0169258,0.0533002,-0.000497834,-0.0615277,-0.0930353,-0.0369142,0.0205385,-0.141631,0.04723,0.0467502,-0.048372,-0.0355635,0.0495588,-0.0235926,-0.0112863,-0.0247432,-0.229504,-0.0757849,-0.101067,-0.0123658,0.0372616,0.0490173,-0.0454141,0.0655173,0.0187018,0.0422041,-0.119389,0.0143417,-0.0688153,0.013781,0.145633,0.142429,0.0169364,-0.14408,-0.0466199,0.0105684,-0.00271925,0.0133545,0.0442399,0.0547515,-0.0600996,-0.059622,-0.10717,-0.0330259,-0.059522,-0.0244489,0.0129396,-0.0709809,-0.0822902,-0.0178802,0.132857,-0.0537497,0.112343,-0.0325621,0.00862557,0.0193469,0.0778548,0.0693779,-0.0436072,0.149134,-0.0445162,0.0336673,-0.0804682,-0.0394021,-0.0263089,0.0379075,-0.162159,0.0721243,0.00871241,-0.00524848,-0.0576314,0.0944769,-0.028878,0.0850128,-0.0513035,0.0188908,0.0987533,-0.0116088,-0.00607971,0.0516635,0.043514,-0.0302953,0.285509,0.0143019,-0.0243228,-0.0271607,0.11508,0.0425148,0.123966,0.0595884,-0.0471393,0.00164502,-0.0199493,0.0318001,0.138605,0.00637899,-0.0452419,0.0524184,-0.0117008,0.0488656,-0.00807237,-0.0231338,0.0314307,-0.0110862,-0.0462435,0.0633322,-0.0690929,-0.0703591,-0.0980293,0.102126,0.00103626,-0.0249209,-0.0560187,-0.103652,-0.0595145,0.0673942,0.103376,-0.0212136,0.126355,0.141102,-0.0244981,-0.105328,0.0685022,-0.00690944,0.0125778,0.0472527,-0.0546686,0.0255235,-0.0553021,0.0781399,-0.017134,0.0364029,-0.00347504,-0.268739,-0.274675,0.0103713,0.0490059,0.0163101,-0.0436209,0.036538,-0.016665,0.0557157,-0.0373791,0.0746039,0.0166836,-0.024979,0.0278705,0.032849,-0.0735407,-0.0154608,-0.116135,-0.00566923,0.085059,0.0371724,-0.0952463,0.0413874,0.0590235,-0.0431993,-0.0191919,0.0635131,0.00547308,-0.0625841,-0.0352031,0.0174238,-0.101808,0.0327503,0.197094,-0.0290499,-0.0191075,-0.0219201,-0.0096988,-0.055661,0.0585052,-0.308373,-0.0261133,-0.00539666,-0.059323,-0.133872,-0.0541438,-0.169503,-0.0234835,-0.0413609,-0.051856,-0.017967,-0.0567373,-0.00431894,0.0281186,0.0497203,0.00625149,-0.0667415,-0.0729682,-0.0899406,-0.0268616,0.1764,-0.0335202,-0.0636805,-0.141722,0.0490356,0.149287,-0.0854502,0.00645019,-0.0341615,-0.0151733,-0.0351158,-0.00344948,-0.0225256,-0.00927194,0.0239497,-0.0492438,-0.0352426,0.0109397,-0.0738167,0.0168907,0.0196876,-0.0419876,0.0646175,-0.0906908,-0.000200571,-0.0406565,0.0190178,0.0279564,-0.00549786,0.0688027,-0.0323081,0.0136705,-0.0439219,0.0123553,-0.0198162,0.0174111,-0.0378922,-0.0593388,-0.112135,-0.0593501,-0.103601,-0.0687946,0.222807,-0.0725303,-0.286567,0.0974457,-0.0679282,0.133569,0.110059,-0.0529034,-0.00768646,-0.066956,0.0575813,-0.0808003,0.190369,-0.0372919,0.0285953,0.026716,0.0033753,0.00954004,0.0656335,-0.0165276,-0.063449,0.0474874,-0.0396793,-0.0279994,0.113822,-0.0302694,0.174009,0.0191199,0.0202686,-0.0171416,-0.0166897
-0.285259,0.0124485,0.0798345,-0.0311168,-0.011535,-0.0187733,-0.031663,0.0275746,-0.0469677,0.0518784,0.0353032,-0.0134744,0.00225707,-0.0179196,-0.0285657,0.155696,-0.0487153,0.00903523,0.0230394,0.0254366,-0.0715352,-0.112393,0.0824984,-0.138439,-0.158647,0.0166123,-0.0388595,-0.148026,0.0416078,0.0462394,0.00393507,-0.0616483,0.015757,0.0696972,-0.0528707,-0.0150552,-0.0804275,-0.00867782,0.169489,0.0568093,0.00113482,0.0170164,0.0859761,0.042313,-0.0046619,-0.108518,-0.00743343,0.0523382,0.0606087,-0.000375907,0.0345336,-0.0370254,-0.0945805,-0.105423,0.0766653,0.175098,-0.148419,-0.00946315,-0.00394108,0.0132426,-0.0626445,0.073267,0.022036,-0.0959848,-0.0370609,0.0201459,-0.0148333,-0.00128029,-0.020907,0.0607188,0.0553158,-0.0923249,0.0675743,0.158878,0.0483357,-0.0686724,0.0171538,0.153027,-0.0588487,0.019997,-0.0485206,-0.123969,0.0286187,0.00257647,0.0271208,0.0414691,-0.045258,0.0112908,0.0249721,0.0829009,-0.00531614,0.104311,0.0117373,0.0159371,0.00326359,-0.0154569,-0.000727398,0.0847158,-0.105685,0.0483666,-0.0776796,0.0124829,-0.0165839,-0.00248479,0.033507,-0.0383329,-0.0245906,-0.00609253,0.05052,-0.0128476,0.0734083,0.110304,0.0661484,-0.0409363,-0.0669105,0.00126038,0.0485632,0.0791169,0.0678681,-0.0156646,-0.00622123,-0.011143,0.0561599,-0.0243585,-0.0214558,0.0585895,0.0569824,0.0267728,0.0328965,-0.0773285,-0.0177553,-0.0151942,-0.0752954,0.0370969,-0.104174,-0.0612442,-0.0172581,0.00879395,-0.00898201,-0.00195731,-8.12884e-05,-0.129342,-0.334395,-0.00369484,-0.069007,-0.024022,-0.15409,0.07537,0.0510915,0.0196111,-0.0627471,-0.0125553,-0.0719395,-0.00316363,-0.0503447,-0.122311,0.052172,0.0287473,0.0153996,-0.0806713,-0.0700247,-0.136427,-0.0288199,-0.0833126,0.129123,0.00168482,0.137248,0.0136181,-0.163627,0.173001,-0.0834588,-0.0119481,-0.0295707,0.0144283,-0.0593504,0.112769,0.0240649,-0.0210404,-0.013469,-0.0147033,0.0251051,0.112492,-0.0154813,0.0320562,-0.0735001,-0.188092,-0.121378,-0.136799,0.167359,0.0143855,0.0151039,-0.035537,-0.0521034,-0.20995,-0.0954,-0.133107,-0.0431959,-0.0545058,0.054264,0.0633646,0.0151327,-0.0736332,-0.00863942,-0.0171232,-0.028033,-0.0643468,-0.0392049,0.0413949,-0.000146065,-0.158532,-0.0310111,0.00819941,-0.0375598,-0.0544703,0.00909639,-0.00193297,0.0738111,-0.0415783,-0.165841,-0.000795787,0.0403996,0.0111402,-0.0290407,0.00826829,-0.0110145,-0.176249,-0.0158339,0.0752724,0.284802,-0.00742262,0.049941,-0.0646583,-0.0100683,0.0318814,0.00518217,-0.0213791,0.0191181,-0.00010092,0.109823,-0.0249505,-0.142194,-0.0530909,0.0339242,0.151732,0.0586163,-0.11545,-0.0451756,0.00834968,0.073504,-0.0178997,-0.190199,0.0203067,-0.0564831,-0.03971,0.0926979,-0.017266,-0.0959933,-0.0589908,0.0216243,-0.0639874,-0.00303789,-0.0450614,-0.0902729,-0.0566911,0.209197,0.0920315,0.0075865,-0.161793,-0.0414242,-0.00292173,0.0265273,-0.0428932,0.0170353,-0.0732206,0.0271061,0.0326453,0.113759,0.0185176,0.0159724,0.0642988,0.0559701,0.0167897,-0.0593469,-0.0153174,-0.0522756,-0.0561504,0.0251821,0.0596904,0.0709879,-0.0648542,-0.0046648,0.0805645,-0.176421,0.028488,0.0310056,0.106014,-0.0665879,-0.0036035,0.0242439,0.0101479,0.0327258,-0.0832338,-0.0102993,0.00618596,-0.0337074,0.0486371,0.109748,0.00483353,-0.0475828,-0.0972298,0.0635095,0.000187062,0.0426017,0.0526143,0.154482,0.0301382,0.325589,-0.0282981,-0.0092499,-0.0372083,0.0137756,-0.0432061,-0.0312717,-0.032894,0.0253884,-0.0813154,-0.0146066,0.0980584,0.0288653,0.037457,-0.0172306,0.0533735,-0.0125123,-0.00027069,-0.0998532,-0.0405718,-0.0394473,0.0104615,-0.0251309,-0.0427386,0.0378172,0.0497145,-0.0172886,-0.0372101,-0.0203906,0.017257,-0.00732974,0.0448531,-0.052983,-0.0182382,0.0618283,-0.0727883,0.0557844,0.228003,-0.11766,-0.0836298,-0.0178738,-0.0114024,-0.0380048,-0.020675,-0.0474572,0.0299659,0.00819469,-0.0263276,-0.0228203,-0.1119,0.0707878,-0.163543,-0.280002,0.0621896,-0.0527307,-0.0146355,-0.0713804,0.0092629,-0.00839481,0.00708922,-0.0334276,0.00212738,-0.00392341,0.016172,-0.0336358,0.0627485,-0.141888,0.0162254,-0.0480878,-0.0861354,-0.0421816,0.0339353,-0.0159331,0.0361648,-0.00742858,0.0788305,-0.156638,0.0767838,-0.0376569,0.0640485,0.0221498,-0.0355418,-0.0103554,0.0791694,0.265729,-0.0295256,-0.00195691,-0.00326464,0.0705344,-0.0301126,0.0611251,-0.351786,-0.0559228,-0.0781955,-0.0225285,-0.0323798,0.0372743,-0.197177,0.0136815,0.00502429,-0.00945277,0.035011,-0.0402746,-0.0121942,0.0336078,-0.0238124,-0.0671409,0.105964,-0.0674877,0.0498369,-0.0510195,0.112403,0.023047,-0.01718,-0.12409,-0.0690308,0.213496,0.00498831,-0.015435,0.0648925,0.134911,-0.0574659,-0.0505663,0.0141872,-0.0100112,0.0314992,-0.0608539,0.0962673,-0.0633377,0.00661259,-0.0547951,0.0361745,-0.0833926,0.0457192,-0.0247908,0.0687607,0.0139801,0.00279263,0.0336226,-0.0616719,-0.0282842,0.0146088,-0.0241085,-0.030959,-0.00622929,-0.0572657,-0.033487,0.0168873,-0.233651,0.104515,-0.0289452,0.0201763,0.0456923,0.146494,-0.0265629,-0.270376,-0.0412728,-0.0312166,0.102446,-0.0217828,-0.0299755,-0.109759,0.069101,0.133124,-0.0448713,0.123984,-0.00328916,-0.00368973,-0.0241671,-0.0729256,-0.04264,0.0481715,-0.0063746,0.0411211,0.080359,-0.0889343,-0.0788059,-0.00554546,0.0798827,0.0278058,0.0105634,0.055244,0.0313809,-0.0309258
-0.171373,0.0701295,-0.00762468,-0.105303,-0.0330346,-0.0965374,-0.00485592,0.00696018,0.0982888,0.0200891,-0.00511882,-0.0490307,-0.0408195,-0.070358,-0.0839528,0.115003,-0.0135823,0.000834487,-0.037456,-0.0535885,0.0132758,-0.00873886,0.0792528,-0.136631,-0.00193247,-0.0508579,-0.0209782,-0.13905,-0.0202763,-0.0404852,-0.0154985,0.014677,-0.0129856,-0.0351961,-0.0166443,-0.0348938,-0.0327512,0.0170317,0.118822,-0.0325338,-0.00180238,0.0117885,0.115862,-0.113603,0.0760184,-0.10537,0.0125429,-0.0494072,0.0216004,0.0364141,-0.0574243,-0.1242,-0.105275,0.0121999,-0.0244906,0.0747801,-0.0572956,0.0506891,0.0132159,-0.0753228,0.0800082,0.0924104,0.0820417,-0.0204754,0.0134371,0.084184,-0.0303108,-0.0141728,-0.0560607,0.0828745,-0.0171225,-0.0467832,0.0539015,0.0147457,-0.0499375,0.058729,0.0566114,-0.0213802,0.084768,0.0487476,-0.101998,-0.110268,-0.111386,-0.025538,0.0264439,0.0460811,-0.0265318,-0.0532135,-0.135303,-0.00652467,-0.0471201,0.0649192,-0.0526719,0.0210112,-0.0318273,0.00830507,-0.0625658,-0.0755105,-0.093178,0.0121302,-0.00368584,-0.153181,-0.0500081,0.0117439,0.0440675,-0.0116841,-0.070181,-0.0306462,-0.00807064,0.082356,-0.0480882,0.0967421,0.0580843,-0.0528096,-0.0100615,0.0533995,0.0459456,-0.0374196,0.00111383,-0.0441592,-0.0103752,0.0293351,-0.0269557,-0.0332889,-0.033948,-0.0480944,-0.0331812,-0.0697646,0.0630261,-0.0239833,0.00680519,0.00896426,-0.0942191,0.0788002,-0.0420549,0.07532,0.0301271,-0.113352,-0.00540095,-0.0945236,0.0535848,-0.223799,-0.415131,-0.0330896,-0.065669,-0.080993,-0.035069,-0.0345576,0.0139531,-0.0355433,-0.0977595,-0.150678,-0.00981431,-0.0157705,-0.0245968,-0.059186,0.0461701,-0.0659731,0.0487153,-0.0259134,0.0481198,-0.0356176,-0.0684647,-0.0412689,0.0432736,0.0614659,0.325372,0.00991135,-0.0819941,-0.00208546,-0.062924,0.00818672,-0.0172108,-0.0079037,-0.0665046,0.118453,0.0240218,0.0110959,0.023683,0.118069,-0.0334958,-0.130553,0.0438915,-0.0399184,0.0507304,-0.163404,-0.137952,-0.108742,0.150698,0.0205088,-0.0446988,-0.0407508,-0.0575937,-0.0347368,0.0788723,-0.0514964,-0.00753591,0.0311444,0.0222213,-0.0555648,-0.102879,-0.0212309,-0.000306601,-0.0135317,-0.043347,-0.0747802,-0.0447538,0.0402255,0.0622321,-0.116446,0.0304533,0.0337814,0.0185524,-0.0299278,-0.0171441,0.0614281,0.000826115,-0.0727154,-0.154111,-0.0166683,-0.0335104,0.0630575,0.0626388,-0.0342008,0.0188702,-0.144354,0.0425005,-0.0459469,0.241566,-0.0238813,-0.00315616,-0.0125951,-0.0215406,0.0225036,0.0657617,0.00301629,0.00120892,0.00964292,0.00587173,0.0312027,-0.235945,-0.0659023,0.0205668,0.0860591,-0.00512355,-0.0622105,-0.0107542,-0.00219788,0.119761,-0.0958979,-0.179491,-0.0685737,-0.0131387,0.07347,0.0434722,-0.0488806,-0.0297851,0.057032,0.10538,-0.0373802,-0.0885299,0.0492149,-0.0787508,0.00254384,0.149493,0.106693,0.104739,-0.0650039,0.0725783,0.0546063,0.0278147,0.0340271,0.0754647,-0.0722738,-0.00403214,-0.0516615,0.0708368,0.0323672,0.012436,0.0540353,0.00831145,-0.0323461,-0.176516,-0.0577552,-0.00156655,-0.141226,0.0525339,0.0572323,-0.0492787,0.0174903,-0.102038,0.00249128,-0.0801648,0.0265902,-0.0631668,0.0123749,0.0251873,-0.0328839,-0.0274682,-0.0189628,-0.0990009,0.00944369,-0.0255641,0.0367421,-0.0913027,0.0515604,0.0120133,0.0290935,-0.0580154,-0.0905056,0.0592096,0.0304139,-0.0217304,0.0254514,0.0406656,0.0432142,0.206501,0.0303944,0.0140987,-0.0861188,0.0680916,-0.0126551,-0.0371628,0.0250987,-0.031043,-0.0686145,-0.146602,0.0244019,-0.11562,0.0196978,0.00546658,-0.094806,-0.123776,-0.000998456,-0.155471,-0.0133424,0.00883457,-0.0438793,-0.0798804,-0.0483155,0.0255734,0.0744722,-0.0533301,-0.1017,-0.0256972,-0.0623801,-0.000672266,0.0245993,-0.0171617,-0.0209603,0.00914199,-0.0282561,-0.0241257,0.153734,-0.0471579,-0.119086,-0.0477484,0.0353425,-0.0175468,-0.0283748,-0.00475838,0.0920278,0.0112865,-0.0993386,0.0247001,-0.0505566,0.0282973,-0.12107,-0.26752,-0.00288054,-0.107225,0.0168321,0.0974118,-0.0716373,0.0220475,0.137376,-0.0246774,-0.014508,-0.0356476,-0.118874,-0.0629068,0.0182596,-0.246426,-0.131454,-0.15431,-0.0224986,-0.0518459,-0.0468435,0.0130242,0.0452553,0.0809987,-0.00945835,-0.0506682,-0.115269,-0.0530718,0.166328,-0.0163023,-0.00119548,-0.0097325,0.0654248,0.152587,-0.0389668,-0.0797855,-0.000654449,0.027538,-0.0242601,0.0485258,-0.225763,0.000381999,-0.185955,0.0477408,-0.00847691,-0.0340985,-0.0826485,0.044214,0.0722794,-0.0884435,0.00375239,0.122686,-0.021413,-0.100511,-0.0387536,-0.0974862,0.0504135,-0.00742704,0.0129364,-0.0771197,0.13011,-0.046627,-0.010807,-0.0884677,-0.0449305,0.197508,0.0109146,0.00675091,0.0110789,0.0596561,-0.0410903,0.0175637,-0.0837828,-0.0225826,0.0680148,-0.0207738,-0.0505164,-0.0283191,0.0338634,0.0438614,-0.0369519,-0.0360909,-0.0752843,-0.0286047,0.0820086,0.032544,-0.152013,4.23616e-08,0.0581231,0.0248201,-0.000225781,-0.0502373,0.028713,-0.00418601,0.0282871,-0.0677844,0.153245,-0.174132,-0.128073,-0.0421794,0.0654734,0.000404011,0.0818944,0.0354932,-0.156363,-0.104366,0.0784766,0.0986625,0.0290507,-0.00589888,-0.00671305,-0.0428265,0.18584,-0.0914274,0.0652056,-0.112535,0.0471596,-0.1072,0.033615,0.014786,-0.0735626,0.0667683,-0.0296547,0.136252,0.0131857,-0.0523984,0.0449155,0.0326824,-0.0751918,-0.0181472,-0.0642893,-0.052519,-0.0532901
-0.163423,-0.11303,-0.0106399,0.0137806,-0.0389601,0.0391619,-0.0127888,0.0291657,-0.0138584,0.00751765,0.0254545,0.0238779,0.0456339,-0.0830381,-0.093137,0.200424,0.0625457,0.0819738,0.0862426,0.00256053,-0.0573698,0.060602,0.0778207,-0.0448053,0.102896,-0.0102172,0.00337228,-0.226274,-0.0655986,0.0553327,0.00471029,0.0399526,-0.0113004,-0.0522524,0.0190222,-0.00184511,-0.0167018,-0.0489541,0.123451,0.0583752,-0.0435309,-0.142672,0.0852192,-0.0550954,0.0283581,-0.0538696,0.0248316,-0.0509123,-0.0495692,0.0745916,0.055287,-0.134633,-0.159614,0.0924844,0.00114515,-0.0382147,-0.0396671,0.0481625,0.0389804,-0.0368311,0.0437886,0.0983074,0.0295341,-0.019495,-0.00554923,0.193937,0.016528,0.0930196,-0.0216542,0.232358,0.0270889,-0.0071625,-0.000529173,0.128234,-0.112522,0.114247,-0.137818,-0.0200403,-0.0557383,0.0050352,0.0419129,-0.0122442,-0.0189652,-0.134878,-0.0567151,0.00831764,0.0570758,-0.0301113,0.00166636,-0.0176165,0.146994,0.0565501,-0.0272464,0.0375222,0.0504405,-0.0972262,-0.0124151,-0.0996257,0.136025,-0.0579956,0.0623487,0.00231693,-0.0259748,0.0156397,-0.0716892,-0.00149265,-0.125051,-0.000999695,0.0192256,-0.00261341,-0.109739,0.184301,0.147374,0.00422195,-0.012021,0.0654354,0.0909766,0.129602,-0.0129016,-0.0838043,0.0277296,0.123905,-0.0269588,0.0803718,0.0763714,0.0183913,0.0257279,-0.0429438,0.0169276,-0.0708388,-0.139784,-0.0636237,-0.0503541,0.0124768,-0.070137,0.044401,-0.0962505,-0.113444,0.0577443,-0.0129709,0.0884012,-0.222548,-0.335254,-0.111977,-0.0611167,0.00853035,-0.137372,0.0498771,0.063076,-0.0382441,-0.113893,-0.02402,0.0145631,0.0279307,-0.0262153,-0.0320793,0.0287925,-0.158432,-0.0321123,0.0488147,-0.036957,0.0638206,-0.0805359,0.00802012,0.0560705,-0.108771,0.193742,0.0263783,-0.0649298,-0.148254,-0.0179897,0.0760308,-0.0232048,0.115583,-0.10891,0.242143,0.116363,0.116056,-0.012819,-0.0395916,-0.10326,0.035667,-0.0357334,0.0432809,-0.00613217,-0.29345,-0.187851,-0.0985999,0.196161,0.0263487,0.0359967,0.0807274,0.00174529,0.0777431,0.0421033,0.00812587,0.0256532,-0.139466,-0.0542981,-0.0328631,-0.219751,-0.0209923,-0.0133183,-0.0378905,-0.010877,-0.0360332,-0.124881,-0.0427307,-0.0145782,-0.167579,-0.0277469,-0.0536395,-0.050659,0.0130065,-0.0417816,-0.0275302,0.0835971,-0.0772987,-0.0994094,-0.0329906,-0.107845,0.0352132,-0.0423687,-0.016195,-0.0130267,-0.027285,0.157983,-0.0633058,0.209825,0.022463,-0.0973089,0.00988374,0.00583496,-0.00937712,-0.11916,-0.076982,-0.00516027,0.0277341,0.137348,0.00612704,-0.137488,0.0219323,-0.0536713,0.0943795,0.0642354,-0.10177,-0.0687445,-0.145414,0.0719474,0.0552501,-0.0964391,-0.032284,0.029367,-0.0599117,0.0292824,0.0757518,0.160416,-0.0613964,-0.0268733,-0.0651637,-0.0835228,-0.0529324,-0.164493,-0.0358486,-0.0063713,-0.0384869,-0.0274172,0.0540752,0.0360777,0.0255379,0.0139713,0.017971,-0.0640523,0.014746,-0.0516295,-0.0474542,-0.00628193,0.00989234,0.114812,-0.0146985,0.0499576,0.077372,-0.121218,0.0315524,0.0597178,-0.267668,-0.0394858,0.039002,-0.123092,-0.0679761,-0.0756496,0.0990366,0.00766851,0.0390553,-0.017844,-0.0189334,-0.00709271,0.0213054,0.0245823,0.0539625,-0.0531702,-0.0195484,0.113237,0.0185868,-0.0574338,-0.0516669,-0.012826,0.113679,-0.00162466,0.040011,-0.0598981,-0.0175276,0.00747281,-0.0498247,0.0256691,0.0316609,0.165908,0.0422887,0.0180846,-0.048574,-0.057939,-0.0687549,-0.106095,-0.00698208,0.00388673,0.0327091,0.0792768,0.0914963,-0.177396,0.0203512,0.0514924,-0.109956,-0.140317,0.0449383,-0.174056,0.0607192,0.00487244,-0.0520849,0.00229185,-0.0216559,-0.0259729,0.0249336,-0.0457537,0.0599658,-0.00083743,-0.0177433,-0.00893476,-0.048476,-0.0982222,-0.024182,-0.223464,0.0274761,-0.0661916,0.120403,-0.0441893,-0.00803405,0.0516296,-0.000732153,0.0738147,0.0299743,0.0290299,-0.0406208,-0.0717903,0.0245319,0.00949038,-0.061959,0.093803,0.0492409,-0.239101,-0.00578842,0.0915332,-0.0716937,0.0448548,0.0485741,-0.0712234,-0.0409179,0.046342,-0.0397062,0.00739501,-0.0251459,-0.0545164,-0.0607643,-0.284987,0.00666527,-0.179336,0.0232959,-0.0787545,0.00843716,0.0509368,-0.0564524,-0.134417,-0.0118971,0.0434573,-0.125079,-0.00248661,0.111383,0.0317701,-0.00548929,-0.0127083,-0.126832,-0.0115155,0.0300744,-0.00754393,-0.0456679,0.0138032,0.0429479,0.264668,-0.069692,-0.015835,-0.0543909,-0.020544,-0.00505162,-0.0247672,-0.170256,-0.0309572,-0.0331754,0.0828738,-0.0415881,-0.0562558,-0.0351255,-0.0343809,0.116609,-0.0337558,-0.0473157,-0.00287873,0.0787148,-0.0296935,-0.0121764,0.0558233,-0.0673409,-0.177696,-0.034755,0.133092,-0.02373,0.000614031,-0.00699292,-0.0592781,-0.0469597,0.0612695,0.0133598,-0.013707,0.113833,-0.0174408,-0.00608989,-0.0445976,0.0802213,0.00803427,-0.0440531,0.0795329,-0.0579537,0.0481546,0.0588926,0.000181897,-0.270723,0.0357517,0.0207671,-0.000759593,0.00525905,-0.0202649,-0.0414488,-0.00642612,0.0407235,-0.0424975,-0.0556739,-0.306942,-0.0197062,0.0290351,-0.0510265,0.00323256,-0.0159102,-0.0477686,-0.105021,-0.00280554,-0.000745546,0.182338,-0.0595882,0.0150446,-0.0362169,0.0352835,0.152683,-0.044029,0.000961266,-0.0056105,-0.00139317,-0.0910662,-0.0272206,-0.00820775,0.0453714,0.0195046,-0.0151232,0.118581,0.0210283,0.0312846,-0.100597,0.0162123,-0.0859795,0.0411834,-0.0372254,-0.0436052,0.0170318
-0.10298,0.0447551,-0.033812,-0.016141,-0.0177136,-0.121365,0.0896894,0.0165616,-0.0408731,-0.0189804,-0.0175872,0.112128,-0.151,-0.0962305,0.0357032,0.222192,0.0936183,-0.0441345,0.00195632,-0.039612,0.0233875,-0.0547595,0.0298937,0.012504,0.175825,0.0183645,-0.0293023,-0.17018,-0.0278498,-0.0239597,0.119417,-0.0668775,0.0161353,-0.0297056,0.0372687,0.0226731,0.00402545,-0.0232561,0.032433,-0.0461894,0.0130089,0.038698,-0.0128213,-0.0255204,0.0668245,-0.0185669,-0.0517052,-0.0182586,0.0654764,-0.00145466,0.0864719,-0.236467,-0.230521,0.123103,0.0440439,-0.0984171,-0.0160421,-0.0362339,0.0642581,-0.0579955,0.00257356,0.159624,0.0945733,0.0312445,-0.0399091,0.152193,0.0502274,-0.0366387,-0.0609367,0.26247,-0.0783723,0.073859,-0.0315414,0.00976108,-0.200738,0.240343,-0.00713983,-0.121171,0.0205032,-0.0684722,0.0048029,-0.00638448,0.0188565,0.0898156,-0.0590516,-0.0575757,0.0078274,0.0712662,-0.0169806,0.0242766,-0.110849,-0.00971033,-0.0994389,-0.0207378,-0.0225202,-0.0920515,-0.0118664,-0.0604578,0.0599198,-0.0049728,0.0132922,-0.0647453,-0.0148762,-0.00167305,-0.0102588,-0.0754734,0.0386681,-0.0269573,-0.00317169,0.0525848,-0.158969,0.0969015,0.259918,-0.0309841,0.0873788,0.0933912,-0.0603937,-0.0253509,0.0642271,-0.108243,-0.03351,-0.0271445,0.0775662,0.0778039,-0.09105,0.0323388,0.0513587,0.012795,-0.0355054,0.0549531,-0.00948548,0.00560406,0.0273756,-0.0224015,-0.0134568,-0.0045746,-0.105352,-0.0561531,0.0817121,0.0339341,-0.0498353,-0.190546,-0.21525,-0.0489022,-0.0279105,0.0543983,-0.0331342,0.0324828,0.0847315,-0.0233586,0.0464453,-0.0341038,-0.109388,-0.0685898,0.0357173,-0.0314064,0.035059,0.0211448,-0.00745348,0.0498688,-0.0208689,0.0588741,0.0307208,-0.0568291,0.0850269,-0.071482,0.339465,0.0209978,0.0983411,-0.216424,-0.0646806,0.0455298,-0.00599555,0.0768424,-0.243215,0.232316,0.0283055,-0.0192928,0.0076176,0.0471379,-0.0600267,-0.0203419,-0.0190253,0.0308542,-0.00769497,-0.197361,-0.285512,-0.10832,0.1028,-0.0687608,0.0512992,0.00351905,-0.0881749,0.13635,0.166999,0.138634,-0.0605074,-0.184415,-0.047372,0.0664745,-0.0500676,0.0233572,0.0442093,0.0640214,-0.00786904,0.00382064,-0.000474415,0.0123396,0.0228971,-0.198547,-0.0176915,-0.0663213,0.012683,0.0284507,0.0326331,-0.020048,0.0365059,-0.00913093,-0.00627442,0.0342483,-0.0836283,-0.0578708,0.0575088,0.0367211,-0.0776879,0.0709136,-0.061847,-0.0396752,0.128851,-0.0134714,-0.0442712,-0.0606434,0.0605804,-0.0453324,0.00574951,-0.0549813,0.029724,-0.027709,0.207238,-0.0066248,-0.0767836,-0.0145655,0.0687951,-0.0448062,0.0850813,-0.0249099,-0.0287173,-0.0827281,-0.0723101,0.00124052,0.100333,-0.0271669,-0.0348102,-0.10405,0.0146735,-0.00707157,-0.0166376,-0.0104347,0.0368588,0.0480596,-0.0635011,-0.133194,-0.150081,-0.0747461,-0.16171,-0.0459751,-0.186265,-0.114608,-0.0522522,0.0346198,0.0860826,0.0777048,-0.0186954,0.0513615,0.0157244,-0.0706173,0.0921424,-0.00270622,0.0380038,0.0340766,0.0699795,0.0305837,-0.200066,0.0157376,-0.0370638,-0.146732,-0.0479065,0.00353159,-0.0119722,-0.0491984,-0.0337377,0.0190381,0.145426,0.0111812,-0.0127043,-0.0110629,0.0479319,0.0266626,0.0283118,0.0133705,0.00832075,-0.0231831,0.0326777,-0.0678455,-0.0398849,-0.0830643,0.00895521,0.0120162,-0.138496,-0.0411795,0.0367018,0.0164137,0.0177485,-0.0238721,-0.0593013,0.031146,0.111061,-0.0576122,0.0105918,-0.0146616,-0.145907,-0.0632086,-0.0956882,0.025447,-0.0136757,-0.0103747,-0.0230544,0.172932,-0.196152,0.0075397,0.0135027,-0.0716909,-0.066104,0.00679445,-0.145194,0.0803672,0.0047509,-0.0488274,-0.0237877,-0.186001,0.0232501,0.135513,-0.0400241,-0.017249,0.00954769,0.0381258,-0.109601,-0.00582384,-0.0206889,-0.0914813,-0.215484,0.0349602,-0.0415782,0.121586,-0.0402263,0.0112679,-0.0988597,-0.0226583,-0.0339503,-0.0165832,-0.0295952,0.0247545,0.0446503,-0.0314373,-0.0954915,-0.0807044,0.0831871,0.106737,-0.175965,-0.00338252,-0.142881,-0.0673131,-0.0275949,-0.00458913,0.0179113,0.013551,0.0275979,-0.0513173,0.11014,-0.0368041,-0.129836,0.0352463,-0.214821,0.0391264,-0.0342216,-0.0354431,-0.100414,0.013626,0.0250404,0.108792,-0.219329,-0.0252049,0.0456869,-0.28399,0.0556515,0.186877,0.0516755,-0.0723846,-0.0537764,-0.0274683,0.0131548,0.0427827,-0.052956,0.0192953,0.017615,-0.0810779,0.149013,0.0695154,0.0387427,-0.00632145,-0.0241375,-0.0498853,0.00679851,-0.0625417,-0.0205657,-0.133307,-0.000376791,-0.0221708,0.0424394,-0.0192426,-0.00405785,0.0320687,-0.0359333,-0.0886082,0.0457215,0.172129,0.0555174,0.0642144,0.0354236,-0.120934,-0.0692585,0.0312885,-0.034907,-0.0338645,-0.0155814,0.0127585,0.00610175,-0.0796644,-0.091482,-0.0404851,-0.00188346,0.0888251,-0.0655272,-0.0103559,-0.0413551,0.00425727,0.0737608,0.0206895,0.0588853,0.0935708,-0.0286245,0.0180271,-0.00237274,-0.166796,-0.0922887,0.0133844,-0.00975615,0.00639431,0.0491623,-0.0937304,0.0358876,0.00536758,-0.101311,-0.09304,-0.203617,0.0239352,0.0643526,0.01059,-0.0184055,0.0324129,0.00665484,0.0448999,-0.198441,-0.00488536,0.0596593,-0.040786,-0.0324102,-0.0560784,-0.0223476,0.166071,-0.0675464,-0.0844038,-0.0398217,0.05079,-0.0968762,-0.0135013,-0.0441628,-0.095953,-0.0857087,-0.133215,0.145581,0.00252342,-0.0402731,-0.0307076,0.0258861,-0.253964,-0.0377491,-0.00535881,-0.0589343,0.0322831
-0.0415611,0.0488128,-0.055649,0.0411618,0.0385494,-0.00322056,-0.0226298,0.059165,0.0626966,0.00552532,-0.0175175,0.0977285,-0.118253,-0.0168403,0.14755,0.0492215,0.0950308,-0.0626637,0.0917658,-0.0647049,-0.0638794,0.0494768,-0.109328,0.126443,0.243919,0.0073024,-0.0242835,-0.166867,0.0409853,-0.0276972,-0.0254212,-0.0460756,-0.103982,-0.0625602,0.0424466,-0.0235241,-0.00549918,0.0281038,-0.0189885,0.0143363,0.0269607,0.00300678,0.00654399,0.0882402,-0.00366265,0.0329149,-0.0552875,-0.0987974,0.0171797,-0.0505477,0.0184627,-0.298545,-0.0975203,-0.11421,-0.0155268,-0.13235,0.0317494,0.0139674,0.0172197,-0.0835012,0.0609934,0.00281734,0.0212712,0.0384107,-0.0126584,0.313809,-0.0617804,-0.0101454,0.0613326,0.239308,-0.0197435,-0.00937343,0.019695,-0.0209222,-0.234555,0.21319,0.0275892,0.0245742,-0.0404938,-0.0143484,0.0863337,-0.0355367,-0.0266788,-0.0809577,-0.118993,-0.0987373,0.0186238,0.0741447,-0.0494924,-0.130271,-0.0600951,-0.0362833,0.0118939,0.0043196,0.0344941,0.00268499,0.000650528,0.0096129,0.0548687,0.017714,0.0519305,-0.0932012,-0.0104675,-0.166304,0.0492374,-0.0959609,-0.00383449,-0.044336,0.021181,-0.0171159,-0.276837,0.0261781,0.221994,0.0074167,0.0932846,0.0517087,-0.0645336,-0.0244639,0.0693719,-0.0694464,0.00451187,0.00423545,-0.0128156,-0.0484887,0.00730791,-0.000256398,-0.0279379,-0.0587396,0.0884091,-0.00353303,0.123995,0.0305406,-0.0387407,-0.116064,0.0114441,-0.0159117,-0.00466477,0.0508752,-0.0152442,-0.0353574,-0.0843731,-0.214566,-0.126348,-0.0787639,0.00163756,-0.049759,-0.122155,-0.052342,-0.00953508,-0.0308207,0.0435967,-0.0358384,-0.0381625,-0.0140952,0.063723,0.0425453,0.0140741,0.0216357,0.000745609,0.0657351,-0.0480618,-0.0199118,0.0623028,-0.093239,0.168708,-0.0358038,0.0913033,-0.00144442,0.0515034,-0.235169,-0.0258617,-0.0130235,-0.00176241,0.0995557,-0.227811,-0.0258536,-0.00549812,0.036054,-0.00134512,0.000773475,-0.0690667,-0.0293453,0.0344735,0.0520885,0.0243914,-0.103037,-0.288512,0.0036441,0.0552973,-0.167056,-0.0103928,0.000361074,0.0935375,0.204052,-0.0221174,0.0509305,0.0180755,-0.208614,-0.0989164,-0.0521649,-0.111439,0.029891,0.00623712,0.0246721,-0.0318728,-0.0302665,0.0564363,0.0471938,-0.0364153,-0.0299329,0.0546827,0.014126,-0.0512487,-0.0186369,0.0506899,-0.030942,-0.0174823,0.0160204,0.041618,-0.0438363,0.0207558,-0.0178938,0.0277485,-0.027098,-0.0193734,0.17846,0.0206579,-0.0726885,-0.0406744,0.0175458,-0.00266584,-0.0754876,0.0454377,0.0236018,-0.0235386,0.00380874,-0.0251723,0.0224804,0.197316,0.0299974,-0.155156,-0.0376772,0.0746436,-0.0598871,0.0795143,0.111812,-0.106898,-0.0858629,-0.00740585,-0.0736455,0.140372,-0.0497045,0.00446241,-0.00331657,-0.0330371,0.103371,0.0247629,-0.0245493,0.00212693,0.0172288,0.141942,0.0079668,-0.0308086,0.0088278,-0.276863,-0.121255,-0.0988377,-0.00517908,0.0676915,0.0293691,0.047888,0.00593422,-0.0554403,0.0829867,0.0906223,0.00620307,0.0633213,0.0761959,-0.0581787,0.00446437,0.0339765,0.0372603,-0.0839108,-0.0146716,-0.100054,-0.175459,-0.0563482,0.00360368,0.0295664,-0.0455745,-0.000280395,-0.0963601,0.182651,0.0502039,0.0416726,-0.0192541,0.0555733,0.00369913,0.00325453,0.0204485,0.0167384,-0.00592194,-0.0484258,0.0157508,-0.0663521,-0.203544,0.0400548,-0.0577467,0.012394,-0.00874061,-0.0676712,-0.00976297,-0.0131039,-0.0383867,-0.133152,-0.00841572,-0.00397961,-0.0631642,0.0212735,-0.0578206,-0.129557,0.0112332,0.0100877,-0.0363183,-0.0260635,-0.0163772,-0.0127334,0.11301,-0.291456,0.00367815,0.00903589,-0.0570799,-0.0723013,-0.068752,-0.1187,0.130251,-0.00950744,0.00875233,-0.0461593,-0.130366,-0.0443737,0.14117,-0.0302738,0.0720379,-0.020547,-0.0178096,0.0496883,0.0468198,-0.0352851,0.0371608,-0.157732,-0.0716099,-0.0291534,0.0410746,0.00768109,-0.0537195,-0.000651127,-0.0338819,0.11873,-0.044411,0.0547781,-0.0545648,0.00224579,0.00473835,-0.0812233,0.000910639,0.116738,0.116534,0.00660978,0.0205388,0.0694645,-0.025424,-0.0228605,0.00301976,-0.0737513,-0.113401,0.12718,-0.0946894,-0.0447707,-0.101342,-0.105144,-0.00658696,-0.169263,-0.0068378,-0.00458285,0.0448063,0.0110381,-0.0346445,0.0646484,0.0303073,-0.160381,-0.0283959,-0.0361879,-0.163984,0.094011,0.0844269,0.00707232,0.0470979,-0.00635773,-0.073138,-0.111837,0.0202505,0.0930584,0.0311051,-0.100456,-0.00765709,0.181043,0.0936439,0.0334583,0.208443,0.0403843,-0.0312937,0.0474608,0.0340661,-0.0256188,-0.00507911,-0.0379549,-0.0478295,-0.0962621,-0.0150484,0.0430712,-0.0522263,-0.0436009,0.00157814,-0.126431,0.152867,0.022358,-0.0948733,0.0134182,-0.0438912,0.0255648,0.0228557,-0.0253472,0.0101689,-0.0210043,-0.0117669,-0.0342629,-0.0153598,0.0181652,0.0890393,0.0578187,0.103982,-0.00335184,0.0603951,-0.103303,-0.0288099,0.00923104,-0.0350011,0.075754,0.0286067,0.051922,0.106663,0.0142672,-0.137251,0.0180572,0.0435652,-0.0380059,0.00509729,-0.00620616,-0.125437,0.00822123,-0.0366488,-0.124003,0.000751575,-0.0295838,0.0599176,0.0431056,0.0439943,-9.33441e-05,-0.123695,0.106565,0.023729,0.011707,-0.00531534,-0.0191151,0.0346306,0.0183972,-0.0633524,-0.0130088,0.117244,0.136029,0.0300598,-0.0141798,-0.0208319,-0.148296,-0.0298917,-0.0181839,-0.117723,-0.0121007,0.121508,0.150033,-0.00490718,0.00726363,0.020607,-0.0758134,-0.245521,-0.0266935,-0.0425838,0.0217381,-0.00591592
0.159002,-0.122854,-0.0861317,0.0159282,0.0320437,0.119616,0.0286613,0.0401954,-0.0196968,0.068333,-0.000778795,0.0207726,0.104539,0.0450893,0.0828772,0.0357349,0.148776,0.00407941,0.0651167,-0.0914023,-0.0671406,0.00646069,-0.00934476,-0.0303799,0.292385,-0.00352522,-0.104927,-0.100261,0.046618,0.00821565,-0.166859,0.0443456,0.0115516,0.0663385,-0.0118679,-0.0528142,-0.0213263,-0.0213897,-0.0788018,-0.0350383,-0.0652932,0.0471261,-0.0193866,-0.00800658,0.101555,0.0584325,-0.0194337,-0.0234575,0.0389154,0.0681487,0.0126734,-0.18177,-0.111096,0.0417215,0.0220898,-0.0135523,0.0689992,0.0850666,-0.0289042,-0.0245102,0.00699647,0.0484969,-0.100816,0.0270893,-0.0292658,0.139419,-0.0324057,0.133049,-0.129751,0.0794983,0.0631616,-0.0353116,0.0200317,-0.0101571,-0.220517,0.147834,0.0137827,-0.103355,-0.013791,-0.0143902,0.0886087,0.0386068,0.0799527,0.0389808,-0.00210251,-0.158221,0.00917432,-0.0425385,0.0237036,0.0729962,-0.0406147,0.0169452,0.155301,-0.0509672,-0.0121349,-0.0268806,-0.00874324,-0.0445922,0.0324454,-0.0945357,0.0293559,-0.0155339,-0.00903699,0.0299734,-0.0729623,0.00981435,0.0153565,0.0437767,-0.0206089,0.00442035,-0.331351,-0.185542,0.217923,0.0383315,0.0264299,0.0411294,0.0400345,-0.134636,0.0503623,0.0754044,0.0468988,0.0620346,-0.103662,0.00518226,-0.0612773,0.051642,0.0271389,-0.0490147,0.00510877,0.0333184,0.00583462,0.0139145,-0.0899063,-0.059513,0.0112694,-0.0602621,-0.063232,-0.0296628,0.0104868,-0.0414918,-0.133176,-0.0952292,-0.0883202,-0.0895206,-0.035119,0.0205061,-0.0504705,-0.0152953,-0.0405507,0.00813925,-0.0139579,0.00105331,0.0303715,-0.0359159,0.0153362,-0.0256739,-0.0249117,-0.0195783,-0.0797236,-0.0879714,0.0425872,-0.0260638,0.0490543,-0.0388029,0.0404065,0.020671,0.00631027,-0.0210141,0.0563815,-0.286106,-0.0223711,-0.0314175,0.0692692,0.0613751,-0.22572,0.0136514,-0.0302445,-0.0371273,0.0344032,-0.00682243,-0.0607592,-0.0482523,0.0361946,-0.00108252,-0.0410206,-0.0639305,-0.187846,-0.0654753,0.00110591,-0.16792,-0.113605,-0.0150431,0.0177184,0.13763,0.0453295,0.074233,-0.0500235,-0.162332,-0.0579298,0.0256805,-0.145539,-0.0492603,0.009591,0.00682795,0.0219944,-0.0167062,0.0706263,-0.0113497,-0.0822649,-0.0639813,0.0424783,-0.0311163,-0.0675225,0.0319073,-0.031607,-0.0623813,-0.0838984,0.0978195,-0.0335771,0.060072,-0.0614142,-0.0390892,-0.0402124,0.0947645,-0.0895718,0.262204,-0.0190757,-0.116956,-0.110201,0.0121854,-0.00465617,-0.0211171,0.0395138,-0.0922054,-0.133936,-0.0384788,-0.0425884,0.00075534,0.165369,-0.0617714,0.00844886,-0.0417312,-0.086908,-0.145293,-0.104086,0.269324,0.0428619,-0.0737564,-0.0833063,-0.074646,0.20026,-0.00802258,-0.0350975,-0.160278,-0.153339,-0.0188837,0.0270938,0.0838186,0.0209398,0.0314065,0.0262711,0.0235977,-0.0611982,-0.0791093,-0.359043,-0.398615,-0.163743,0.0338426,-0.0283217,0.123055,-0.0856126,-0.0666873,-0.0830217,0.0530478,-0.00169554,0.0103717,0.0504874,0.0652248,-0.0364379,-0.0256251,-0.00885292,0.0295055,-0.0485813,0.013034,0.0309939,-0.0789166,-0.0204657,-0.0614534,0.0115309,-0.0640192,0.00581644,-0.028726,0.418953,-0.0202178,-0.0471832,-0.03539,0.0144998,0.0498091,-0.0764881,-0.0357933,0.0338158,0.00693064,0.0129118,0.0401738,0.00703599,-0.163567,-0.0300605,-0.20255,0.00547695,-0.034989,-0.00608321,0.0368327,-0.0149565,-0.0718896,-0.125344,-0.104448,-0.0981275,0.0206096,-0.0225405,0.0670605,-0.0896464,-0.0450192,0.0477742,-0.0581713,0.00916251,0.0408991,0.0649285,0.114146,-0.107667,0.0278416,-0.0123467,0.0164209,0.167234,-0.116923,-0.0279517,0.0492094,-0.0393125,0.0207863,0.0331159,-0.177386,-0.0602948,0.13666,0.0213639,0.0180129,0.0068422,-0.0506065,0.00811005,0.0332892,-0.102573,-0.0232679,-0.0603737,0.0301938,-0.0227454,-0.0176709,0.0873259,0.0357179,0.00773456,-0.0525239,-0.0247308,-0.0202668,-0.0235043,0.0223571,-0.0161997,0.00302895,-0.0289289,0.0106572,-0.00646272,0.117147,-0.0809106,-0.0473287,-0.0151388,-0.00453596,0.0628647,-0.0667891,-0.0294441,-0.191776,0.125317,0.0506741,-0.00433357,-0.00801236,-0.156007,-0.0515898,-0.0970923,0.0268925,-0.0565937,-0.0167296,-0.0220183,0.0239272,-0.0215801,0.0800164,-0.173833,-0.0302459,-0.122441,-0.17786,0.024134,0.0303567,-0.000153133,-0.0393768,0.0218304,-0.00309437,-0.0820265,-0.110657,-0.0743432,-0.0287884,0.0163894,-0.10949,0.108875,0.0527193,0.00749098,0.144724,-0.0172696,-0.0443371,-0.0582929,0.0178818,-0.00896032,-0.0276818,-0.0308821,-0.043614,-0.0802874,0.0242371,-0.0537989,-0.0416676,0.0082787,0.0145609,0.0520914,0.0448365,-0.0787946,-0.111322,0.0222375,-0.0694072,0.161518,0.0384684,-0.00809635,-0.0703223,0.00678004,-0.032987,-0.123459,0.00148544,-0.00834699,0.0575651,0.00108344,0.0278203,0.0109101,0.035374,-0.102616,-0.00969873,-0.0850817,-0.0112831,-0.107809,0.0127808,-0.0538385,-0.028795,-0.0391366,-0.00583249,-0.0715522,-0.00108651,0.0748279,-0.0837268,-0.110191,-0.053232,0.0017578,0.0278808,-0.0153407,0.0122006,-0.0998044,-0.0545455,-0.0161075,0.000704357,-0.0337087,-0.114843,-0.0123472,0.207729,0.0528915,0.0446967,-0.120658,0.0755403,0.0127913,0.00327128,-0.0268983,-0.0110141,0.0977073,-0.094141,-0.0251704,-0.00343441,0.0877091,0.030466,-0.0959463,-0.184778,-0.0370326,0.00719118,0.017899,-0.0124895,-0.0628808,-0.0123532,0.00936299,-0.320094,-0.00229629,0.0792602,-0.0780981,-0.0294437
0.0227429,0.0219428,-0.0135776,0.000346055,-0.0606931,-0.00653921,-0.0465116,0.0915783,-0.0270041,-0.137135,0.0316332,0.0257863,-0.0466224,-0.0311462,0.207566,0.0732554,0.163678,-0.0653491,0.0891492,-0.131812,0.0566843,0.031772,0.0748457,0.0356995,0.28206,-0.0364334,0.0196438,-0.102872,0.00574557,-0.0762757,-0.00879077,-0.000782661,0.0531577,-0.0412406,-0.0691458,0.0423324,-0.00580169,0.0027261,-0.19801,-0.0853168,0.0329461,-0.0255592,-0.0293426,-0.0768151,0.0122888,0.143128,0.103414,-0.019371,-0.039714,-0.00379656,-0.0717713,-0.0136153,-0.107604,-0.0133333,-0.0307223,-0.0340988,0.0600955,0.140958,0.00700871,-0.0269233,-0.0131477,0.00890971,-0.103934,0.078811,-0.0340573,0.199759,0.00358768,-0.00550243,0.116802,-0.00262497,-0.00102492,0.00581469,-0.0438896,-0.11543,-0.21996,0.168387,0.075432,-0.141965,0.0224936,0.000564283,0.0884574,-0.046088,-0.0270143,0.00981254,-0.0222672,-0.0133322,0.0631198,-0.0654169,0.0205389,-0.00250027,0.0297631,0.0282521,0.066092,0.0209429,-0.0938933,0.0246612,0.00952895,0.0728914,0.123019,0.0154306,-0.0382838,-0.00966451,0.0425606,-0.00885171,0.105215,-0.0307206,-0.00473224,-0.00606639,0.0340323,0.0135096,-0.206688,-0.227979,0.094797,0.0126229,-0.0455454,-0.00151412,-0.0230502,-0.14178,-0.00379254,0.16373,-0.0609214,-2.37691e-05,-0.133871,-0.098781,-0.0227196,-0.0655154,-0.0703774,0.0113392,0.0605416,0.0123884,0.00948783,-0.043744,-0.00530552,-0.037237,-0.00920894,0.0394416,0.0202687,-0.128717,-0.0887098,0.0471247,-0.108522,0.0585614,0.00469919,0.0272584,0.0468313,-0.00735589,0.00915702,-0.0378069,-0.122932,0.0779873,0.0505958,0.13414,0.108553,-0.072782,-0.0476753,-0.018124,-0.0379764,0.00207129,-0.130369,0.00506349,-0.00124148,-0.0523536,-0.0304736,-0.100152,0.00415903,0.00674853,-0.0251927,-0.137087,0.0821948,-0.267812,-0.0556569,-0.0898264,-0.0562067,0.0698014,-0.0852987,-0.00796246,-0.032241,0.0142959,-0.058708,0.0122123,0.00622731,-0.0473445,-0.016538,0.0226432,-0.0270033,0.0024572,-0.107866,0.0127174,-0.0760229,-0.0979443,-0.0568085,-0.0430344,0.0173759,0.134127,-0.0329316,0.0907887,0.000778836,-0.144424,-0.0379382,0.0517579,-0.117393,-0.0423585,0.0776099,-0.0634748,0.0362021,0.0140412,-0.00677378,0.0164563,0.0435292,0.0192413,0.0243442,-0.0349052,0.000143504,0.0129875,-0.00700773,-0.0393705,0.0164901,-0.0193941,-0.0409712,0.0386651,-0.0390572,0.0770946,-0.0261139,-0.0981027,-0.00580638,0.229953,-0.0297612,0.000933468,-0.0385799,-0.0201951,0.0522339,0.0478274,-0.0399611,0.107485,-0.0363413,0.0514885,0.00316118,0.0496922,0.0917536,0.00340449,0.114169,-0.0176621,-0.0819532,-0.126192,-0.0683961,0.255355,0.175228,-0.0201102,-0.031398,-0.0677779,0.239561,0.0631923,0.100799,0.0546774,-0.0793836,-0.0311513,0.0190319,0.027021,0.0310725,-0.0723662,0.0370462,0.0135757,0.00229628,-0.0435574,-0.321554,-0.315826,-0.015878,0.183413,-0.0313213,0.036021,-0.0738517,-0.0649136,0.00962875,0.0188252,0.0230416,-0.0434112,0.0386564,-0.0102111,-0.0625021,-0.070037,0.0380849,-0.0147975,-0.028519,0.0942641,-0.0304036,0.0131635,-0.0958779,-0.0130043,0.0306687,-0.0232514,-0.0209328,-0.0760477,0.299763,-0.138992,0.0565407,-0.0180862,-0.0304324,0.0338658,-0.0422245,-0.0937984,-0.0184472,-0.0716757,-0.161294,0.0398691,-0.029278,-0.0942069,-0.0327153,-0.118168,-0.0526009,0.0498945,0.0151224,-0.0118561,-0.106351,0.0323592,-0.254335,-0.0807678,-0.104241,-0.0511085,-0.00637667,0.0448046,-0.125613,-0.130325,0.0284119,-0.109793,-0.00986507,-0.0462943,0.00407268,-0.00156497,-0.121025,0.0778891,0.0215014,0.0508961,0.163806,-0.0132092,-0.0719229,-0.034366,-0.0315222,0.164724,-0.015665,-0.190518,-0.0394372,0.0971537,-0.0466502,-0.0378676,-0.0328388,-0.00718542,-0.0397452,-0.0257759,-0.0773077,0.0150588,-0.133669,-0.0175901,-0.0768302,-0.0558782,-0.09254,-0.0199076,0.0741033,0.0628786,0.017944,-0.12574,-0.0273239,0.0709154,-0.0177094,-0.0175953,0.00473561,-0.094004,-0.0386109,0.135298,0.0608222,0.0289372,-0.0682568,0.0262025,0.0287092,0.0431977,-0.000864766,-0.2779,0.124775,0.0179532,0.00465716,-0.00383863,-0.0570531,0.0503939,0.061323,-0.0511265,0.0421085,0.0717635,0.0143954,-0.140563,0.125103,0.017052,-0.284409,0.0266318,-0.0346907,0.0513421,-0.0104856,0.0356253,0.000401984,-0.0157193,-0.0626471,0.0494511,-0.0727673,-0.0520918,0.130434,-0.112109,0.046611,0.0565312,0.0448546,-0.036947,0.0818993,0.103573,-0.0725231,-0.0715191,-0.00575248,0.11874,0.00755421,-0.00390447,0.00618376,0.0554664,0.0793511,0.0622143,0.0214912,0.00943357,-0.00718847,-0.0158977,0.0963305,-0.0982949,-0.009593,-0.0598035,-0.0774619,-0.0252507,0.167176,-0.00506799,-0.107424,0.0289747,0.00772371,-0.0251275,-0.112994,0.00366889,0.0989579,-0.0172406,0.0459793,-0.0210504,0.0641289,-0.00872992,-0.0782555,-0.0712956,-0.0380249,0.0171598,-0.00622119,-0.0669043,0.0544008,-0.106486,-0.0996685,0.0260144,0.0633866,-0.0555374,0.0166941,-0.0931386,-0.00326242,0.104071,-0.0771486,0.00874592,-0.0357481,0.111003,0.0515521,0.0277203,-0.00184148,-0.0162237,-0.0779121,-0.00559768,-0.0261315,0.209045,0.206963,-0.0576749,-0.0513469,-0.143142,-0.0118696,-0.0154136,0.0522866,0.0486974,0.181904,-0.106604,-0.0427459,-0.074355,-0.0572178,-0.0472732,-0.058795,-0.100475,-0.0223339,-0.0132129,0.0462597,-0.0541192,-0.0820686,-0.0401406,-0.000714673,-0.393201,-0.0222646,-0.12714,0.0306975,0.0418528
0.103363,-0.0155612,-0.00555087,0.0403285,-0.0178096,0.0764767,-0.0477985,-0.00513545,-0.0671837,-0.0278376,-0.0301543,-0.0612459,-0.00978658,0.0715649,0.189544,0.0222426,0.161728,0.0382562,-0.00926316,-0.170682,-0.0132429,-0.0759224,-0.0409375,0.00146873,0.104009,0.0656787,0.0633415,-0.0436195,-0.0341933,0.0167423,0.0515971,0.0953619,-0.0472726,0.0366164,-0.0467793,0.104887,0.0307494,0.00892779,-0.0820878,0.0599594,-0.068894,0.0360907,-0.0274925,-0.0143649,0.0403297,0.213581,0.05193,-0.0448209,-0.0504931,-0.0909314,0.0281153,-0.125038,0.0854766,-0.0134507,-0.0326072,0.0120207,0.00965103,-0.0662122,0.0375507,-0.0520677,0.0342597,-0.00869883,-0.12821,0.0201759,-0.0284419,0.0998475,-0.00199472,0.0197435,-0.0417117,-0.00441278,-0.0697666,-0.0576764,0.0570272,-0.179722,-0.0300706,-0.0162172,0.0252397,-0.0345276,0.0634785,-0.00118947,0.0458039,0.0656776,-0.0682081,-0.00109944,0.015808,0.00336964,0.0366809,-0.0676648,-0.0785702,0.0549642,0.0781965,0.0274967,0.0844384,0.0418623,-0.0925987,-0.0353433,-0.0476342,-0.0574534,0.061887,0.0208823,-0.0288644,-0.00659508,0.115383,0.0625036,-0.0187507,-0.0198705,-0.12276,-0.00821775,-0.00871556,0.029429,-0.0975639,-0.43214,0.0251564,0.0148399,0.0405594,0.0310038,-0.0184111,-0.0707661,0.00658197,0.125637,0.042458,0.0859389,-0.0345888,0.0316986,0.0125996,-0.058667,-0.0310529,0.0628602,0.0641972,-0.0559946,-0.108641,-0.0626315,-0.0512103,0.063516,-0.0221378,-0.0702302,0.0510819,0.058955,-0.11113,0.0687256,-0.00646685,0.065762,0.0341304,-0.00554114,0.102062,-0.0826568,-0.0419658,-0.0379583,-0.282326,-0.0151233,-0.0775275,0.170967,0.0489674,0.10814,-0.0619774,-0.0283472,-0.038655,0.0554842,-0.0695027,-0.0725322,-0.0100801,-0.094639,-0.130314,-0.0269293,0.160315,0.00821133,-0.0640763,-0.0580695,-0.0947513,-0.150529,-0.125967,-0.0818802,-0.0731637,0.147984,0.060915,0.00299777,-0.0544692,0.0211963,-0.0644296,-0.0816983,0.0575494,-0.0202139,-0.0729923,-0.00251829,-0.0485847,0.0742955,0.0545231,0.0837888,-0.0335851,0.00474415,0.100703,-0.0106003,0.058331,0.0601722,-0.163306,0.104858,0.0160764,-0.0845984,-0.0312289,-0.0594393,0.0598851,-0.101641,0.0462631,0.0283913,-0.0398052,-0.00794941,0.0268822,0.0385194,-0.0209577,-0.021608,0.0775315,0.0398246,-0.00513411,-0.0727305,-0.0107936,-0.0604245,-0.0271961,0.0126029,-0.0256862,0.0238357,0.143804,-0.068603,-0.044309,0.0639742,-0.00349784,0.230278,-0.00240691,0.0505709,-0.00508128,0.0339025,-0.00818995,0.0612824,-0.0383047,0.0243701,-0.0453835,0.0239689,-0.0717008,0.0255594,0.0195578,0.0107181,0.0344744,-0.0655018,-0.0389677,-0.141729,0.0321419,0.327521,0.145201,-0.0252524,-0.0620073,0.00895446,0.20051,0.0310758,-0.00607823,0.0148645,0.109354,-0.0409503,0.0296717,0.0658591,0.080075,-0.0547854,-0.0211628,0.0390246,0.0730212,-0.0699527,-0.212871,-0.261271,0.0410279,0.0501559,0.012119,0.101291,-0.0476536,-0.0273166,-0.0677724,-0.121817,0.00355534,-0.0341107,0.0266317,0.102232,-0.00747249,-0.0245155,0.0167001,-0.0485184,-0.0891268,0.0927857,-0.0298594,0.0733405,0.0140951,0.000894833,-0.0224325,0.00332756,-0.0103589,0.0102307,0.299684,0.00949825,-0.0477488,-0.034033,0.0646598,0.0123923,-0.0153015,-0.0543179,-0.0512867,0.0334454,-0.140096,0.038756,0.00965129,-0.0708365,-0.0928335,-0.131393,-0.0948383,-0.0175952,-0.0683905,-0.0836054,-0.0166915,0.0396547,-0.207043,-0.041772,-0.0912759,-0.0667656,0.09989,0.0236791,-0.131801,0.0179026,0.15399,0.0116487,-0.0115868,-0.122021,-0.0388545,0.00767577,-0.0239378,0.0205396,-0.0789011,0.0901005,0.245385,-0.0900431,0.0311613,-0.1765,-0.0289155,0.060554,0.0635452,-0.165602,0.03267,0.169629,-0.00175701,0.0301656,-0.0227307,0.0335963,-0.0289746,0.0410662,-0.0361382,-0.00480512,-0.0567903,-0.025099,-0.0570565,0.00121587,-0.107627,-0.113196,0.038911,-0.00983236,0.0114307,-0.015183,-0.103903,-0.0100803,0.0185601,0.0101811,0.0263743,0.0031137,-0.0910045,0.206149,0.135149,0.0394411,0.0112965,0.0534164,0.0211221,0.0547871,-0.0189056,-0.188937,-0.178898,0.0872533,-0.0515201,0.0228878,-0.084116,-0.00358845,0.10997,0.020763,-0.0430707,0.026485,0.00548619,-0.0961058,-0.0107648,-0.117851,-0.0859406,0.00711538,0.0120503,0.0205571,0.0152923,-0.0191529,-0.0512268,0.0251234,-0.00200304,-0.0447279,-0.0011864,-0.0548643,-0.0612493,-0.00908588,0.00344761,0.0284404,-0.0416682,0.0233122,0.0905727,0.0986169,0.0920967,-0.0818806,0.0340325,0.246138,-0.0571992,0.0540465,-0.112439,-0.0132522,-0.00875378,-0.0284445,-0.00877537,-0.0942661,-0.00914007,0.0649436,-0.0465022,-0.17486,-0.058454,0.0871884,0.0425872,0.00238307,0.0890931,-0.110273,-0.0892322,-0.0299586,-0.0831527,-0.0115892,0.0290123,0.048016,-0.0748712,0.00482675,0.0117248,-0.0603761,-0.0407721,0.00221196,0.0488165,-0.0966657,-0.110536,-0.12189,-0.0265793,0.043949,-0.0451628,-0.220833,0.00779738,0.103702,0.0420652,-0.0212063,0.170558,0.022149,0.03161,0.206935,0.0490634,-0.0148567,-0.0641056,0.026069,0.0277883,-0.100986,0.0131719,-0.0180377,0.0600093,0.017341,0.0324611,0.275526,0.175654,0.00189811,-0.171235,0.0341831,-0.00546651,-0.00144309,0.0417943,-0.0213219,0.188748,-0.0369328,-0.0883871,-0.0250587,0.0218235,-0.13761,-0.0682617,-0.0691416,-0.055891,-0.0551361,-0.0493802,-0.0292414,-0.108881,-0.0453802,0.0524746,-0.196637,0.0438578,0.00964627,-0.112192,-0.0162666
0.0950842,-0.00933178,0.0879794,-0.0150525,0.000732545,-0.0754267,0.00759385,-0.0292155,-0.00137356,-0.0410957,0.020727,0.0445957,-0.0208267,-0.0273451,0.158964,0.00775532,0.134721,-0.0505666,-0.0923492,-0.0755426,-0.105354,0.112619,-0.0210789,-0.0344407,0.0195262,-0.0185673,-0.0652098,0.0326251,0.108362,-0.00252153,0.0241983,0.0281301,-0.031056,0.0189188,-0.0524532,-0.0351288,-0.000832164,-0.090823,-0.0155983,-0.0371013,-0.00568674,-0.00954633,-0.145754,0.0644698,0.0445082,0.132945,-0.0673121,-0.0311408,-0.0527776,-0.0872126,0.0342848,0.0402523,0.0496957,0.0145944,-0.04686,-0.0272141,-0.00818344,-0.0104622,0.0858847,-0.05362,-0.017239,-0.0952359,-0.0191355,0.00386779,0.0350531,0.0500915,0.107064,0.109032,0.0514926,-0.0794888,-0.00905441,0.0255948,-0.0731199,-0.0507472,0.0968549,0.0185257,0.00354303,0.056362,0.022724,-0.111044,0.0754985,-0.0332218,0.0510587,0.0627166,-0.0430832,0.0909988,0.0285111,0.0703354,0.053845,0.0177769,-0.0154728,0.00135884,0.0648907,0.0278683,-0.0573771,-0.0281508,-0.0208461,0.0263073,0.0332536,0.131781,0.0184754,-0.143639,0.148194,-0.0195319,-0.00471997,0.0553171,-0.0145631,-0.020121,-0.0383341,-0.0859956,-0.0303555,-0.375834,0.00357553,0.00852952,-0.0913137,-0.0501106,-0.0512247,0.0454065,0.037451,0.169519,-0.0109313,0.0217561,0.0704689,-0.0456317,0.0225744,-0.0243964,-0.0608844,0.0300056,0.0561947,-0.0697594,0.0239599,-0.0563952,0.0131319,-0.070704,-0.0286289,0.00526087,0.0382404,-0.0141286,-0.0337158,-0.0513746,0.153981,0.274775,0.236645,0.01598,0.00158599,0.085319,-0.0385549,0.0473306,-0.271636,-0.0665895,0.0388697,0.206425,0.0893789,-0.0179946,-0.0660191,0.0405669,-0.0531002,-0.0196665,0.0291026,-0.0371519,0.0243657,0.0162463,0.0082227,-0.0224145,0.0523436,0.0132663,-0.12971,-0.115777,0.0711671,-0.186203,-0.104761,-0.0119152,-0.020517,0.0917011,0.0591747,-0.0297129,-0.0468812,0.0912633,0.0017753,-0.0121691,-0.0335061,-0.0131187,-0.052605,-0.0714658,-0.065208,0.0475349,0.0292154,0.0684913,-0.0888013,0.139465,-0.0126496,-0.0591119,0.0424285,-0.0281105,-0.225055,-0.0744371,0.00343986,0.143273,-0.0313823,0.0818723,0.00549481,-0.0317335,0.183605,-0.0140505,0.0697013,-0.0710053,0.0102032,0.0183379,0.0283896,0.0165956,-0.0686711,-0.0441751,0.0181087,0.0298465,0.0625369,0.0236469,-0.0824634,-0.122026,-0.0077889,-0.054496,0.047269,-0.0109888,-0.0154816,-0.00301096,0.0480456,0.142331,-0.0257213,0.205524,-0.0574717,-0.100323,-0.084413,-0.0379546,-0.166486,0.021534,0.0451849,0.0467268,0.023869,-0.0261554,-0.0418391,-0.00379759,0.217168,-0.0482311,-0.0305329,-0.147031,-0.0228686,0.366285,0.114027,-0.00415874,0.0510986,0.0353148,0.0902368,-0.10417,-0.0126649,0.138728,-0.0464109,-0.0442117,0.027452,-0.0424027,0.02869,-0.051986,0.0732996,-0.0800253,0.0131814,-0.0545486,-0.126815,-0.117623,0.168312,0.12611,-0.0456528,0.0836068,-0.10381,-0.0466218,-0.0104514,0.0206014,-0.0274729,-0.000502939,0.0357767,0.0261224,-0.120508,-0.1023,0.0386687,-0.00795579,0.0763438,-0.00047312,0.00249169,0.00535645,-0.031545,-0.0252017,0.0427588,-0.0194657,-0.00698611,-0.098847,0.177322,-0.115676,0.0950539,0.0266078,-0.0393116,-0.133869,0.0140479,-0.0650988,0.059795,0.11703,-0.00276038,0.0530729,0.0593364,-0.0695935,0.0156284,-0.164864,0.0442318,0.0139171,0.0205111,-0.0358691,-0.0366264,-0.0361674,-0.0458526,-0.00925086,0.0255328,0.0459357,0.00733384,-0.00850623,-0.0264909,0.0554165,-0.0483978,0.0487017,0.0293472,0.0231567,-0.053811,-0.189527,0.0679792,0.00611795,-0.0210195,0.0245943,0.211937,-0.182011,0.0519379,-0.177536,-0.0111882,0.0746123,0.0181891,-0.133091,-0.0457924,-0.0226241,-0.0191898,-0.0823305,0.0921332,0.00466757,-0.00353106,-0.0366412,0.0289637,0.0478204,-0.0020255,0.0878007,-0.0455859,0.0123563,0.0417352,0.0261864,0.00898548,-0.110606,-0.13797,0.0490515,-0.0203926,0.00746932,0.0548616,0.00607323,-0.0550832,0.142641,-0.188905,0.154637,0.0716729,-0.0736676,-0.0638765,0.0515902,0.0026763,0.104215,-0.0540737,-0.0975063,-0.124743,0.151934,0.0557036,-0.0549795,-0.019416,-0.0646094,0.123536,-0.075141,-0.0537489,-0.0383643,-0.0539109,0.00875911,-0.0481044,-0.0401038,-0.0383133,-0.0145224,0.0523376,0.165523,-0.0406333,-0.0653369,-0.0509991,-0.0207341,0.026507,-0.00387403,0.0124677,0.0798912,0.0424492,0.0761611,-0.108522,0.0230451,-0.154113,0.0170428,0.100459,0.0264015,-0.00190332,-0.0397801,-0.0323481,0.136865,0.0533605,-0.0283043,0.0147664,0.0757941,0.0151617,-0.0221005,0.0882291,-0.0632037,-0.00204024,-0.0038472,0.0668497,-0.374204,0.0121912,0.0671498,-0.0481902,0.0136607,0.19802,0.0380517,-0.0854132,-0.0795188,-0.0171708,0.032371,0.0116006,0.114937,0.0161571,-0.0749778,0.0178111,0.0614524,-0.0017262,-0.00100502,0.010978,-0.0298668,-0.0498938,-0.0168371,0.0488728,0.035327,0.0219993,-0.288495,-0.0027773,0.133773,0.0281922,0.0885512,0.01922,0.034038,0.029702,0.185579,-0.103056,-0.0311091,0.0331853,-0.0037508,0.0236219,0.0118803,0.0292032,-0.00390425,-0.0175149,-0.0203204,0.0427346,0.26511,0.185927,0.0319623,-0.168009,0.0326757,-0.119188,-0.0465627,-0.027672,-0.101103,0.126753,-0.0729448,0.0570354,-0.00480194,-0.00030073,-0.0456034,0.0277835,-0.104926,-0.0773037,0.0517534,-0.0288386,0.0508103,0.0146293,0.00499617,-0.0181758,-0.246484,0.00337915,0.00580153,-0.0152493,0.0101188
0.063523,0.0175093,0.0272599,-0.0125025,0.0216232,-0.10406,-0.0216855,0.052039,-0.00978709,-0.0833649,-0.0593993,0.000106552,0.00818389,-0.0379967,0.0586481,-0.0709565,0.0276562,-0.0885467,0.0431621,-0.0273724,-0.0385915,-0.0946758,-0.0323049,0.0348744,-0.00761326,-0.00469747,-0.0195958,0.018599,-0.0685871,-0.00493723,-0.111149,-0.080159,-0.047821,0.0813871,-0.0331656,-0.0923843,0.0216432,-0.0713935,0.0123174,-0.0276645,-0.0823568,0.113484,-0.0795026,0.0844193,0.106415,-0.0288869,0.0869716,-0.0496389,0.010596,-0.0295342,-0.0988913,0.137325,-0.0186976,-0.0404403,0.0551465,0.0739646,-0.0388699,0.0107166,-0.0238273,-0.0562132,-0.0346861,-0.0312635,0.000659958,-0.00219973,-0.0457155,-0.093417,0.137063,0.0143132,0.00216651,-0.146374,-0.0313018,-0.0710143,-0.0957386,0.00488819,0.125666,-0.0892514,0.0326593,-0.131701,0.0856863,-0.0119437,0.0474426,0.00769955,0.00597212,-0.0171368,0.0206625,0.263599,-0.00586285,-0.00342081,-0.0147446,-0.000668728,0.0650019,-0.0357467,-0.0256527,0.0296953,0.0539422,0.0371511,-0.0576097,-0.0307303,0.0270128,-0.0637302,0.0692708,-0.0434065,0.0981468,0.0272722,-0.0392546,-0.0150122,-0.0776559,0.0271765,-0.0117852,-0.109774,0.0658698,-0.232394,-0.0563073,0.00108527,0.0107506,-0.133196,-0.0303548,0.149291,0.0197312,0.0811198,-0.00318221,0.0419761,0.0077596,-0.0341549,-0.0921994,-0.0143817,-0.150194,-0.0302997,-0.063152,0.0890755,-0.102065,-0.0548759,-0.0327115,-0.019722,0.10915,0.00364713,0.0710452,-0.0571242,0.0149992,-0.0514036,0.144158,0.24895,0.0555106,-0.109761,-0.113522,0.071383,-0.119746,0.0910865,-0.327648,0.0224071,0.0539382,0.218733,0.0746672,0.068551,0.0580375,-0.0629133,-0.0855256,0.0237422,0.00454306,-0.0455151,-0.0925674,-0.0191852,-0.070535,-0.0145581,-0.064641,-0.0199553,-0.0303872,0.0022393,0.000851,0.00432417,-0.170591,-0.0424953,-0.026508,0.138887,0.234341,-0.0372129,-0.00477878,0.0809498,-0.048077,-0.107415,-0.0311785,-0.00566687,-0.0279175,-0.0429072,-0.0117341,0.0444114,0.078137,0.0443617,-0.0352504,0.248801,-0.00549977,0.00290212,-0.013713,0.00167872,-0.244611,-0.147768,-0.0103674,0.114123,0.00421327,0.0263735,0.0247301,-0.0263904,0.0320579,0.000539486,-0.030149,0.039439,-0.0263773,0.0359797,0.0290237,0.00287376,-0.0252685,-0.0544255,0.0129301,-0.042759,0.0462156,0.0313311,-0.0341052,-0.0525609,0.10234,-0.10405,-0.0344561,0.0450922,0.0339225,-0.0416372,-0.0313897,0.173743,-0.0544804,0.131544,-0.0751628,0.0297891,0.00869975,0.00726919,-0.107227,0.00520046,0.140715,0.00985369,-0.0237094,-0.0240493,-0.0475519,0.0735566,0.222962,0.00819264,-0.0290367,-0.145859,-0.00462378,0.242226,-0.0564655,-0.0221905,0.0388686,0.0327156,0.120948,-0.0200825,-0.0153141,0.142157,-0.0339912,-0.103463,-0.0164484,-0.0125817,0.0318607,0.0340542,-0.00294584,-0.0260267,0.0435705,-0.10209,0.0404787,-0.00341041,0.197874,0.121519,0.0618779,0.0135228,-0.108219,-0.11267,0.0247782,-0.0673439,-0.0450134,0.00516532,0.0772371,0.0300967,-0.0755103,-0.0295597,0.00240965,-0.100579,-0.0451017,-0.0184959,0.0102659,0.0115657,0.0144331,-0.0651379,0.00296328,-0.050723,0.128944,-0.0118018,-0.0244052,-0.0356122,-0.0836982,0.00168053,-0.0206773,0.00504631,-0.0450263,-0.00885385,0.0509042,0.144507,-0.0123986,-0.020756,-0.021208,-0.0590048,0.0267371,-0.182862,0.0327471,0.0159838,0.0570457,-0.0326092,0.0881024,0.0422502,-0.0289966,0.126013,-0.00153431,-0.0283488,-0.0179449,-0.0820753,-0.0376705,0.0283946,-0.0482952,0.0649941,0.0329652,0.0304688,-0.0698428,-0.177568,0.00262055,0.0472702,-0.0547751,-0.0602087,0.197456,-0.0644483,0.0157643,-0.216248,0.0855154,0.0383356,-0.00436294,-0.105266,-0.0647367,-0.0253823,0.060828,0.0470033,0.0424717,0.0077898,0.055103,-0.0314357,-0.0570991,-0.0825545,0.153736,-0.0499254,-0.00332016,-0.0180976,-0.000967069,-0.0402207,-0.0961764,-0.0290681,-0.00525243,0.218294,0.0579683,0.0320427,-0.0499462,0.046013,-0.107731,-0.0743346,-0.164938,0.118843,0.035194,-0.0505762,0.00479917,0.00429854,0.0482889,-0.104864,-0.0472591,0.0243688,-0.293501,0.0655256,-0.0797015,-0.0949658,0.0650301,0.0391496,0.199539,0.015178,0.067689,-0.0484029,0.0320143,0.209109,-0.0796309,0.0410086,-0.0482184,0.00867272,-0.0186906,0.102166,0.119356,-0.0505833,0.0414519,-0.0262103,0.045451,0.0177839,0.0355305,-0.0181519,-0.0591878,-0.04548,-0.0435813,-0.0514148,-0.0270141,0.00842437,-0.0427238,-0.259599,0.0698852,0.0316012,-0.0230787,0.148405,0.015128,0.0307626,-0.009011,0.0797959,-0.0478536,-0.0794547,-0.0222736,-0.0171215,-0.144384,0.0721865,0.03765,-0.267068,-0.0205431,0.0506235,0.0638441,0.0672627,0.107243,-0.101941,-0.0812164,-0.0213169,0.0239931,0.0176591,-0.0334996,-0.044914,0.059296,-0.034654,-0.00897889,-0.0794302,0.0193613,-0.032305,-0.0865582,0.0179793,-0.049103,0.029914,-0.031925,-0.0225215,-0.0550964,-0.162942,-0.129796,0.124085,0.0563014,0.139109,0.0344587,-0.115004,-0.0337453,0.368831,-0.0672861,-0.028819,-0.0885199,0.0250595,0.141951,0.00736493,-0.0712039,-0.0767115,-0.0945228,-0.00791917,-0.0247155,0.143887,0.229891,0.0530263,-0.0175432,-0.0634407,-0.00753954,0.0510021,-0.0326187,-0.0457633,0.140878,0.0308292,-0.079947,-0.022545,0.0049428,-0.0719536,-0.00726191,0.0220315,-0.0609557,0.0314182,-0.112684,-0.0101354,0.0137351,-0.00538113,0.0195656,-0.0449439,-0.0376371,0.0744689,0.0316638,-0.0465099
-0.0284206,-0.0298335,0.0697266,-0.00512193,-0.0588491,-0.0481714,-0.000203561,-0.026275,0.102326,-0.0100297,-0.0494338,-0.0458115,0.029573,0.0572257,-0.00167167,-0.0558373,0.00245522,-0.0803162,0.0206856,-0.134056,0.0412189,0.0750906,-0.0468676,0.0210614,-0.13144,-0.0368975,-0.079715,0.0260996,-0.00331464,0.0660017,-0.00576053,-0.0802635,-0.0424774,-0.0329614,0.0164127,-0.0589332,0.088088,0.0461432,-0.0410144,-0.043842,0.0570726,-0.0510531,0.0174633,-0.0193491,0.0589051,0.00412599,-0.105904,-0.0646469,-0.0463656,-0.0475454,-0.0243336,0.0820066,0.111139,0.0436724,-0.0437003,0.0379062,0.0280045,-0.0162077,0.0149124,0.00123613,-0.0656561,-0.106986,0.0640357,-0.0463292,-0.00855775,-0.133955,-0.114415,0.0480948,0.0452536,-0.0317489,-0.00220578,0.0208582,-0.000965416,-0.0177438,0.116495,-0.107699,0.0461984,-0.0334135,0.00289343,0.0145445,0.0361602,-0.000436434,-0.00221897,-0.0711465,0.0348591,0.21754,0.0747519,0.0548714,-0.0123938,0.0420196,-0.0091384,0.0136609,-0.0121468,-0.0258455,0.132852,0.0695409,-0.0567127,-0.0291717,-0.021008,0.0122539,-0.0710619,-0.0785551,0.0242282,-0.0596183,-0.0589658,-0.0492736,0.0372409,-0.0368664,-0.0280119,-0.0263105,0.120863,-0.110868,-0.00746381,-0.0309526,0.0413822,-0.211687,-0.0140539,0.198372,0.00262869,0.00450989,0.00875928,0.0356977,-0.0445278,0.0293675,0.00458289,-0.02747,0.118154,-0.0309245,-0.0471453,-0.100374,-0.0361667,-0.0255064,0.0889165,-0.000803418,0.00711521,0.0210273,-0.0292789,-0.0451607,-0.024021,-0.092538,0.153633,0.168034,-0.0170474,-0.0657373,-0.0632251,-0.0479078,-0.0621149,0.0250386,-0.19322,0.00869842,-0.112036,0.173185,-0.0299204,0.0650045,0.0793681,-0.0715735,0.00677828,0.000797771,-0.0476446,-0.121658,0.137448,0.0836205,0.0436697,-0.052364,0.0129248,0.00816973,0.0242851,0.0145636,-0.0634597,0.047334,-0.0714182,0.0973488,-0.0513933,0.0211032,0.19445,-0.0368339,0.0556621,0.219679,-0.0285345,0.071835,0.0212324,-0.036528,-0.0287671,-0.00600932,-0.0979669,0.00219978,0.0838676,-0.0508691,-0.0905591,0.248626,-0.0421241,-0.0240637,-0.0756953,0.0207447,-0.16324,-0.22438,-0.0607444,0.151585,-0.0140786,-0.0661295,0.0559286,0.0529068,-0.0180331,0.0290643,0.0478963,0.0107813,0.0107685,0.0280991,0.00866734,-0.0344108,0.0117704,0.0120249,0.0868528,-0.0519053,-0.011037,-0.0333165,-0.10186,-0.0827305,-0.0507418,-0.0605579,-0.069095,-0.0659083,0.0127382,0.0028261,-0.0364934,0.0428963,0.0379233,0.365407,0.0431947,0.0675531,-0.00932789,-0.0443132,0.0130616,-0.0491263,0.144325,-0.0110153,0.0520897,-0.0604004,-0.00232876,0.00393686,0.093261,0.0585626,-0.129157,0.0227796,0.0630147,0.0498542,-0.139727,-0.0466025,0.0146744,0.0181273,-0.0168038,0.0620508,0.0664924,0.0675633,-0.0451425,-0.192848,0.0135757,-0.0380927,0.039632,-0.0999241,0.085326,-0.025054,-0.0241865,-0.0705041,0.0101164,0.0904477,0.325193,0.0573882,-0.00925728,0.0412551,-0.0833053,-0.0364514,0.070393,0.0202546,-0.00454135,0.0473683,0.0474732,0.0615982,-0.0785258,0.0306828,-0.0192988,-0.1139,-0.0382611,-0.062347,-0.0392599,0.088728,0.0269992,-0.031738,0.0265642,-0.0561633,0.026164,0.00606197,0.0179721,-0.113585,-0.105686,-0.0182657,0.0604056,-0.0244536,0.0582136,0.00100756,0.0620496,0.0176966,0.0388131,-0.0687745,-0.0453404,-0.0397117,-0.0740833,-0.0129567,-0.0530074,-0.056144,-0.0151647,0.0251327,0.0523237,-0.0806201,0.149145,0.114846,-0.00116111,-0.0177506,-0.0208055,-0.0773426,0.0487248,0.0286678,0.0261043,0.0309985,-0.040508,-0.0482056,-0.0424811,-0.235234,-0.025369,0.0592836,0.0344686,-0.0179907,0.145397,-0.0437981,-0.0401038,-0.187337,0.00933757,-0.120191,0.0338482,0.0994294,0.0400728,-0.0338676,-0.0418329,-0.0760346,0.0865864,0.0324543,-0.01114,-0.0750531,0.0623375,-0.0317757,-0.00848285,0.0716836,-0.0412406,-0.00151509,-0.116296,-0.0541008,-0.0339416,-0.00925074,0.0293883,0.149067,0.0368961,0.0252532,-0.00620413,0.141914,0.0196547,0.155249,-0.206732,-0.0186656,0.0399473,-0.0396065,-0.00715521,0.0335015,0.00918329,-0.0633541,-0.0708741,-0.00530218,-0.409817,0.0929202,-0.129512,-0.0224008,0.0759961,-0.00955125,0.132141,-0.00338042,-0.027518,-0.0462835,-0.0266472,0.108365,0.0171311,-0.025126,0.0258953,0.00104218,0.0367537,0.147804,0.0617912,-0.0510591,0.0342263,-0.00721228,0.057097,0.0107062,0.0807642,0.0741635,0.0322569,-0.0679335,-0.00580569,0.0648162,-0.0339603,0.0355251,-0.167826,-0.30402,-0.070974,0.112871,0.0133664,0.224507,-0.100743,0.075308,-0.0271403,0.0931699,0.00735174,-0.0383801,-0.0119077,0.00715406,-0.0454242,-0.066661,0.12449,-0.233171,-0.0864616,0.055956,0.03216,0.04587,0.0297903,0.0602879,-0.0495654,0.00177554,-0.163916,0.0185922,-0.0657443,0.098052,-0.0497094,-0.0958012,-0.0457229,-0.109812,-0.0308148,-0.0765843,0.0499457,-0.00109751,0.106568,-0.00393808,-0.0327609,0.0209354,-0.0440684,-0.166598,0.0186543,0.134856,0.00288206,0.0591421,-0.0904026,0.0673915,-0.0608948,0.226943,-0.0161327,0.045424,-0.033542,0.0315726,-0.047392,0.0452177,-0.00944633,-0.131033,0.029179,-0.0716687,0.0335262,0.155907,0.158444,-0.0601792,-0.100976,-0.068659,-0.0842189,0.00230594,0.0499251,0.0313828,0.104794,-0.0125538,0.0221634,0.0586192,0.0262566,-0.054416,0.0649854,-0.0306531,-0.0142638,-0.0344314,-0.0397586,-0.126637,0.0579081,-0.0596139,-0.0850785,0.0686643,-0.0472314,-0.0727811,-0.0234619,-0.0646992
-0.00240736,-0.0682783,0.041281,0.0697701,-0.0091873,-0.0403948,0.0142621,-0.0282709,-0.0940737,0.0264934,-0.00586366,-0.0103389,0.0187846,-0.0869285,-0.134747,-0.0728375,-0.0232565,-0.0868519,-0.045485,-0.066736,-0.0949123,-0.137141,-0.00225532,0.00641715,-0.119988,0.0761388,-0.041154,-0.0656765,-0.0911736,-0.0293083,0.00941108,-0.0864472,-0.0387792,-0.0946954,0.141091,0.0263282,-0.0525123,-0.0432896,-0.0496841,-0.0185876,0.148219,-0.123882,-0.00456113,-0.0788982,0.137729,0.0230092,0.0558094,0.0520796,0.0401709,-0.0184311,-0.0652689,0.0845527,-0.010261,0.0336853,0.0295939,-0.069522,-0.0031413,-0.0166186,-0.0707603,-0.00417133,-0.102292,-0.097422,0.0299983,-0.0195165,-0.0710175,0.0030706,-0.017187,0.11989,-0.0115628,-0.0839873,-0.015179,-0.0430071,-0.0135371,0.0351529,0.0461875,-0.054003,0.0511626,-0.0605129,0.0427609,-0.0642965,0.0694082,-0.00575533,-0.0622519,-0.00429513,0.069411,0.315716,-0.0054266,-0.0120938,0.00267796,-0.0807615,-0.00263326,-0.0356993,-0.230909,-0.0684898,0.183118,-0.0144361,0.0199902,-0.00668946,-0.0505023,-0.0588573,0.0301597,-0.101491,0.00232407,-0.0293254,-0.05457,0.0497048,-0.0696711,-0.0160171,-0.0335581,-0.0665584,0.0850861,-0.0155432,0.000784974,-0.0105501,0.00651301,-0.2374,-0.0687044,0.34602,-0.00958333,-0.2385,0.0837103,0.0490421,-0.0935661,0.0418533,-0.0814925,-0.035978,0.176451,-0.0443824,-0.0474501,0.0189685,-0.111015,0.0285761,0.0942101,-0.099122,-0.0162588,-0.114368,0.0196342,-0.0920517,0.0253174,0.0705401,0.095056,0.0891715,0.0423783,0.0604601,-0.0561375,-0.0236793,-0.0239659,-0.0558768,-0.135726,0.0158814,-0.0122973,0.0745754,-0.067884,-0.0625451,0.0838089,-0.114278,-0.0132517,0.00114245,-0.0419489,-0.0744613,-0.0675953,-0.0172676,-0.00552584,-0.0496377,-0.0681922,-0.0208172,-0.071451,-0.00715589,-0.0217345,0.0770657,-0.162253,-0.0796061,0.0532639,-0.0507022,0.217639,0.0227353,-0.0412684,0.0967979,-0.035282,0.055383,0.0733951,-0.0401374,0.00415346,0.00975425,-0.0452434,0.0368335,0.0534037,-0.0195189,0.0160084,0.315097,-0.019082,0.0577306,-0.0251189,0.00471716,-0.102916,-0.164665,-0.0212062,-0.0149117,0.0108851,-0.00604148,0.0431466,-0.0116284,0.0490488,-0.0522059,0.16071,0.0911981,-0.0113611,0.0157967,0.0138506,-0.0550136,0.00579107,-0.0805179,0.16779,0.00164756,0.10025,0.157382,-0.0208999,-0.022777,0.0295477,-0.0382179,0.0720999,-0.0494954,0.0108059,-0.0468426,0.0150619,-0.0234674,0.0228335,0.16446,0.0662481,0.110256,-0.0180998,-0.0110343,0.170343,-0.0532838,0.121611,0.025833,0.018186,-0.0652131,-0.00825726,0.0245363,-0.0397544,0.00927749,0.0516575,0.0682994,0.0742123,0.0351936,-0.242914,-0.0614766,-0.00511956,-0.0378005,-0.142059,0.0426343,-0.0224005,0.17179,-0.00984084,0.0432532,-0.104398,-0.160645,-0.0321261,-0.0906512,-0.00508137,-0.0188768,-0.103444,0.086369,0.123407,0.310811,0.278438,0.0617266,0.0258134,0.0464646,-0.117937,0.014796,0.0648851,-0.0245266,-0.005849,-0.00463309,0.0556825,0.00973594,0.0311631,0.013544,0.0866661,0.00459982,-0.0977229,-0.0563915,-0.0415505,-0.0437129,0.0698479,0.013964,-0.030777,-0.00919522,-0.0354142,0.00861064,0.0105433,-0.0118286,-0.057422,-0.0395008,0.00260604,-0.00168542,0.0675715,0.0366642,-0.00855039,0.0612943,0.0817079,-0.0364484,-0.0397815,0.0817369,-0.0463897,-0.0131648,0.0150912,0.0127417,0.0177403,0.0198379,0.0632302,-0.0892177,0.123516,0.0665592,0.0880554,-0.0528106,0.00142932,-0.0275786,0.0426624,0.0118643,0.012609,0.0804112,0.0491867,-0.01522,0.0382832,-0.168016,0.0093593,0.104426,0.0599349,-0.0270678,0.0629568,0.0416652,-0.0847441,-0.0826596,0.0275139,-0.214371,0.00161159,0.0906741,0.0663737,-0.165301,-0.0416827,-0.00160832,0.02147,-0.00675573,0.0751678,0.0269503,-0.0285922,-0.0880301,-0.0968077,0.0148152,-0.0543946,-0.0395945,-0.105437,-0.000673081,0.0253903,0.00491276,0.0817654,0.0387826,-0.00389629,-0.0644705,-0.110843,0.140103,-0.0884464,-0.0303692,-0.0988113,-0.0256745,-0.0308114,0.0841726,-0.0491048,-0.0276807,0.0859353,-0.00752652,0.0122428,-0.0270348,-0.176829,-0.143605,0.00389935,-0.0451073,-0.071908,0.0191507,0.212731,-0.00638953,0.0477408,-0.0260614,-0.00633572,0.218415,-0.0612896,-0.0147183,0.0208526,0.0334084,-0.00895998,0.169672,0.0280053,0.0130503,0.062149,0.00441068,-0.0119576,-0.0171603,-0.0704448,0.0201738,0.073396,-0.0620433,-0.0319487,0.0735454,-0.116262,-0.0557504,-0.0833819,-0.40256,0.0196867,-0.0015957,-0.0318688,0.114134,0.00884522,-0.0317251,-0.017449,-0.0557403,-0.0299351,-0.0742953,0.0296239,0.0274561,-0.0523831,-0.0535565,0.027267,-0.143768,-0.0102511,-0.0268149,0.0706677,-0.000461143,0.00753246,-0.0828039,-0.0018047,0.0210847,-0.0473626,0.0532047,-0.0816734,-0.0518518,0.0641291,-0.0288735,-0.0283023,-0.0597417,0.00842538,0.0618407,0.00430199,-0.0379944,0.0707136,-0.0501148,-0.017778,0.00387877,-0.0461219,-0.0791068,-0.00489385,0.0502234,-0.0380908,0.0398755,-0.205111,-0.00909327,0.064588,0.0159819,0.0129407,0.039232,-0.116778,0.00113067,-0.0139488,0.0567841,0.103076,-0.0809496,-0.00207124,0.0401691,-0.0597876,0.0574415,0.0386626,-0.00915765,-0.0182266,-0.0315243,-0.00809261,-0.0225322,-0.0905668,-0.136495,-0.0535652,0.0258202,-0.117386,-0.00122198,-0.0423807,-0.00655195,0.0124395,0.0577396,0.0949504,0.0023157,-0.193242,-0.14725,0.00568741,-0.0786529,-0.0539289,0.177159,0.0358639,0.0489893,0.0336668,-0.0579381
-0.0621785,0.0388258,-0.0882743,-0.0277202,0.0125794,0.0876325,0.0165161,-0.0357967,0.0225292,0.113533,0.0189591,-0.0463388,-0.0684475,0.0133127,-0.231591,0.0930074,-0.082578,0.0212096,-0.021833,-0.0736213,-0.0275403,0.0394744,-0.0319426,-0.0154453,-0.0778757,-0.0493074,-0.0201799,0.0990709,-0.00222028,0.0773873,0.0637057,-0.0612285,-0.0321631,-0.0201482,0.0348926,-0.0397678,-0.0455943,-0.0256737,0.0272336,-0.00780882,0.104695,-0.016055,-0.0483561,0.0168473,-0.00613192,-0.0651507,-0.0665732,-0.0366769,-0.0492341,0.0334251,-0.0138262,0.0997024,-0.0461402,-0.0250762,0.0198794,0.00198116,0.0492678,-0.00562703,0.0459604,0.0664867,-0.0362994,-0.0805031,-0.0520252,0.0131196,0.0259072,-0.108698,-0.096887,0.0140267,0.0376369,-0.0569499,0.0435624,-0.0412926,0.0510447,-0.0463354,0.0406767,0.0304746,-0.0950429,-0.0769544,-0.0299049,0.0133204,0.100602,0.0333798,0.0659574,-0.00795025,-0.0692189,0.197361,-0.0564735,0.0473805,-0.0266424,0.0155484,0.0137625,-0.0772713,-0.200055,-0.0575505,0.249414,-0.00545523,-0.0199798,-0.112777,0.0172681,-0.0343971,0.0543213,-0.00466861,-0.0404218,-0.0809076,-0.0566619,-0.0661409,0.10108,-0.037171,-0.0106509,-0.0367064,-0.00100185,0.00804352,-0.03576,0.0382361,-0.00605361,-0.198752,-0.0410604,0.221743,0.0534984,-0.329897,-0.0486394,0.0676553,0.0180967,0.0403502,0.0295722,-0.072878,0.126117,-0.00915419,-0.0277644,-0.00678228,-0.0575932,-0.0508903,-0.0255036,-0.091277,-0.108882,-0.0454156,-0.0381869,-0.0338897,-0.028599,0.0339133,-0.0337816,0.0864439,0.0167747,-0.0092946,-0.0980312,0.0614491,0.00595142,-0.0306905,-0.0332665,0.00485762,0.0501176,0.0104263,-0.127156,-0.0769747,0.123327,-0.0958337,-0.0132444,-0.00514033,-0.0381691,-0.00353726,-0.0522174,-0.180637,0.0111988,0.0321658,-0.0199348,-0.0107118,0.0251172,0.0152335,0.0067117,0.118892,0.0538204,0.00896015,-0.0068143,-0.0739789,0.0725476,-0.0251553,-0.0740148,-0.00895031,-0.00317581,0.0289198,-0.0601747,-0.00170174,0.0324283,-0.0214534,-0.0212851,-0.0261442,-0.00830242,0.0439614,0.0856381,0.22978,-0.0345601,0.0391713,-0.0681478,-0.000783108,0.12996,-0.247875,-0.0376239,0.0573358,-0.0129752,-0.10796,0.120502,0.094075,-0.00219648,-0.113374,-0.0213,-0.0774832,0.0105157,0.00895333,-0.0918331,0.0561114,-0.0474005,0.0474976,0.0101928,-0.0160754,-0.105041,0.05508,-0.14014,-0.052824,-0.055681,0.0184838,-0.0302479,0.0471155,-0.128765,0.0102153,0.0230286,-0.0217385,-0.00670646,0.261481,-0.00530472,0.00739642,-0.00916727,-0.0348577,0.11889,0.00454313,-0.0128339,0.0226488,-0.0307166,-0.0506041,0.00073171,0.00575334,0.0173054,-0.00132054,-0.0477739,0.0875032,-0.0433483,-0.0941939,-0.267298,0.0293288,-0.0403303,-0.0350814,-0.0989411,0.0541963,-0.0519086,0.177962,-0.0883757,0.107776,0.0181868,-0.0705292,0.0471856,-0.00272102,0.0484564,-0.0671104,-0.0486136,-0.0401684,0.00670125,0.180963,0.176239,0.075419,-0.0163549,0.135853,-0.0154159,-0.025947,-0.00382453,-0.0222827,-0.0406798,0.0179026,0.0432948,-0.0466667,-0.0121083,-0.0569137,0.0977199,0.0236984,-0.0906749,-0.028227,0.0468547,0.00828199,-0.100199,0.0792359,0.0171911,-0.0709709,-0.0308209,0.00772405,-0.0709795,0.0220667,-0.121038,-0.0183993,0.0828409,0.0556676,0.0851807,-0.150573,0.0799032,-0.0162914,0.0831352,-0.0433663,-0.0530878,0.0102407,0.0151596,0.0216528,-0.0319601,-0.0489756,0.0149116,-0.0563294,0.108232,0.0542134,0.249152,0.0878739,-0.054807,0.034368,-0.0447877,-0.0616119,-0.0996326,-0.0479471,-0.0130638,0.0190957,-0.177653,0.0281092,-0.0565249,-0.12396,0.0257648,0.159365,-0.0782605,0.0149072,0.0433301,-0.0525823,-0.0322806,-0.0208755,0.0229166,-0.295271,-0.0292198,-0.00558963,0.0169486,-0.088135,-0.0261893,-0.113339,-0.0189663,0.0269236,-0.0915291,-0.0323043,-0.037694,0.0287768,0.0773233,0.0277649,0.0992772,0.0355528,-0.0982529,-0.0473038,0.0359737,-0.0619102,0.0343558,0.11227,-0.00949514,-0.00856492,-0.0635364,-0.0469134,0.0132133,0.0017484,-0.0958548,-0.070983,-0.0269001,-0.0532612,0.0530196,-0.0689874,0.0290985,-0.0056101,-0.0146546,0.126263,-0.112665,-0.058181,0.0382733,-0.0226769,0.0118915,-0.103157,0.138605,0.0301684,0.133007,-0.090515,-0.0842443,0.101051,-0.0538229,-0.0161507,0.256639,-0.0522588,0.0951348,0.137689,0.0701541,-0.00154104,-0.00210549,-0.0644097,0.000104385,-0.0421401,-0.0219434,-0.0549587,-0.0224287,0.0199853,-0.0278779,0.134624,-0.0238807,0.0216496,-0.171175,-0.395351,-0.100051,-0.0215385,0.0292453,0.197545,0.0640505,0.035185,-0.0848283,0.0348382,0.0208029,-0.0873572,0.0169237,0.0324395,-0.0966429,-0.0751279,0.0058676,-0.00236324,-0.0159798,0.0044359,0.00896268,0.018527,-0.0404772,0.0420548,0.0361535,0.0534921,0.0266532,-0.0407676,0.0123162,-0.0604009,0.0180237,0.033672,-0.0211221,0.0400035,0.0811787,-0.0717331,0.0058337,-0.00357202,0.277618,0.0161324,0.0160622,0.00572899,-0.0306692,-0.0296622,-0.011638,0.0601563,-0.0612779,-0.0426802,-0.193235,0.011806,-0.0806168,0.00485691,-0.00179506,-0.106992,-0.0600635,-0.0447467,-0.0151199,-0.0449047,0.0657838,-0.057405,-0.0597743,0.0170703,-0.104946,0.0811701,-0.10895,-0.149948,-0.0208064,-0.0448521,0.044302,0.0609854,0.0377442,-0.00516986,-0.0356181,0.00215465,-0.0397625,-0.0622437,0.0312765,0.00298253,-0.038711,0.0493891,0.0778881,-0.03068,-0.210677,-0.026372,-0.0324237,0.00351743,-0.0914634,0.0564275,-0.0383823,-0.00762061,-0.00363401,-0.04055
-0.016995,0.043902,-0.0156432,-0.101954,-0.0422434,-0.0447855,0.0248359,-0.0181922,-0.0868501,0.0236988,-0.00549127,0.0198984,0.0879363,-0.00127315,-0.200315,0.00973198,-0.10679,0.018848,0.0729539,0.0184809,-0.0527505,-0.0529222,-0.00717005,-0.075949,-0.0159396,-0.105187,-0.0517345,0.00482726,-0.0589412,-0.0145708,-0.0549329,0.0435842,-0.0320336,-0.0788907,0.0425731,0.0421573,-0.0338551,-0.0596372,0.0356896,0.0550368,0.13819,0.0697807,0.0446115,-0.0479034,0.106772,0.0128744,-0.0663053,0.010587,0.0181141,-0.0633685,-0.00096779,0.146449,0.0494559,-0.00118696,0.0135619,-0.0454786,-0.0661449,-0.0260635,0.046852,0.0390685,0.0431893,0.0133816,0.0442616,0.0322401,-0.0502492,-0.0203404,-0.0167866,0.0497253,0.00339172,-0.000210281,0.0486549,-0.0160021,-0.0743165,0.0163105,-0.0603509,0.0481938,0.00259886,-0.0402247,-0.08648,0.0757964,-0.022664,-0.0511472,-0.0232355,0.0160751,-0.0327107,0.0225592,0.0445288,-0.0216822,-0.0197776,-0.0783061,-0.0441081,-0.142316,-0.305892,0.0209148,0.213103,-0.0719368,0.0709041,-0.134733,-0.00254373,-0.0326139,-0.029489,0.0252898,-0.033558,-0.0408934,0.125977,-0.0383052,0.00108629,-0.0477729,-0.0370563,0.0188835,-0.0157888,0.118337,0.0164321,-0.0494722,-0.0107948,-0.18128,-0.0443956,0.149022,-0.00610866,-0.428155,-0.0540573,0.07127,0.0679849,-0.0466832,-0.0341773,-0.0728551,0.0727154,0.0814627,-0.0548041,0.0177502,0.00656932,-0.0403867,-0.0566865,-0.0957149,0.0578346,0.0251539,0.0130697,0.0307247,0.0125003,-0.00424528,-0.20223,-0.0331613,0.00348025,0.0470572,-0.0971904,0.0136783,-0.0133747,-0.0248423,0.0653728,-0.0203497,0.0328697,0.0770133,-0.164406,0.0271064,0.00376189,-0.0120324,0.0299943,-0.11734,0.0446425,0.0145559,0.0997247,-0.0208622,0.0584718,-0.0768809,0.0630101,0.0395971,0.0852109,-0.0700145,0.0427121,0.0391361,-0.0585401,-0.105686,-0.0202983,-0.210087,0.135309,-0.0220858,0.0146368,-0.00439125,-0.0352083,-0.0539411,0.00590566,-0.0728469,-0.0345283,-0.0355585,-0.016531,-0.0318427,-0.0571885,-0.0297376,0.0480722,0.150208,-0.10964,0.0240873,-0.0245833,-0.0729232,0.026022,-0.0817931,-0.0531949,-0.00165515,-0.0298611,-0.00352379,-0.119114,0.0228878,-0.0446569,0.00709066,0.0202074,0.0400849,-0.00173254,0.091677,-0.046967,0.0409384,0.0676661,0.0539286,0.00972581,-0.0317997,-0.0132204,-0.0381699,-0.134338,0.0925632,0.0243529,-0.0175086,-0.031998,-0.0178593,-0.0167844,-0.0576038,0.070552,-0.0294241,-0.0755701,0.107596,0.0515197,0.0314398,0.0468524,0.0302268,0.0860742,0.01768,-0.140375,-0.0886985,-0.0226278,-0.0204895,-0.0315343,-0.0674172,-0.0340928,-0.00907405,0.103968,0.0206134,-0.0627637,-0.0338544,-0.210217,0.0609522,0.0464209,-0.123224,0.0177377,0.00309519,-0.00203541,0.108622,-0.0182402,0.215111,0.0264242,0.0218191,0.0100652,0.0649352,0.0149387,-0.0591717,-0.0280054,-0.0393052,0.0630417,0.25531,0.0433216,0.0487271,-0.0122708,0.00843319,-0.0902703,-0.0100158,-0.0314361,-0.0423215,0.0235006,-0.0511536,-0.0442333,-0.0257913,0.0315698,-0.0442933,0.11569,-0.0248748,-0.0452514,-0.163873,-0.0426603,0.0412057,-0.0506167,-0.0487235,-0.0327674,-0.0581224,0.0170072,-0.0244073,-0.0265748,0.0179483,-0.0100843,0.00775106,0.0485927,0.136524,-0.0454356,-0.131983,0.0456432,-0.275854,-0.0153001,-0.0575094,-0.000393067,-0.0121829,-0.018169,0.0743557,0.0202112,0.0149396,0.0296739,-0.10172,-0.0160732,0.0200928,0.0809458,-0.0536428,-0.0307737,0.00797503,-0.112307,-0.0197673,0.0800091,-0.00659449,-0.0586298,-0.0294271,-0.04448,-0.0524673,0.00371647,-0.0490299,-0.0468175,0.0733664,0.0060579,0.024239,-0.00340181,0.013077,-0.106352,0.00240777,0.0452378,-0.270522,0.0338395,0.0449609,-0.0146404,-0.23047,0.0875326,0.14326,-0.119144,0.000152276,0.0142116,-0.0554841,0.0298463,0.0649414,0.0473417,0.033367,0.0705332,0.0463917,-0.0721591,-0.018013,0.000103633,-0.103495,-0.0116375,-0.161983,0.080242,-0.0127388,0.0370112,-0.103855,-0.0242949,-0.0327604,-0.130773,-0.0116783,-0.0538111,0.00948362,0.00313787,-0.0200519,0.00955629,-0.093181,0.00584884,0.0273652,-0.0856376,-0.105821,0.100164,0.0454291,0.0290154,-0.073626,0.103312,-0.0513549,0.0192044,-0.000730248,0.0530911,0.120887,0.0301519,-0.0328868,0.101535,-0.04932,0.123642,0.0521607,-0.0453478,0.13295,-0.0351206,0.0177643,-0.0788911,0.0169985,0.0209312,-0.0766122,-0.0112474,0.000561316,0.0398154,-0.0381322,0.0112805,-0.0248022,-0.0956959,-0.233527,0.0335129,-0.06637,0.0398801,-0.0913748,0.0172606,-0.0514524,-0.0217994,-0.107767,-0.00348218,-0.0450939,-0.0584317,0.0100381,0.0463574,-0.0529229,0.0672296,0.0244986,-0.0525675,-0.0254073,-0.0417849,0.031853,-0.0176773,-0.0781892,-0.00231317,-0.0303196,0.0755093,-0.054435,-0.0276628,0.0426245,-0.0250364,-0.00643281,-0.0118293,-0.0734247,-0.0251793,-0.0206362,0.0335595,-0.0605816,0.331007,0.068956,0.01285,-0.00518339,-0.0678763,0.18879,0.0113966,0.0782331,-0.00231083,-0.0192619,-0.186644,0.0261796,0.0153935,0.0439959,0.00013161,0.0732165,-0.02604,-0.0650705,0.00160587,0.00261838,-0.0479706,-0.0497523,-0.0108421,-0.0265363,-0.00384298,0.0325761,-0.0155283,-0.0458987,0.0557875,0.0486579,-0.0960502,-0.115545,-0.101357,0.0168873,-0.0759724,-0.0111229,0.0263127,0.00472978,0.00381573,-0.00609907,-0.0636912,0.0279004,0.0525496,0.0705718,-0.15945,-0.0286066,0.0338096,0.0281994,-0.0681736,0.0281001,0.0031964,-0.00218902,-0.00152936,0.0571075
