-0.0799601,0.242309,0.559612,0.0708218,0.106884,0.14653,0.0772811,-0.00385624,-0.0334839,0.001795,0.0299178,0.0269145,-0.0201344,-0.0590875,-0.0524034,-0.04353,-0.0392823,-0.032072,-0.0328026,-0.0104977,-0.00414881,0.000727909,0.00980362,-0.000375856,-0.00435482,-0.00710459,0.00977909,0.0236659,0.0210069,0.0243967,0.0314874
-0.0166168,0.0365827,-0.0200187,0.0226636,-0.01294,-0.00410203,0.0428659,-0.0193712,-0.032469,-0.00424917,-0.0201136,0.0506923,0.0143174,-0.0642469,0.037652,0.0278317,0.0173318,-0.0581102,0.0464071,-0.0224422,0.0137744,0.0413042,0.0152324,0.0332775,0.0591384,0.0452017,0.0371682,0.0129187,0.100076,0.0453075,0.0720104
-0.00876899,0.0229275,0.0178851,-0.00995065,0.0110663,0.0176279,-0.0255641,-0.0173781,-0.0113436,-0.00933445,0.0562555,0.0665937,-0.0718178,0.00530765,0.00543711,0.0165692,-0.038545,0.0374718,-0.00309753,0.0485298,-0.0116394,0.0158986,0.0591309,0.020883,0.0613125,0.0431397,-0.0676284,-0.0986822,-0.0299997,-0.0856837,-0.0820231
0.00478745,-0.0181764,0.0726764,0.000257801,-0.0172191,0.0170128,0.0135002,0.0275111,0.0215846,0.0294095,-0.045981,-0.0275489,-0.0692806,-0.0587068,-0.00796396,0.0683944,-0.0841212,0.0336003,-0.0990177,0.0070798,0.0533437,-0.0115677,0.00434895,-0.0877111,-0.0369589,-0.0936173,-0.035089,-0.0305222,-0.0581081,0.0696707,-0.106358
0.0216274,-0.0514182,0.0799889,-0.0349101,0.0565557,-0.00191276,0.04511,-0.0211829,0.000119259,-0.0138827,-0.0874768,0.128417,-0.018174,0.0367543,-0.000746067,0.0775109,-0.0716666,-0.0623573,0.00714578,-0.00551704,-0.0382412,-0.123091,0.0566644,-0.0385836,-0.0329587,0.0587642,0.0255447,0.0217951,-0.0477042,-0.0689752,-0.0779327
0.0212732,0.131053,0.0288294,-0.0200484,0.0374734,0.0396386,0.0551817,-0.0280178,-0.0141246,0.0258516,0.0180128,-0.0298244,-0.0420476,0.0569066,0.0405195,-0.0265781,0.052539,0.00614411,0.078462,-0.0772826,0.0286362,0.0246753,0.0417352,-0.0193207,0.0162607,0.0184728,0.0021835,0.0397391,-0.0334591,-0.0140345,-0.0690812
0.134127,0.0197717,-0.018108,0.0406467,-0.0091202,0.0514787,0.000178184,-0.0411484,-0.0175108,0.0273136,-0.0344431,-0.0521734,-0.000950701,-0.00586468,0.0392715,-0.042646,-0.00685214,-0.118399,0.0302306,0.0933132,0.00937024,0.00367545,-0.0368454,0.0736087,0.00414906,-0.055041,0.0342101,0.0530493,0.0366428,-0.0446549,0.000454538
0.057174,0.0420608,-0.00904624,0.0263329,0.136476,-0.0726374,0.0103517,-0.0113012,-0.00271446,-0.0140256,0.0281086,-0.0219823,0.068694,0.0557417,0.00443865,0.0865209,0.052982,0.0140911,-0.0266576,0.00335337,-0.00812201,-0.0797632,-0.120477,-0.053853,-0.146538,-0.0819548,0.0333668,-0.0628003,-0.0780542,-0.00218446,-0.0814174
0.0235052,-0.0516485,-0.0197749,0.0142325,-0.0430346,-0.0469725,0.0774774,-0.0285529,0.0749634,0.0214099,0.0207439,-0.0436958,-0.118109,0.101802,0.0377459,0.042433,0.0445383,0.0925725,0.00932523,-0.06016,0.060588,0.0166357,0.0178535,-0.0909465,-0.00259898,-0.034972,-0.00469142,-0.0710062,0.0591705,0.093644,-0.185989
0.00286873,-0.0119523,-0.0033891,-0.0177255,-0.0225371,-0.00414565,-0.0333801,-0.0888719,-0.162547,-0.226285,-0.258608,-0.315447,-0.431772,-0.599909,-0.715506,-0.699555,-0.441782,-0.0337225,0.312877,0.358546,0.0955874,-0.258298,-0.455392,-0.451348,-0.373894,-0.302153,-0.262514,-0.249531,-0.279681,-0.298591,-0.305874
-0.0104975,0.0128307,-0.0583302,0.00269572,-0.0579776,-0.0230225,0.0804634,0.130137,0.0734342,0.0682346,-0.0378255,0.0723023,-0.0610938,-0.0459621,0.0203812,-0.0760595,0.000959903,0.0108921,-0.0132824,0.0312776,-0.108033,0.0614169,0.0122032,0.0337348,-0.00464259,0.0395096,0.0277104,0.0188419,-0.0509904,0.016479,0.0650239
0.0197502,-0.00948058,-0.000696039,0.122956,0.0138879,-0.0119699,0.0757922,-0.0713767,0.00738274,0.0991916,-0.0512709,-0.0645479,-0.0221561,-0.00487681,-0.00819072,0.00125194,-0.0265449,-0.0768147,0.0358784,0.0154166,0.0332234,0.0303981,-0.0355072,-0.0260031,0.0380368,-0.0448439,0.0631405,0.0395739,0.0172175,0.00428107,0.0682809
0.299731,-0.0923994,0.135224,0.0377456,-0.0301126,-0.0605673,-0.0795498,-0.0244608,-0.0508135,-0.0114923,-0.0139539,0.0052842,-0.00140322,0.00638242,-0.00431017,0.018081,0.0158892,0.0144919,-0.0106864,0.00735466,-0.0121041,-0.023851,0.0138472,0.0199627,0.0143688,0.0276286,0.0270254,0.0198266,0.0195911,0.0232413,0.0186981
-0.0811802,0.90921,-0.0586868,-0.136217,-0.118605,-0.0325873,-0.0171913,0.00629831,0.0187366,0.00192772,0.0120144,-0.00478969,-0.0144311,-0.0265024,0.0202845,-0.00730326,0.0125368,-0.00346861,-0.0108028,0.00825788,0.0388865,0.0383425,0.0258373,0.0282331,0.0290913,0.0387135,0.0338774,0.0462573,0.0258028,0.0369028,0.0535238
0.0128888,0.0229556,0.0823098,-0.00659155,-0.0591203,-0.0224895,0.116656,0.237914,0.265577,0.234919,0.195301,0.111528,0.095114,0.124203,0.149242,0.197221,0.212059,0.201135,0.160687,0.138475,0.10461,0.0797245,0.0297392,-0.0401531,-0.103099,-0.125581,-0.113399,-0.0964492,-0.0776986,-0.0715009,-0.0691355
-0.0102607,0.25496,0.586936,0.346181,0.136949,0.0653228,0.00466064,-0.0477948,-0.0623012,-0.0849488,-0.0830736,-0.0390753,-0.0281719,-0.0101935,0.0289456,0.0271139,0.0152404,0.00086802,-0.00692508,-0.0297643,-0.0259391,-0.0299269,-0.0493455,-0.0659834,-0.063081,-0.0706466,-0.0820391,-0.0969442,-0.101725,-0.107053,-0.113978
0.0093634,-0.0398779,0.0154329,0.268962,0.160348,0.0164616,0.0313729,0.0722568,0.0292286,0.0205275,0.0210908,-0.0223557,0.017421,0.0174739,-0.0405372,-0.0314172,0.00233353,0.000707499,-0.0209316,-0.000240612,-0.0319114,-0.0430031,-0.0825306,-0.100279,-0.122653,-0.101484,-0.0766741,-0.0507429,-0.0546775,-0.0492382,-0.0478348
-0.0191721,0.00399856,-0.0267149,-0.0335746,0.0355346,-0.0152336,-0.132883,0.020914,-0.0379782,-0.0294386,0.0194084,0.0620843,0.00294255,0.0442079,0.0410906,-0.05417,-0.0122597,0.0907786,-0.0803332,0.105711,0.00235789,-0.0492203,-0.0142668,0.00861027,-0.000422303,0.0855283,-0.0690754,0.0021376,-0.0321574,0.00332424,0.00490094
-0.00583407,0.0182282,0.0194343,-0.0204437,0.00781864,0.0373793,0.045892,0.0417656,-0.0445495,0.0989524,-0.000766021,-0.0851244,-0.0114402,0.0104905,-0.0265924,0.0546781,-0.00393745,0.053573,0.0283437,-0.0234832,0.0316968,-0.0201865,0.0234488,-0.00814741,0.0723089,0.075143,0.0476189,-0.00574706,0.0443879,0.0564611,0.0150597
-0.0105031,-0.0162508,-0.0444866,0.0670253,0.0559665,0.0589633,0.00156632,-0.0171332,0.0202243,0.0682618,0.0588132,0.061866,0.0359878,0.0280591,0.0312824,0.0177642,-0.00116035,0.000773317,0.0233214,-0.0067051,-0.0154418,0.0026793,0.0541099,0.0718105,0.15358,0.194768,0.190259,0.174077,0.144191,0.154532,0.149179
-0.00472459,-0.0402635,0.0224396,0.0366527,0.0510169,0.0263509,-0.0104197,0.0666855,-0.00913939,0.0218809,0.0780395,0.0350037,0.00089987,0.00353896,-0.0400871,-0.00875823,-0.00465213,0.0156907,0.0301658,-0.02089,-0.0329311,0.0533953,0.0505855,0.0686758,-0.0143556,0.0718677,0.0129824,0.00962935,0.0410781,-0.0964819,-0.098811
0.0453978,0.0197452,0.0421447,-0.00414253,0.0850391,0.0205152,-0.0902268,-0.020371,-0.0727799,0.0588741,0.0756188,0.0560153,-0.0197564,-0.0112515,-0.0203613,0.0099784,-0.0499338,-0.0202719,0.0306313,-0.0621754,0.0678401,0.0656996,-0.0416326,0.00792281,0.0488044,0.0915443,-0.00996939,0.0740431,-0.00487232,-0.0253127,-0.0285415
0.104348,0.0184921,0.0654875,-0.0641204,0.000867567,-0.0187249,0.160554,0.022824,-0.00423863,-0.00299434,-0.00214925,0.0336029,-0.00477091,0.0539333,0.0719681,-0.0458657,-0.0515739,0.00150685,0.0647312,0.00930783,0.0342767,0.0700028,0.118481,0.129528,0.101543,0.125011,0.0193724,0.104703,0.0752251,0.106853,0.133983
-0.0106052,-0.0584402,0.26606,-0.123082,-0.0323397,-0.0140467,0.0146768,-0.066362,0.0161539,-0.015386,-0.0209162,-0.0146269,0.0191846,-0.00916052,-0.0243475,-0.0139957,-0.0238616,0.00412363,0.0153873,0.00931161,0.0126224,0.0296197,0.0195111,-0.0438264,-0.0865894,-0.0783927,-0.0707314,-0.0625964,-0.0754967,-0.0484574,-0.0629039
0.00983286,0.0278606,0.0173567,-0.43664,-0.951906,-0.899304,0.379899,1.38954,1.44659,0.887955,0.282093,-0.127153,-0.345783,-0.39672,-0.317693,-0.263137,-0.184907,-0.0906226,-0.0335772,0.00580306,0.0848917,0.119842,0.124197,0.0947295,0.055754,0.0110043,-0.0393937,-0.0422428,-0.0547333,-0.0519447,-0.0381725
0.0403077,0.0232461,0.0271511,0.11747,0.013686,-0.0307612,0.0535443,-0.0250462,-0.0849624,-0.024885,0.107615,-0.0556012,-0.043078,0.0743734,0.00686173,0.0269886,0.0298359,0.0470694,0.0277619,-0.0148125,0.0364648,-0.0513217,0.00245546,-0.0411482,-0.00712185,0.041781,0.0476376,0.014574,-0.00349507,0.0545137,-0.137426
-0.0570989,0.0194911,0.0666085,0.0301235,-0.0298394,0.0215435,0.0218749,0.0148325,0.0652095,0.0186616,0.0956352,-0.036393,0.0645608,0.0722378,-0.0546422,-0.00326703,0.069024,-0.0315069,-0.0571393,0.0336115,0.0070957,-0.0136619,-0.063602,0.0632416,-0.0694585,0.0166887,-0.00597815,0.0183087,0.0219054,-0.0494192,-0.0305646
-0.0296502,0.0988903,-0.0373322,-0.0234908,-0.0251092,-0.054525,-0.0537788,-0.0834794,-0.102044,-0.112666,-0.131067,-0.115442,-0.0998278,-0.0783708,-0.0365907,-0.00287929,0.0396497,0.00219518,-0.0125227,-0.0584642,-0.0426102,-0.0299689,-0.0194249,-0.0491159,-0.032477,-0.0641782,-0.0516708,-0.0494423,-0.0680832,-0.0539472,-0.0523835
-0.0105402,-0.0438667,0.113164,-0.0636767,0.00388932,-0.00140806,0.0718497,0.0817148,0.0624194,0.0583456,0.0239174,0.00193865,0.00482812,0.0713896,-0.00873049,-0.0510657,-0.0247514,-0.100276,0.0191669,0.0187082,0.0931587,0.141393,-0.0119603,0.0168991,0.00812761,0.0122618,0.0181207,-0.0227775,0.00601179,-0.0126256,-0.0145429
0.0217566,-0.0258886,0.0562624,0.0586834,-0.0111128,0.0117859,-0.050181,0.0257737,-0.00796566,0.0172271,0.0553017,-0.0432516,-0.00172093,0.0234657,-0.0032841,0.0010363,0.0670955,-0.0656189,0.0403501,-0.0433974,0.015466,-0.0811519,-0.0416713,0.0235249,0.0397575,0.035215,0.00836508,0.0369361,0.0139642,0.0363632,-0.0342656
0.05299,0.0754138,-0.0557423,0.00320281,0.0649932,-0.00820872,-0.0554509,0.0352122,-0.0415449,0.0386276,-0.00165928,-0.049474,0.0220437,-0.00405872,-0.0243093,-0.0206838,-0.0281592,-0.0659064,0.0131055,-0.00244383,-0.0796792,0.0801707,0.0877558,-0.00272953,-0.0464869,0.0407145,-0.000501171,0.0870149,0.0710466,0.0390744,0.0232465
-0.0282612,-0.00498481,0.121059,-0.0869549,0.0765339,0.0189832,0.0206935,-0.00503311,-0.0309671,0.0184281,-0.00327243,0.0415147,-0.103886,-0.0689224,0.105083,0.0257178,0.0460407,-0.0350398,-0.0136472,0.0428953,-0.0943709,0.0337327,0.0577569,0.0412782,0.0242692,0.00831656,0.133313,-0.00359363,0.0329326,-0.0551007,-0.0513866
-0.0995033,-0.0221173,-0.0467525,-0.00219333,0.0162165,-0.0446046,-0.0328127,-0.00703418,0.116481,-0.0737927,-0.039146,-0.0206102,-0.00887281,0.0103844,0.0249783,-0.010605,-0.00927883,-0.0257079,-0.0460344,-0.0766133,-0.0623195,-0.0213312,-0.0253415,-0.0587132,0.0593303,0.0021984,-0.0365154,-0.0933949,0.0498714,0.00633926,0.108301
0.063933,0.0229502,-0.0271843,0.0715114,-0.024668,0.0308754,-0.0342808,-0.0403173,0.054147,-0.0323013,-0.0193366,0.0403599,0.0502646,-0.0247624,0.0296811,-0.000236461,-0.0329328,-0.0435531,0.0498616,-0.0737546,-0.0156487,-0.0248008,-0.0019297,-0.00372548,0.0916712,-0.0316865,-0.0365466,-0.056193,0.0472251,0.0238482,-0.0302449
0.000524106,-0.0688757,0.0682025,0.106768,-0.0350365,0.0325785,0.0433305,0.00695411,-0.0300202,-0.0114592,0.038339,0.0407445,0.0111825,0.0181107,0.0228468,0.0418938,0.0269889,0.026955,0.0152965,0.00288008,-0.0126714,-0.0412236,-0.014705,-0.0588114,-0.0638203,-0.0456161,0.0179391,-0.0767347,-0.00789888,-0.0527034,-0.0492778
0.0180797,-0.0209961,-0.0344912,0.035682,-0.0550744,-0.0390849,0.0714201,-0.0379684,0.0226487,-0.0314416,0.0177668,-0.0698956,0.0734452,-0.0347071,-0.0193859,0.0729819,0.00606467,-0.00199405,0.0555954,0.049395,-0.0142266,-0.026881,0.00719653,-0.0262732,-0.0290722,-0.0232317,-0.0580925,0.0115554,-0.0265216,-0.0675709,-0.100202
0.0274389,-0.00874829,0.017426,0.102162,-0.0238082,-0.0119286,0.00362516,0.0884826,-0.0245569,0.0806023,-0.0411413,-0.0821341,0.0515853,-0.043396,-0.0306212,0.0234964,0.00511435,0.0161482,-0.0310637,-0.0221841,0.0135229,0.046577,-0.0703226,0.0380761,0.0447835,-0.0565037,0.0825035,-0.0191549,0.0609756,-0.0346444,0.101948
-0.0111654,0.00987794,0.0859325,-0.126645,-0.00478755,-0.0125987,-0.00501059,0.000497853,0.0959532,0.0459511,-0.0257894,0.033653,0.00445497,0.0301404,-0.0582162,-0.0121101,-0.0788041,0.0369047,0.0746165,-0.058567,0.055596,0.00757766,-0.0610372,-0.0582398,-0.00153394,-0.000627482,0.00432103,0.0341318,-0.0360328,-0.0165394,0.0205567
-0.0582314,0.166973,0.387032,-0.0626118,0.0372447,0.00588205,-0.0418842,0.0266783,0.00775336,0.0268499,0.0225126,0.0302838,0.00490975,0.00380919,0.0251548,0.0105745,0.0460166,0.0629137,0.0435325,0.0225996,0.000300967,-0.000881402,-0.034608,-0.0633993,-0.0775962,-0.0793061,-0.0752959,-0.0869603,-0.0915811,-0.0992154,-0.100776
-0.014174,-0.0956581,0.0441651,-0.0347343,0.00870657,-0.095866,0.0855685,-0.0570002,0.0397534,-0.0601185,0.0321472,-0.0250927,-0.043057,-0.00770806,0.0145611,0.0294752,0.000545079,-0.0144949,0.00290545,0.0499341,0.0538497,0.0908496,-0.0472874,-0.0538442,-0.0843497,0.0265693,-0.00647982,0.0994536,-0.00104167,-0.0534452,-0.0329395
0.00662359,-0.0051791,-0.0266246,-0.0130259,0.0579987,-0.0162099,-0.0122822,-0.0491375,-0.0594554,-0.017816,-0.0165178,-0.0065455,0.0877707,0.0572808,0.0317644,-0.0834565,-0.280541,-0.538273,-0.656441,-0.499223,0.112353,0.959268,0.953413,0.371611,-0.0356455,-0.13608,-0.0802645,-0.00888811,0.0308942,0.0493705,0.0645079
-0.0531778,0.0179396,-0.00147287,0.0575436,0.00182411,0.0210077,0.0249662,-0.00215111,0.00268927,0.0235439,-0.063145,0.0273303,-0.0122944,0.0888438,0.0467473,0.000669755,-0.0946756,0.0323834,-0.0450974,-0.0752797,0.0562865,0.0651002,0.0106216,0.0221452,-0.0319806,6.55915e-05,0.0536148,0.0392087,-0.00231335,-0.0539919,0.0466927
-0.0148877,0.106055,0.0487773,-0.037264,-0.00206197,0.00427234,6.96765e-05,0.00607386,-0.0425718,-0.00243817,0.0195294,-0.0117847,-0.00185334,0.0125731,-0.012686,0.0250511,0.029355,0.0355599,0.0148508,0.0138806,0.00459664,0.0155075,0.0447499,0.0740078,0.0783986,0.0740611,0.0973945,0.104456,0.112824,0.115743,0.131638
0.0624659,-0.062538,-0.0248196,0.0581494,-0.0773448,-0.0305841,0.0511357,0.0326955,0.0144543,0.0310032,0.071583,-0.0343216,0.06302,0.0371214,0.0292192,-0.00923394,0.0894728,0.0667971,-0.0128235,0.0614897,-0.00894834,0.0102708,0.0840212,-0.0716946,0.0311839,-0.0955942,0.0667634,-0.0979288,0.0414504,0.0535919,0.0252845
0.0935657,0.0684787,0.0483736,0.131313,0.0855619,0.0630996,0.131923,0.0904309,0.081265,0.112002,0.0431642,0.0662401,0.129266,-0.0198586,0.0677347,-0.00425559,-0.0777048,-0.0825055,-0.0631644,-0.0924909,-0.188587,-0.064412,-0.0831115,-0.0427983,-0.0399974,0.0340544,-0.0018449,-0.0250907,-0.078686,-0.013371,-0.0774614
-0.00994746,0.000639957,0.0113137,0.218167,0.18579,0.17564,0.132877,0.043402,0.0855709,0.0486854,0.0425135,-0.0168704,0.0202536,0.0269981,-0.0348689,-0.0756942,-0.0513583,-0.0720572,-0.0379638,-0.0523846,-0.0441069,-0.0778096,-0.0727097,-0.0531995,-0.0482079,-0.0649295,-0.107864,-0.0994618,-0.0932897,-0.0848272,-0.0795184
0.0739702,-0.0380642,0.0612294,-0.0342287,0.047046,0.0346874,0.00586068,0.067252,-0.0217455,0.0775267,0.000183148,0.114758,0.0157675,-0.0633708,0.0129141,0.00533971,0.0869865,-0.0437003,0.0147089,-0.0754879,-0.00863964,0.00626601,0.0511421,-0.0493941,0.0653422,0.00848264,-0.102181,-0.053623,0.0472779,-0.0193598,-0.0557682
-0.0266954,0.0812522,-0.00412898,0.05638,0.0152055,0.0311285,0.0607582,-0.0202582,0.0065222,-0.00848677,-0.048661,-0.0431474,0.0595326,-0.0392058,0.0194359,-0.0159217,0.0191741,-0.00426114,-0.0112639,-0.0949049,-0.0521549,-0.0303067,0.0227808,0.00697752,0.105009,-0.0099964,-0.0386938,-0.00552922,0.0109151,-0.0479074,-0.017673
-0.0284029,-0.0270683,0.0182438,0.0980465,-0.0384178,0.0917597,-0.0197058,0.0399471,0.0635683,0.0153875,0.00734279,-0.177801,0.00542505,0.0293899,0.012133,0.0217356,-0.025714,-0.0677687,-0.0202148,-0.00636017,0.0149312,0.0169044,0.0468801,-0.0515791,0.00452762,-0.0332892,0.0236198,-0.0733351,0.0242227,-0.0545445,0.0251279
0.0329268,-0.0226111,0.0126083,-0.00731139,0.0120076,0.0389672,-0.0275156,-0.0331243,0.00599104,0.0186955,0.0332561,-0.0436963,0.0380345,0.0268573,-0.027583,-0.0169034,0.0245992,0.0348615,0.0355198,-0.0698081,0.01249,0.0597662,-0.103294,-0.0881332,-0.0565362,0.0558823,0.165394,-0.000680503,0.0158314,-0.0563708,0.0137843
-0.0192165,-0.018432,0.11471,0.047162,-0.0434972,-0.109397,-0.122596,-0.0963869,-0.0924509,-0.0252561,-0.0146293,0.0427413,0.0508487,0.0416143,0.0543388,0.0621412,0.047469,0.0210097,0.0350208,0.0311037,0.00730139,-0.00583167,0.00219077,0.00774642,0.00899647,0.0381826,0.0657771,0.0608704,0.0955301,0.0662794,0.0599405
-0.018497,0.0960658,0.177021,0.146173,0.163513,0.141511,0.168187,0.205141,0.213313,0.164088,0.124126,0.101794,0.0919507,0.0839269,0.0585738,0.00809203,-0.0428434,-0.0526501,-0.034257,0.001657,0.00505706,-0.0142624,0.0041342,0.00209548,0.00509071,0.0131698,0.0135174,0.00461419,0.000281944,0.00196042,-0.00121312
-0.0258785,0.252281,0.252478,0.141742,0.0511336,0.0073763,-0.000652648,-0.00508962,0.00708402,-0.0207924,-0.027322,-0.0359611,-0.0447097,-0.0335992,-0.012093,-0.00443683,-0.0113301,-0.0224022,-0.0217538,-0.00867069,0.0172072,0.0346694,0.0507056,0.0553863,0.0621509,0.0657788,0.0668088,0.0601444,0.0501849,0.0422733,0.039453
0.0359855,-0.00593275,0.00447837,-0.0626009,-0.0170673,-0.0564011,-0.10859,-1.76691e-05,0.103289,0.061268,0.0618987,-0.0236046,-0.103703,-0.0269309,0.00680598,0.0601857,-0.0811724,0.015513,-0.0102658,0.0493543,-0.0290627,0.0765153,0.0334585,-0.0325467,0.040755,-0.0156526,0.100379,-0.0594279,-0.00646983,0.156065,-0.053773
-0.0677249,0.078458,-0.0527164,-0.0664905,-0.0919381,0.0267134,-0.0464431,0.00167057,0.0472976,0.0526081,0.0628521,-0.00333182,-0.0878693,0.0117407,0.000761535,-0.0694681,0.0684205,0.00759755,0.0408008,0.0419338,0.0114406,0.0241894,-0.0131931,-0.0501068,-0.101316,0.0733506,0.0508483,0.0230448,0.0481248,0.0843617,-0.00503037
-0.128727,0.427909,-0.158829,0.0471502,0.04323,-0.0108294,-0.00916149,-0.0242204,-0.0239952,0.031751,-0.00772621,-0.00636536,-0.00316363,-0.00473223,-0.014485,0.0132966,-0.000170614,-0.035803,-0.0131571,0.00476991,0.00175915,-0.0107558,-0.00976905,0.0524719,0.0783322,0.0688009,0.0503929,0.0331048,0.0401838,0.0136965,0.0153938
0.516535,0.599807,0.134554,-0.320642,-0.111991,-0.0974989,-0.0858253,-0.0724901,-0.0623468,-0.00588923,0.0242196,0.0128203,0.00541643,0.0104529,-0.00346005,0.00826572,0.00229542,0.010192,0.0288116,0.0390062,0.0278114,0.0133674,0.0092999,0.0108906,0.00346702,-0.00437987,-0.00531137,-0.0199987,-0.0166519,-0.0244252,-0.0323907
0.0633816,-0.00539272,-0.0201574,-0.0670116,0.0459088,-0.0463624,-0.000174343,0.0828587,-0.00633526,-0.0354147,-0.00930843,0.0767206,-0.0997072,0.0198306,0.000527633,0.0756291,0.0144924,-0.00118296,0.0167141,0.0822414,-0.0436351,-0.016105,-0.00942087,-0.0246951,-0.0788914,-0.00822762,0.0665242,0.0287797,0.0518614,-0.012353,0.0210817
0.049231,0.0788244,-0.0249472,-0.0128438,0.0982834,0.0536621,0.0667281,-0.0590563,0.0194835,0.00578254,0.0392702,-0.0303866,0.0586834,0.0866138,-0.0222098,-0.0343468,0.0469364,0.0175221,0.0672891,0.0341358,-0.0262398,0.081163,0.0545811,-0.049184,-0.0563638,-0.0526715,0.042171,-0.0456129,0.0715467,-0.0993744,0.0112554
0.0425767,-0.0154278,-0.0119851,-0.0204946,0.0451183,0.0417585,-0.0376664,-0.0507314,0.00355891,0.00453667,-0.0449723,0.00229438,0.0705137,-0.0262692,0.0802273,0.0559568,-0.0137228,0.0396887,0.0481572,-0.0199224,0.159095,-0.0452332,0.039797,0.0100304,-0.0218476,0.0673287,0.0130772,0.00157951,-0.0221522,-0.101871,0.0189874
-0.00334622,-0.0168148,0.0492916,0.0733047,0.0638572,-0.0215749,-0.0568298,-0.064179,-0.174534,-0.1134,-0.100653,-0.10126,-0.0112361,0.0247691,0.0285386,0.109176,0.206684,0.173823,0.301387,0.394295,0.369772,0.353279,0.427582,0.469614,0.39418,0.333405,0.338508,0.319646,0.335773,0.313143,0.301118
0.00966168,0.110918,0.0376897,-0.0532945,-0.0822044,0.0247132,-0.0141696,-0.0609781,-0.061587,-0.000181646,0.0171655,0.0208878,0.0311552,0.00383064,0.0108191,0.0139591,-0.00140967,-0.0172838,-0.0168673,0.0104271,-0.00878156,-0.00107062,-0.0182551,-0.0156316,-0.0336134,-0.0523966,-0.0216757,-0.0193197,-0.053255,-0.072302,-0.0608344
-0.00267692,0.00380224,-0.0054807,-0.0364493,-0.00724999,0.0570972,0.0417944,-0.0471508,-0.0614335,-0.06974,-0.0647554,-0.0643411,-0.0742235,-0.0432632,-0.0115193,0.0290761,0.0515518,0.0585819,0.0346157,0.0144106,0.00299466,0.0186407,0.0466342,0.0259552,0.0312298,0.0227865,0.017499,0.0210986,0.0321598,0.0377084,0.0482204
0.0281506,-0.0704979,-0.0266341,-0.106502,0.0766968,0.0415868,0.0257912,-0.0269268,0.00708673,-0.0712577,-0.00540638,0.0088186,-0.0071037,0.0500063,0.0308931,-0.0517173,-0.026536,-0.0766932,-0.03921,0.0669366,0.056064,0.0678532,0.0557299,0.0150961,-0.0681521,-0.0411333,-0.0563157,0.0239121,0.0406184,-0.0656268,-0.0239224
0.00795269,-0.0152173,-0.0412663,-0.0168105,-0.0199412,-0.0485546,-0.0484357,-0.143227,0.0497122,-0.0320453,0.00980228,-0.0817667,-0.0257351,-0.0082949,-0.0601071,0.0032205,0.00461868,0.0153546,-0.0242314,-0.00812152,0.0381389,0.0321598,0.00500931,0.0135183,-0.0354442,0.0405162,-0.0217819,0.058987,-0.00656545,0.0154738,-0.0232044
0.0023373,-0.215025,0.216313,0.533714,0.298266,0.180604,0.111008,0.104657,0.0904987,0.0694648,0.0629033,0.048957,-0.0437163,-0.0500767,-0.0144648,-0.00853401,-0.0581758,-0.0798639,-0.0912657,-0.0672515,-0.0270659,-0.0155295,0.00447795,0.00169003,0.000255512,0.0150748,0.0339224,0.0682647,0.0666939,0.0639697,0.0564304
-0.0191336,0.0166361,0.0181268,-0.00233332,0.0210819,-0.0331238,0.00925852,-0.0142103,0.0184307,0.0287662,0.0647292,-0.0838616,0.0284159,-0.0502308,-0.0129217,-0.0357918,-0.0201086,-0.0148739,-0.0356864,-0.0379331,0.0271197,-0.0395277,-0.0734187,-0.0601005,0.00538085,-0.0595175,0.0890376,-0.0227109,0.15124,0.116554,-0.0995273
0.034072,0.0225059,0.0838644,0.0102769,0.0454439,0.0846645,0.0745487,0.100422,0.147377,0.0190766,0.0445051,0.0309861,0.020638,-0.129218,0.0901174,0.105823,0.116775,0.0263087,0.115683,0.121876,0.0820986,0.119818,0.184441,0.14611,0.169013,0.110547,0.142398,0.127836,0.143388,0.176278,0.162963
0.0182604,0.023952,-0.0247302,-0.0446898,0.0434071,-0.00485579,-0.0046783,0.0258136,0.0446097,-0.00473859,-0.032393,0.0531725,-0.0519224,0.0687925,-0.00383324,-0.0312331,-0.00285008,0.0320804,-0.0207147,-0.037916,0.117081,0.0683331,0.000104703,0.0437696,0.0836889,0.133786,0.020177,0.0773043,0.0109847,0.0707353,0.0149164
0.0345725,-0.347849,-0.231986,-0.180289,-0.155589,-0.15887,-0.171858,-0.123993,-0.137342,-0.123244,-0.0990357,-0.0714386,-0.0532101,-0.0355734,0.0115183,0.0105348,0.0145349,0.00406173,0.00592997,-0.00205593,0.0220523,0.0144204,0.0160119,0.0124142,0.014517,0.0206232,0.0202423,0.0192945,0.0137442,0.0213229,0.0198098
-0.0478898,-0.00627684,-0.0223718,-0.0234746,0.0400926,0.044486,0.120513,0.128935,0.0316783,-0.0202115,-0.0238877,0.0529522,0.029252,0.00670044,0.00118673,0.00180318,-0.0777427,0.0470156,0.0327222,0.00490371,-0.0124064,-0.0144421,0.0484501,-0.0262727,-0.000112955,-0.124581,-0.0150043,0.00919122,-0.0119484,-0.0592302,-0.0454864
-0.000437248,-0.0157964,-0.0259466,0.026488,0.0110109,-0.0220888,0.0108924,0.120676,0.0188041,-0.0245589,-0.0154295,-0.0533826,8.43155e-05,0.00862809,0.119036,0.0263842,-0.0504524,0.0161886,-0.00459738,-0.106975,-0.0663291,-0.0717745,0.059377,-0.0136252,0.0200587,0.007057,0.017129,-0.0348766,-0.0028873,0.0658473,0.0178436
0.0805681,0.0264776,-0.0443214,-0.0722899,-0.0468685,-0.0251465,-0.0403182,-0.00144589,0.00374347,0.127708,-0.00870661,0.0119715,-0.0386231,-0.000412846,-0.0139304,0.0556054,0.0689452,-0.017222,0.0118457,-0.0483151,-0.042058,-0.0582376,0.0421544,0.000670028,-0.0280138,0.00499078,-0.00279259,0.0128627,0.0541902,0.0757677,0.0158803
0.175776,0.259836,0.1227,-0.0114925,-0.0269191,0.0199793,-0.00841549,-0.0855605,-0.0595009,-0.00461163,-0.013692,-0.0951377,-0.0229056,-0.0422151,0.00874388,0.0431338,0.101338,0.00997473,-0.00346202,0.0380914,0.040319,0.0790966,0.0642351,0.0702539,0.0702493,0.0377014,0.0703889,0.0286931,0.019059,0.0217936,0.00930267
0.00175751,-0.0942588,0.239339,0.213599,0.0729631,0.0487704,0.112468,0.13195,0.115315,0.0141033,-0.0304479,-0.0457784,-0.0367901,-0.0393257,-0.0311602,-0.062463,-0.0863425,-0.0986489,-0.0558333,-0.00593414,0.045349,0.048207,0.0377069,0.0330357,0.0569625,0.0792461,0.0968663,0.102771,0.101452,0.106525,0.0999192
0.0335931,-0.0678643,-0.274112,0.184052,0.520031,0.21226,-0.0898985,-0.10684,-0.0629992,-0.000933366,0.0391648,0.0304111,0.0173793,-0.0367685,0.0396776,0.0246986,-0.0132105,-0.0290594,-0.0100293,0.0355964,0.085935,0.134378,0.0988252,0.055938,0.0454622,0.027481,0.0141205,0.0116239,-0.0124889,-0.0245439,-0.031676
-0.0807382,-0.072935,-0.0575024,-0.00261361,-0.0406788,0.0134617,0.0334857,-0.0148277,0.123373,-0.00868,0.00154735,-0.023519,-0.0647496,0.0463613,0.0615415,0.113302,-0.00228142,0.0291761,-0.114434,0.0212941,0.0036337,0.0212485,0.0980806,0.050417,-0.0139647,0.0445016,0.0741803,-0.0257032,0.0791507,0.0274092,0.0405033
-0.0248885,-0.153084,-0.00251214,0.10525,0.0356363,-0.0454643,-0.0658006,-0.0592782,-0.00523423,0.0602273,0.118863,0.151715,0.154307,0.124477,0.0831721,0.0519032,0.0304984,0.0195471,0.0251414,-0.00196014,-0.021045,-0.035585,-0.0620606,-0.0793808,-0.0898454,-0.103873,-0.113925,-0.124888,-0.117908,-0.113321,-0.114064
-0.00558678,0.0525346,0.0162379,0.0301999,0.0686606,0.00944912,0.0232831,0.0764875,0.0436573,0.0555877,0.0478423,0.0181177,-0.0516166,0.012954,-0.000406256,0.00552408,0.0727537,0.0227552,0.020966,0.00530672,0.0271831,0.00315773,0.0158065,0.0393096,0.0629646,0.0858482,0.0947439,0.110173,0.143277,0.161703,0.155324
0.02376,-0.0598522,-0.0191737,0.0409089,0.00201181,-0.00897694,-0.0578617,0.00321265,-0.00474674,-0.0876358,-0.000132643,-0.0249862,-0.00702885,0.033541,0.0792547,0.0175937,0.0475954,-0.00395439,0.0312161,-0.0301334,-0.0338538,-0.0760971,-0.0182095,0.021844,-0.0159214,-0.00293195,-0.0258592,-0.00457469,-0.00167192,-0.00538172,-0.0290413
0.0650131,0.225507,0.519863,0.282411,0.124374,0.0780131,0.0359016,-0.00532614,0.0865669,0.107494,0.101461,0.0608977,0.0548006,0.0515773,0.0243801,-0.0443843,0.133366,0.14318,0.0443182,0.104152,0.115722,0.0972739,0.117057,0.14783,0.138779,0.143841,0.136555,0.150211,0.144607,0.134712,0.128669
0.0881855,-0.0496566,-0.0435537,-0.0684048,-0.013349,0.0245716,-0.0178299,0.0253084,0.0290887,-0.0469284,0.0448356,0.00612026,-0.0637785,-0.0167864,0.103504,0.00566596,-0.0474546,0.000745274,-0.00116452,-0.00256784,0.0276685,-0.0154796,0.0104145,-0.0585731,0.1254,-0.0354068,-0.0437421,0.0565129,0.0305073,0.0611056,0.0507214
-0.0243673,-0.0337374,0.0163339,-0.0480934,-0.0693417,0.00254334,-0.0539977,-0.00892896,-0.0820446,0.0422059,0.0272454,-0.0285458,-0.041166,0.0750355,-0.0656137,0.0107333,0.0192207,-0.0663298,0.0418305,0.0446523,-0.0460147,0.0681415,-0.00617629,-0.0225513,-0.0580427,0.0406008,-0.0566365,-0.0122449,-0.0448616,-0.0612097,0.0400725
0.0482462,0.038513,0.00693566,0.0454407,0.0626772,-0.0225809,-0.0978677,0.0830171,0.0452204,-0.0465361,0.0617192,0.0247878,0.0465016,-0.0561546,-0.0228684,0.0674821,-0.0626076,-0.124362,-0.0563387,-0.00939307,-0.0134418,-0.000786866,-0.0110833,-0.0515379,-0.0286302,0.105415,0.0148779,-0.017309,0.0805505,0.00460892,0.0237797
0.119014,0.0633941,0.053344,0.0168355,0.0572109,0.0493036,-0.0876794,0.0673588,0.0834315,-0.00794059,0.0134754,-0.0256771,0.0555451,0.0218391,-0.0620104,-0.042592,0.0484842,-0.0404322,-0.056106,-0.0419916,0.017965,-0.0502471,-0.0445868,-0.0300866,0.0656152,0.0462566,0.0200564,0.0211596,0.066746,0.00142428,-0.0299437
-0.0124691,0.0431025,0.00522839,-0.112344,-0.293428,-0.570163,-0.531629,-0.0928256,0.626701,1.15929,1.16542,0.82416,0.462013,0.227529,0.0882601,0.043451,0.0282443,0.0406003,0.0814127,0.067327,0.0622254,0.0273844,0.00493288,-0.0114092,-0.0222158,-0.0481729,-0.0659397,-0.0988961,-0.135466,-0.153323,-0.163984
-0.034482,0.0321131,0.0220165,0.0802193,0.0740859,0.0323272,0.0905173,0.040189,0.0537137,0.0273343,-0.0265448,-0.0788677,-0.0138368,0.0716015,-0.056715,0.018463,-0.060668,0.019831,0.0282788,0.0429055,-0.00511886,-0.0504053,-0.00285143,0.0226457,0.0246803,0.0303034,0.035356,0.0445155,0.0560137,0.0422931,-0.00106351
-0.0210774,0.0644508,0.00351745,-0.103046,-0.0579931,-0.0519651,0.0421379,-0.0350624,-0.00686393,0.00411628,-0.0096993,-8.17093e-05,0.0117523,-0.0425087,-0.0968384,0.0160348,-0.0103105,0.0426304,0.0294375,0.0184626,-0.01907,-0.0287168,0.0146236,0.0419964,0.0709262,-0.0231216,-0.0485496,-0.058365,0.12691,-0.129887,0.00920242
0.0101333,-0.00037873,0.0275368,-0.0622727,0.0306352,0.00605432,0.0444854,0.0216692,-0.0467716,-0.0761265,-0.0500191,-0.101844,0.0119071,0.0294427,-0.057508,-0.0732838,0.0494874,0.0905984,-0.0531337,0.000131508,0.0278886,0.00384107,0.0118678,-0.0318771,-0.0195478,-0.0629084,0.07338,0.0413875,0.00573893,-0.0986617,0.0271274
-0.0326551,0.0229174,0.00508753,0.0482865,0.0214527,0.0139923,0.00799957,-0.0339353,0.00555658,-0.0205833,-0.0314155,0.109519,-0.0459607,0.0899577,0.047417,-0.0582998,0.0553562,0.0140906,-0.00353363,0.112179,0.017511,-0.0369257,0.106439,0.0670552,0.0142907,-0.0126735,-0.0594697,-0.00758924,-0.0528022,0.0481719,-0.00570602
-0.00214998,0.0544544,-0.072723,-0.0219028,-0.0832218,0.00487036,0.0484254,-0.00914128,0.0537513,-0.036397,0.0315883,-0.0175157,0.0159255,0.0339031,-0.0418045,-0.0372011,-0.0214738,-0.020108,-0.0209232,-0.0163368,-0.00392182,-0.0100363,0.0241931,0.0264699,0.08325,0.0544318,0.0651341,-0.0028038,0.0106999,0.00204357,0.0379581
0.0992646,0.0119512,0.0344961,0.0371398,0.0707901,0.0774493,-0.0123771,0.00559144,0.0615543,-0.00591849,-0.0641203,-0.00273384,-0.0113428,0.0921269,0.0390245,0.0537498,-0.0102492,0.0542858,-0.0171992,-0.000968165,-0.0458088,0.0444488,0.0620157,0.0336737,-0.0355063,0.0203134,-0.024838,-0.0497504,0.0033308,0.137212,-0.012133
0.00601782,-0.00360884,0.0127374,0.0384152,-0.0107304,-0.141757,-0.233509,-0.361318,-0.474312,-0.526223,-0.481517,-0.391974,-0.248478,0.0451801,0.499256,1.12873,1.50248,1.21835,0.570558,0.0864457,-0.127487,-0.100899,0.0121928,0.146918,0.248748,0.357915,0.4377,0.478244,0.513708,0.510199,0.501475
0.00855395,0.00865817,0.00227053,-0.0228725,-0.00750311,-0.0150544,-0.0507144,-0.0649749,0.0143064,-0.0066716,-0.0151631,-0.0445214,0.0363585,0.0735362,-0.0623407,-0.0205812,-0.0445966,-0.00447394,0.0173773,0.118602,0.0168726,0.0385985,-0.00400287,-0.0383114,-0.0477677,0.0277729,0.021707,-0.0710956,0.00955383,0.0585818,-0.00573189
0.00184591,-0.0157017,-0.00554261,-0.0126481,0.0213088,-0.00231635,-0.0822352,-0.191687,-0.222988,-0.161438,0.122288,0.429529,0.453973,0.221061,0.00285386,-0.0738552,0.0393805,0.0826115,0.0289606,0.0128897,0.00563453,0.0192843,0.0329298,0.0646068,0.0691531,0.0646929,0.0599145,0.0373681,0.0288741,0.0145474,0.000570647
0.359319,0.113704,-0.122834,-0.0931003,-0.0723894,-0.0130668,-0.0403271,-0.0403633,0.0145556,0.006657,-0.0138063,-0.00304525,0.0264383,-0.0413217,-0.0107271,0.0191407,0.0145424,0.0105139,0.0119804,-0.0100993,0.0046009,-0.0170056,-0.0420428,-0.0520196,-0.0482999,-0.0376983,-0.0256835,-0.00103459,0.0053222,0.00879656,0.010588
-0.0446127,0.0374838,-0.0016501,-0.0178286,-0.0171338,0.0556258,-0.0740187,0.0616225,0.00811115,-0.0456693,-0.0227361,0.00720628,0.0435684,0.0319126,0.0578067,0.0446771,0.0425136,0.0825924,-0.0045351,-0.110833,-0.00745798,-0.0479348,0.0228418,0.0429152,-0.020627,-0.0363429,0.0193042,0.00363243,-0.1043,0.0866641,0.0626635
-0.018857,-0.0276881,0.0282205,0.00561237,-0.0381357,-0.110688,0.0234502,0.0151779,0.0210482,0.0206509,-0.0240167,-0.0239515,0.000594634,0.00586476,-0.0553753,-0.0531561,0.00556858,-0.0748303,0.0792829,-0.00955314,0.0392406,-0.0119014,-0.00530525,0.00098953,0.12231,0.0729421,0.0390369,0.0453422,-0.0179971,0.0061673,0.116528
-0.0168969,0.259201,-0.136634,-0.178235,-0.0966016,-0.0822126,-0.0156815,0.0192614,0.00454629,-0.0159141,0.0109615,0.0137757,-0.00105412,0.0289067,0.0024603,-0.0175069,-0.0125598,-0.00961351,-0.0156543,0.00304086,-0.00371187,0.0171216,0.0139329,0.0141612,0.0187342,0.0110036,0.017153,0.0220061,0.0262596,0.024318,0.0233807
-0.00677218,-0.000944468,0.0148077,0.00469678,-0.00141985,0.00931111,0.029454,0.0278816,0.0696623,0.00481754,-0.0304648,-0.0189679,0.0270229,0.0560294,-0.000374807,0.0359953,-0.0708826,-0.0623435,0.026866,0.0331359,0.0381673,0.00167881,-0.0622238,-0.0495825,0.0388737,0.0194412,0.0316691,-0.12077,-0.0185825,0.0342483,-0.0620109
0.043904,-0.0478393,-0.0302269,-0.000167175,-0.0100885,0.0301472,0.0269958,-0.00347846,-0.0166514,-0.0747132,0.0397657,-0.0465863,0.0367072,0.016395,-0.0202167,-0.00236667,0.052833,-0.0112735,-0.00412574,0.00758435,0.0254187,-0.0359046,-0.00408132,0.0460576,0.0735895,0.0904698,0.0978609,0.105616,0.0773684,0.0901802,0.111036
-0.0490149,0.0179941,-0.035317,0.0128158,0.02861,0.0109663,0.00238695,0.01669,-0.0657293,-0.0740736,0.0115819,-0.00422853,-0.0827335,-0.0102237,-0.0402725,-0.0736931,-0.0199665,-0.0260995,0.0436389,-0.0501798,-0.0684393,-0.0732358,-0.0354596,-0.00664437,-0.0427029,-0.0328328,0.0249877,0.0221914,0.0157941,0.00991484,0.0344927
-0.00775289,0.0192291,-0.00242463,0.0145027,-0.00602513,0.0188251,0.0385141,0.032319,0.0167025,-0.0162685,-0.0187547,0.013626,0.030388,0.0411289,0.0370555,0.00203441,-0.0516268,-0.0750596,-0.122771,-0.17274,-0.216158,-0.245662,-0.297107,-0.313614,-0.284245,-0.242654,-0.227246,-0.218305,-0.219583,-0.222983,-0.2239
-0.0506107,-0.0412026,-0.0250723,-0.0490907,0.00982209,0.00158982,-0.0299701,0.071513,0.0461737,0.000647308,0.0545241,0.048962,-0.00697472,-0.00516183,0.0488139,-0.0145842,0.00817253,0.0285506,0.104102,-0.0451106,-0.00176832,-0.0378808,-0.0373513,0.0335532,0.032249,-0.0141319,0.0428212,0.132742,-0.0122969,-0.0182462,-0.0311592
0.000390153,-0.00731097,0.019956,0.0257085,-0.0245501,0.0378332,0.00101923,-0.0288333,-0.0742912,-0.0649779,0.00253861,0.0720788,0.0702058,-0.0151865,-0.119361,-0.278953,-0.388362,-0.666857,-1.12897,-1.66445,-1.85918,-1.1993,-0.137087,0.424324,0.115611,-0.333885,-0.520164,-0.520711,-0.529641,-0.593073,-0.609233
0.0209868,-0.00121678,-0.000972635,0.00472673,0.0180882,-0.0490387,0.01742,-0.025561,-0.0138236,0.0149339,0.0434916,-0.0422118,0.0201952,-0.029316,0.0153161,-0.0296284,0.0342552,-0.000102441,-0.0410092,-0.00855596,-0.0358496,-0.0245539,-0.00627733,0.00319381,0.00338824,0.0161446,0.034026,0.0229325,0.0170528,0.0190906,0.0215757
0.0213116,0.0295056,0.0423339,-0.0551284,-0.0753687,-0.00304778,-0.00400893,0.0421541,0.0621229,-0.0142358,0.0567632,0.0491902,-0.0472027,0.0377775,-0.0234631,-0.0112307,0.0464286,0.0741757,-0.0821161,0.00616364,0.034272,0.0120529,-0.0247309,0.0150007,-0.0513594,-0.0798024,0.00502816,-0.133986,0.06316,-0.0409451,0.0393782
-0.00614551,-0.0575209,0.0446333,0.00173856,-0.0463284,-0.0692815,0.0869058,-0.00955451,-0.00698568,0.00363228,-0.00748699,-0.0106572,0.035708,0.0447378,-0.00155184,-0.0053337,0.00422195,0.0515483,-0.0506816,-0.0340685,-0.0312379,0.00743359,-0.0474391,-0.0518189,0.0734983,0.0412547,0.0280808,0.00305501,0.0594657,0.0010369,-0.0667722
-0.00549859,0.0540259,-0.0601516,0.0262002,-0.0537634,0.0402078,0.00964377,-0.0439016,0.0455837,0.00700157,-0.094474,0.0642498,0.0716528,-0.00903931,0.0750703,-0.0827564,-0.0315884,-0.0216601,0.0288598,0.073296,0.0532981,0.0128458,-0.0520885,0.0831837,-0.0799434,0.0127834,-0.0102706,-0.0413087,0.0200398,-0.0358333,-0.0440402
0.00144133,-0.00529699,-0.0452823,-0.0620151,-0.0717955,-0.0185537,-0.0213854,-0.0279355,-0.0296556,-0.142476,-0.27548,-0.44547,-0.638605,-0.745089,-0.715323,-0.628001,-0.484548,-0.266612,-0.131536,-0.0720044,-0.0794875,-0.175127,-0.292633,-0.353397,-0.333937,-0.320248,-0.326218,-0.328613,-0.364472,-0.362366,-0.356598
-0.00456592,0.0454836,-0.091667,-0.390064,-0.0133885,0.599539,0.545735,0.207913,-0.0309302,-0.18402,-0.242215,-0.169441,-0.120613,-0.055167,-0.05095,0.0212535,0.0098928,0.0227279,0.0655521,0.0674342,0.0816389,0.0789246,0.0952397,0.132756,0.149473,0.148855,0.162583,0.172892,0.184288,0.182746,0.170632
-0.0246037,-0.071679,-0.240109,0.146335,0.617015,0.592248,0.2925,-0.0336135,-0.109136,-0.0998509,-0.0849524,-0.0826031,-0.0290332,-0.0190799,-0.0481699,-0.097892,-0.115976,-0.122444,-0.113388,-0.145339,-0.138528,-0.0993307,-0.0527705,0.00491623,0.0358755,0.0589272,0.067453,0.0737667,0.0961853,0.104361,0.104525
0.0154232,-0.126177,-0.405772,-0.267997,0.116031,0.440337,0.540805,0.461147,0.316148,0.214994,0.133859,0.0865097,0.0544041,0.00476716,0.00203547,-0.01302,-0.0142005,-0.00971285,-0.00476405,-0.011727,0.0082912,0.0347375,0.0551526,0.0394139,0.0278658,0.0365591,0.0424826,0.0553209,0.0590278,0.0636484,0.0740103
0.0221303,-0.0500584,0.0235868,0.0401457,-0.0631138,-0.0533292,-0.0826487,-0.00674159,-0.0447739,-0.00765636,0.00967039,0.00884293,-0.00732092,0.0247995,-0.0525175,-0.0414198,-0.0683247,0.00219278,0.0128983,0.0461825,-0.0385936,-0.0772836,0.0264635,0.0129468,0.00948845,-0.0354408,0.00975297,0.0103264,-0.0255063,0.00732696,-0.0511128
0.0244321,-0.0892581,0.0133518,-0.0076155,0.0142885,0.0369982,0.0205071,-0.0163182,-0.0276021,-0.0207815,0.059541,-0.0107869,-0.0295808,-0.0300857,-0.00739078,-0.0300706,0.00224982,0.0575967,0.0569646,0.00234804,0.0563227,0.047704,0.0368979,0.0486719,0.101282,0.0374417,0.0741603,0.101012,0.0752654,0.0965022,0.113107
-0.0108854,0.0127963,0.0288661,0.03931,-0.00121771,0.000311742,0.00453177,-0.0197335,-0.0441364,-0.0276334,-0.00108661,0.0652249,0.120524,0.174773,0.214389,0.248573,0.28281,0.352768,0.400087,0.427673,0.477005,0.525289,0.576686,0.580342,0.518256,0.4646,0.42754,0.418269,0.400886,0.390868,0.3951
0.027206,0.0214439,0.025892,-0.0307164,-0.00423996,0.045643,-0.0304873,0.0198707,-0.0485944,-0.0116428,0.00217297,-0.0847395,0.013489,0.0487509,0.0304075,0.0266519,0.0244776,0.00397984,-0.0215384,0.00917903,0.0264652,-0.0245957,-0.0178601,0.00795549,-0.00375858,0.00268384,0.0154428,0.00869715,0.0118015,-0.0303566,-0.0397013
-0.0198198,-0.0327629,0.000148203,0.0402092,0.0452801,0.109159,0.133239,0.0654923,-0.144016,-0.433595,-0.756233,-0.885477,-0.733725,-0.274228,0.351425,0.751414,0.74525,0.43753,0.0779955,-0.144736,-0.191684,-0.170117,-0.176524,-0.209787,-0.200359,-0.186004,-0.156186,-0.115605,-0.119427,-0.0989874,-0.094858
0.0864108,0.0349011,0.0235263,0.0463647,0.0332254,0.0893279,-0.0212126,0.075395,0.0581249,0.0887815,0.0465988,0.030973,0.0440725,0.117056,0.00579353,-0.00904439,0.0426054,0.152517,0.0798225,-0.0117322,0.0181048,-0.0401121,-0.0669791,-0.0636104,-0.025869,0.082243,0.0695578,0.0839696,-0.0571546,0.0550786,0.0302613
0.00195258,-0.00952577,0.00489563,0.0136305,-0.0453591,-0.143532,-0.307217,-0.412885,-0.379331,-0.0774118,0.397598,0.864693,1.07964,0.895705,0.416618,-0.114901,-0.477906,-0.501384,-0.287621,-0.0657033,0.00611848,-0.0215557,-0.0621705,-0.0839142,-0.0748702,-0.0546939,-0.0435574,-0.0377846,-0.0356287,-0.0282479,-0.0169684
-0.0612958,-0.0357478,-0.0549235,-0.0141,-0.0943471,-0.0489615,-0.0416465,-0.0401319,0.0486989,0.0592392,0.04311,-0.0396839,-0.0183309,-0.00446487,-0.00891889,0.0488092,-0.021233,0.0645111,0.005759,0.0346593,0.0359472,-0.0614023,0.0257544,-0.0246369,0.0349418,-0.0195354,0.0331752,0.0895963,-0.0471972,-0.0676834,0.0142255
0.0753129,0.0303418,0.0352421,0.0146355,0.0813529,0.156397,-0.0346265,0.0238683,0.0394418,0.00648268,0.0663701,-0.0120076,0.0878817,0.18757,-0.00451562,0.0228246,0.0599735,0.110313,0.0989435,0.0839279,0.152036,0.0868429,0.119238,0.105707,0.129145,0.0484999,-0.00247235,0.104623,0.0399042,0.133191,0.0948951
0.00889789,-0.00781018,0.0126968,-0.0354054,-0.0476149,-0.0219506,-0.0342077,-0.0265206,-0.0387963,0.0170557,0.0818555,-0.0393301,-0.0445008,-0.0886705,-0.0182469,0.0512639,-0.0330125,-0.0041336,0.039452,-0.0186619,-0.122943,0.0649629,0.0589004,0.0381834,-0.00279338,-0.0474313,0.0119941,0.0295972,0.0016905,0.0449145,0.0375558
-0.0418095,-0.0420041,-0.0512074,-0.06216,-0.000635757,0.092835,0.0676473,0.0415029,0.0708406,-0.0472312,0.104524,-0.0246049,0.000969309,-0.0216888,-0.0060251,-0.0113406,9.68259e-05,-0.00999591,0.0246342,-0.0409572,-0.0728919,-0.0234164,0.0375948,0.054718,-0.0112789,0.0122563,-0.0562333,-0.0513359,-0.0912167,0.0165933,0.0149545
-0.0469938,0.0499198,0.0669399,-0.00829345,0.00214118,0.050174,-0.0472519,-0.0316778,0.00872461,0.0481538,0.0330485,0.12997,-0.00537173,-0.154554,0.030703,0.051036,-0.00102948,0.0398084,-0.0292138,0.0691559,0.0105349,0.116486,-0.067822,0.0234532,0.0404749,-0.0489577,0.00562617,0.0513312,-0.022389,0.0642796,0.0072109
-0.0143865,-0.0294203,-0.0488524,-0.0506587,0.0141229,0.0163771,0.0748979,0.0403831,0.00685445,0.000638671,9.86519e-05,0.0146716,0.0349502,0.0461025,0.0425287,0.0278946,0.0184742,0.00917256,0.0141688,-0.0111608,-0.0309677,-0.0140558,0.0327963,0.0553965,0.056013,0.0594132,0.073009,0.0721536,0.049758,0.0664481,0.0790821
-0.000847001,-0.0044472,0.00402013,-0.00645697,0.0390592,0.00168189,-0.0034501,-0.0194278,-0.0577206,-0.0470597,-0.0180268,-0.00134312,0.0192872,0.0335153,-0.0353199,-0.181061,-0.304574,-0.27819,0.0629224,0.46455,0.43158,0.0744987,-0.259777,-0.341059,-0.259206,-0.136536,-0.0587821,-0.0549789,-0.0360627,-0.0482499,-0.0486403
0.0609229,0.025093,0.0557049,-0.021588,-0.0609034,-0.094656,0.0451483,-0.00970287,0.00736636,0.0562273,0.0578768,-0.0362235,0.0159738,-0.00349464,-0.0247976,0.00209392,0.00373381,0.0132624,0.0667406,-0.0671087,-0.00547884,0.0184479,-0.0407634,-0.0609171,-0.0431216,0.00637177,-0.0691969,0.0859974,0.0659325,0.0161081,-0.00646276
0.0450471,0.0145136,-0.0241187,0.000625013,0.0272791,0.026779,0.0198473,0.0833576,0.00844918,0.0137917,-0.0274296,-0.0279426,0.0397685,0.0167148,0.0186107,0.0670704,0.0752853,-0.042862,0.0106783,-0.0282859,-0.018005,0.00489895,-0.0184697,0.0612137,0.133092,-0.0259658,0.0607351,0.0546834,0.0436349,0.0954664,0.029559
0.0709316,-0.0277635,0.0112611,-0.0169108,-0.0241596,-0.0279059,-0.00768545,0.0209462,-0.00447305,0.0378184,-0.0236091,-0.0533181,-0.051056,-0.0176465,-0.018084,-0.0467971,0.0550891,-0.0575194,0.0804722,0.0683668,0.0233251,-0.0372161,0.0372587,-0.0567705,-0.0401019,0.0427164,0.0518779,0.0155653,0.00751702,-0.0515291,0.00145338
-0.00829091,0.0300732,-0.0253521,-0.00261408,0.01009,0.0118233,0.034029,0.0203055,0.00172086,-0.0381741,-0.0341135,-0.00831554,0.0203957,0.0654198,0.05993,0.0442515,0.0375283,0.0470446,0.0747899,0.129262,0.140983,0.117186,0.0891096,0.0611016,0.0122944,-0.0183082,-0.0507575,-0.0433524,-0.037296,-0.0314407,-0.0164131
0.052859,0.0241098,0.00232352,-0.000991691,-0.0144272,-0.0210196,0.0079903,-0.0491641,0.0631476,-0.000230185,-0.0368587,-0.00922135,-0.0720572,-0.0129125,-0.0234442,0.0157051,-0.0206604,-0.0501321,0.0499426,0.00999558,0.0369335,-0.136143,0.00129467,-0.00261428,0.0378158,0.0421151,0.137944,-0.0101261,0.035045,0.0423828,-0.0461766
-0.0141081,-0.118983,-0.0211951,0.0417479,-0.0178141,-0.0492907,-0.000970619,0.0965582,-0.0261865,0.0263151,0.0256062,0.02026,0.0820828,-0.0182545,-0.067624,0.025615,-0.00819574,-0.0680304,0.0441573,-0.0737052,0.0280457,0.0210317,-0.0404703,-0.0614919,-0.0901658,0.0011648,-0.0606699,-0.0582183,-0.0657028,-0.000346453,0.113417
-0.0285206,-0.0486351,-0.00792636,0.0345646,0.0272369,0.00202436,0.0256908,0.00521633,0.0193911,0.0181486,0.0281404,0.0140653,-0.0126332,-0.0185611,-0.00849978,0.000755372,0.00816454,-0.0297278,-0.0282496,-0.0540441,-0.0469723,-0.0368651,-0.0392507,-0.0516756,-0.0700066,-0.0898627,-0.0882256,-0.0969855,-0.101199,-0.0866135,-0.0904871
0.0130184,-0.07253,0.0127631,0.0494486,0.0737733,0.0601629,-0.025918,-0.00785093,0.0198691,0.0446571,-0.116855,-0.0011215,0.000882134,0.0332651,-0.0106896,-0.00637228,0.0258788,-0.0763343,0.00749233,-0.03074,0.0397695,-0.0845271,0.0130526,0.0223359,0.000438122,-0.0429855,-0.0202274,0.0190803,0.0638876,-0.0131577,0.0443896
0.0372186,-0.00537914,-0.113604,0.0123347,-0.0484631,0.110857,0.0590539,-0.0390815,-0.0482614,0.0328674,0.0145881,0.0438434,0.0352655,-0.0106795,-0.0261904,0.0382809,0.0830692,0.0241072,0.0220874,0.00757902,-0.0397047,-0.0231902,0.0467803,-0.0040328,0.0111001,-0.0158175,-0.0395713,0.0280748,0.00801753,-0.085074,0.0285798
0.0733494,0.0289951,-0.0338535,0.0312933,0.0386964,-0.106989,0.042858,-0.0512829,-0.037208,-0.0162609,-0.0820513,-0.0257694,0.0644173,0.0851671,0.0187281,-0.0156764,0.010088,-0.00875352,0.0179129,0.0700882,0.0161047,-0.0233601,-0.0520728,-0.020678,-0.0205384,-0.0190402,0.0351624,0.0386521,0.0584162,-0.0211604,-0.129345
-0.00833556,0.0199859,0.0386884,-0.0189465,0.0495007,-0.00477965,0.0434318,-0.0650586,-0.0468439,-0.00317978,-0.0560866,-0.0817203,-0.0756246,-0.00963505,-0.08937,0.0460056,-0.0285093,-0.0307493,-0.0344909,-0.00496733,-0.0334413,0.000869446,-0.0168774,0.0277648,-0.0167693,-0.015458,-0.0331959,-0.0140597,-0.0169274,-0.0136234,0.0304948
-0.0420645,0.00964464,0.0316674,-0.0491019,-0.00450708,-0.0474952,0.0532695,0.00373943,0.0270632,0.12737,0.0275106,0.0410783,-0.000538055,0.0187202,0.0774014,0.0296629,0.0692056,-0.0828384,0.00617209,0.0118313,-0.0479008,-0.0727614,-0.0938142,-0.0709409,0.081726,-0.137755,-0.044886,-0.0377411,-0.0129182,-0.0693643,0.00236477
0.0137569,-0.0372053,-0.0179292,-0.0978644,0.0661723,-0.0756484,0.0497274,0.0369725,-0.00537241,-0.0514587,0.0730349,-0.0452613,-0.0533961,0.034162,-0.0953415,-0.0314405,0.0730016,-0.0316466,-0.0201266,-0.0766011,0.0100056,0.0513057,0.0228987,0.0564798,0.0747675,-0.035508,0.0210124,-0.0362982,0.0316414,-0.0281021,-0.0704849
-0.00509597,0.0104608,-0.016458,0.00752055,0.000318881,-0.0198311,-0.00193252,-0.0160504,-0.0750973,-0.250627,-0.435897,-0.512452,-0.365668,0.0638835,0.637242,1.08061,1.12726,0.826171,0.377089,0.0147256,-0.0971104,0.016935,0.18665,0.280626,0.321189,0.352294,0.350291,0.311051,0.306801,0.310519,0.312797
0.0225291,-0.0114573,-0.0629575,0.0810477,0.210435,0.320365,0.373114,0.439396,0.521873,0.588811,0.560721,0.443755,0.268615,0.118951,-0.000861113,-0.039019,-0.0557979,-0.0550182,-0.0638394,-0.0642396,-0.0882444,-0.0993314,-0.0811158,-0.0325583,-0.000860392,0.0177554,0.0352468,0.0455877,0.0569661,0.0625717,0.0693182
-0.0100194,0.156049,-0.0550403,-0.209119,-0.204885,-0.206324,-0.147941,-0.107473,-0.108071,-0.137977,-0.153349,-0.151099,-0.128956,-0.117724,-0.0964374,-0.0699141,-0.0409062,-0.00663306,0.00942388,0.0094336,0.0047934,0.0098554,0.0290801,0.0443881,0.0550155,0.0517958,0.0638429,0.0622924,0.0620672,0.0574317,0.0505719
0.0151629,-0.0276109,0.0109309,-0.0370395,-0.021808,-0.0511472,0.0294775,0.0548352,0.0230906,0.0268046,0.0201782,0.0906107,0.0342243,0.0447408,0.0828591,0.159403,0.143246,0.19635,0.16206,0.231975,0.210003,0.232124,0.279647,0.233619,0.207466,0.220353,0.233227,0.255445,0.296498,0.249162,0.209137
-0.00772802,-0.0276503,0.0155025,-0.0361729,-0.111793,-0.170875,-0.193874,-0.182873,-0.136348,-0.0585822,0.0185563,0.0820176,0.0627317,0.0506819,0.0507983,0.076769,0.0691702,0.0352199,-0.0448487,-0.108902,-0.117058,-0.115656,-0.14751,-0.198835,-0.229464,-0.249983,-0.261096,-0.26289,-0.258446,-0.256762,-0.262596
0.00582381,-6.24105e-05,-0.013333,0.00811675,0.00924948,0.0389845,-0.00115525,-0.0779838,0.0746836,0.0453173,-0.0160403,0.0165547,-0.0282318,-0.00108662,-0.029784,0.010408,0.00686843,-0.0520679,0.114808,-0.00999698,0.0344898,0.00546889,0.0487479,0.101726,0.17045,0.149054,0.0675845,0.258678,0.172811,0.199668,0.183138
0.0418785,-0.0612823,-0.0228478,0.0775155,0.0464704,-0.0292052,0.0991513,-0.0785768,-0.023519,-0.0582227,0.0400685,-0.0402169,-0.0263033,0.0121482,-0.0561938,0.0842399,0.123766,0.00976314,-0.0967575,0.0322603,0.0160258,-0.0339517,-0.0266658,-0.0101117,-0.0664599,0.0287486,-0.043541,-0.00537357,0.0045714,-0.0204436,-0.0413312
-0.0356443,0.0820738,0.0127355,0.0387557,-0.0162615,-0.0553756,-0.0220372,-0.00659463,0.121621,0.00644811,0.0620577,-0.00383582,-0.0134517,0.0306895,-0.0628686,-0.0870773,-0.00276396,-0.015285,0.102607,0.0629173,0.0164008,0.029092,-0.0638501,0.0182545,0.0609365,0.0504378,0.125705,0.0250539,0.102495,0.117014,0.150995
-0.00259237,0.0254747,-0.0663738,-0.143897,-0.503617,-0.655009,-0.562041,-0.196764,0.379532,0.958956,1.20961,1.12834,0.705895,0.258607,-0.0812165,-0.244272,-0.299413,-0.26668,-0.229775,-0.191316,-0.160017,-0.116112,-0.105521,-0.111241,-0.119136,-0.124109,-0.0967166,-0.0586002,-0.0357632,-0.0244079,-0.0116918
-0.0409884,0.0381859,-0.0865411,-0.0898248,-0.0677727,0.024286,-0.0500719,-0.0593421,0.018104,-0.0742067,-0.0422564,0.0472124,-0.0297031,-0.0231716,-0.0221071,0.0274713,-0.0564557,-0.0770619,0.0376991,0.0182791,-0.0205419,-0.0229592,0.0153158,0.0211197,0.00328535,0.00225142,-0.0330196,0.069249,0.00949305,-0.0940938,-0.0132301
0.68506,0.10881,-0.185226,-0.159301,-0.09875,-0.0331931,-0.0147569,-0.0306018,-0.0319759,0.0529169,0.080736,0.0383459,0.00784429,0.021019,0.000760952,-0.0430768,-0.0484933,-0.0558487,-0.0241888,-0.0199648,-0.0306959,-0.0175675,-0.0184914,-0.0130782,-0.0341815,-0.0404266,-0.05594,-0.0690914,-0.0822773,-0.0806462,-0.0700598
0.0125424,-0.0264802,-0.0461467,-0.094107,0.0623348,0.329381,0.352657,0.295369,0.133189,0.0323946,-0.0155421,-0.000436268,-0.0795394,-0.0423623,0.00827811,0.0478073,0.0278602,0.0422524,0.0250379,0.0374326,0.0259022,0.0605324,0.112964,0.12073,0.137856,0.131808,0.135293,0.13917,0.101626,0.0932831,0.105561
-0.00188831,-0.00130144,0.0101824,-0.00464581,0.0140267,-0.0440304,0.0220298,-0.00199394,0.00516899,0.0148305,0.00783424,-0.0479584,0.00351903,-0.0537648,-0.0754873,0.0164838,0.0592019,0.0669301,0.0338335,0.000954534,-0.0729055,-0.121759,-0.13876,-0.194587,-0.186676,-0.165559,-0.156244,-0.166361,-0.160902,-0.135086,-0.114755
0.0210894,0.0216657,-0.0495346,0.128526,0.00227031,0.0182977,0.0143025,-0.0731094,0.0430235,0.0711957,-0.0253732,-0.117071,-0.0537691,-0.00852658,-0.0581181,0.00848844,-0.0459883,-0.049498,0.000874451,0.03432,-0.0233451,-0.0267918,0.00792311,-0.0304119,0.0164535,-0.0458762,0.0829738,-0.0246134,0.0924766,-0.00546445,0.0185524
0.000412895,-0.0116567,0.00963391,0.024666,0.0677525,-0.00208159,-0.00852315,0.00807866,0.0630544,0.0916026,0.0676881,0.066589,0.08373,0.0918846,0.00749768,-0.0949248,-0.265185,-0.484297,-0.651603,-0.638137,-0.27157,0.261638,0.696447,0.868022,0.866911,0.771842,0.672661,0.609258,0.617783,0.629816,0.633012
-0.0285726,0.0143775,0.0391092,-0.094904,0.0707247,0.00932555,-0.0639284,-0.0428447,-0.0336508,-0.0350075,0.0408719,0.00481282,0.075527,-0.0136303,0.0502002,0.0186993,0.018745,-0.0154487,0.030185,-0.0200206,-0.0515203,0.0651329,0.03391,0.0535694,0.121675,-0.0198526,-0.00920552,-0.0187299,0.00727168,-0.0111897,-0.023904
0.0999758,0.00891248,0.011845,0.0232791,-0.000166948,-0.00850771,-0.0149973,-0.0118889,0.0203889,0.052885,-0.016482,-0.000151886,0.0269645,0.0320254,-0.0572234,0.0747823,0.0168335,-0.0454868,0.0297463,0.0316075,0.0311363,-0.0711124,-0.0228676,-0.133994,-0.0837148,-0.102633,-0.0656464,-0.0586806,-0.0322663,-0.0224861,0.0559644
-0.00460754,0.0786781,-0.0523887,0.0552457,-0.0451427,-0.131838,0.0885172,-0.0100768,-0.0171908,0.0238809,-0.0343225,0.112924,0.0149859,-0.00553252,-0.0263779,-0.0515432,-0.00494602,-0.0502972,-0.0179703,0.0435393,0.00231639,0.012562,0.012349,0.0291982,0.0603436,0.0482388,-0.0216839,0.0239245,0.0221008,0.0212522,0.084143
0.0560325,-0.00748021,0.0821021,0.0103709,-0.113854,0.0734393,0.0203324,0.086949,0.0109391,-0.105988,-0.0552381,0.0128113,0.0247356,-0.0341371,-0.00948986,0.00752567,-0.0524979,-0.0247499,-0.123506,0.00315762,-0.000612108,-0.0516242,0.0594742,-0.0517995,0.0802139,0.00364465,-0.0262884,0.00385637,-0.0267698,0.133515,0.0255763
0.0662388,-0.0265421,0.00279624,0.0742645,-0.00219763,-0.0151865,0.0567813,-0.0772853,-0.103222,-0.0191788,-0.00357961,-0.0298644,-0.000280278,-0.0065347,-0.0462511,0.0145567,0.0890241,-0.0930588,0.0261539,-0.0300036,0.0558181,-0.0158947,0.0159077,-0.0327985,0.110157,0.0567234,0.0404716,-0.0226012,0.0276664,-0.038654,-0.0462758
0.0584414,0.0376194,-0.0152466,0.0244816,-0.0644452,0.0506151,-0.0337078,-0.0359093,0.0214897,-0.0514193,0.0508529,0.0736805,0.0181781,0.0137951,-0.0432362,-0.00566028,-0.0501513,-0.00851617,0.0557724,0.0352545,-0.0206266,-0.0238077,-0.0160621,-0.0428437,-0.00469489,-0.0143176,0.0335256,0.0356043,0.00726162,-0.0286346,0.0179012
0.0329012,0.0362454,-0.0755404,-0.0322597,0.0124612,-0.0238994,-0.0292816,-0.0866139,-0.0103129,0.0057261,0.0348752,0.0174809,-0.0116595,-0.0683769,0.0769853,0.00993869,0.00455656,0.0123823,-0.0440269,0.0674283,0.0126146,-0.0278426,0.0665802,0.0527579,0.0385067,0.00352426,-0.00551586,0.0569127,0.0255846,0.0465835,-0.0259312
0.0410823,0.0504462,0.0230927,0.0700099,-0.0598902,0.0554898,-0.0551288,-0.0125143,0.00975065,-0.0170523,0.0210916,0.0331221,0.00647874,0.0475315,0.00421154,0.05833,-0.0571504,0.0825132,-0.14235,-0.0277384,-0.0375676,0.0258205,0.0962414,0.0136273,-0.0139446,-0.0592414,0.0198763,-0.0948052,0.0276194,-0.0341893,0.0359964
-0.020886,0.0458245,-0.0591867,-0.043885,0.0136932,0.00518798,-0.00636205,-0.0166239,0.0138982,0.0132046,-0.0122592,0.0225676,-0.0141581,0.00893265,0.0249815,0.0032136,0.019568,0.0434957,0.0568362,0.00425506,0.0215619,0.000357983,0.0213237,0.0244298,0.078209,0.0780531,0.0857764,0.104184,0.12595,0.144525,0.172653
0.0579292,0.578747,0.279199,-0.00760398,-0.00494651,-0.0326957,0.046462,0.0345605,0.0492112,0.0469092,0.0198673,0.0191935,0.0552736,0.0812011,0.0880133,0.0872165,0.0144687,-0.016783,0.0173478,-0.0100094,-0.0410085,-0.0537728,-0.0867021,-0.0861015,-0.0596538,-0.0392026,-0.0220968,0.00130993,0.017081,0.0251196,0.0207236
-0.035631,0.0587528,-0.0138749,0.0320354,0.0344933,-0.0548132,0.0636667,0.0235568,-0.00185412,0.0232302,0.0293656,-0.00434677,-0.0651525,0.0551687,0.0085904,-0.0627885,0.0561943,-0.00567815,0.0361191,-0.0110235,0.0404606,0.000314539,-0.061417,-0.0478437,-0.0278807,-0.0364651,0.0862957,-0.0311893,0.000465439,-0.110235,0.0766959
0.0158589,-0.20046,-0.43784,-1.21627,-0.282983,1.56456,1.57826,0.829522,0.284214,-0.0198307,-0.112985,-0.094867,-0.104767,-0.118427,-0.0932591,-0.100355,-0.102386,-0.0971726,-0.105725,-0.098134,-0.0607741,-0.0376632,0.0092512,0.0281239,0.0459666,0.0529087,0.0497767,0.0393193,0.034187,0.0393314,0.0568119
0.0130033,0.0544339,-0.029146,-0.0358565,-0.00549931,0.0527239,-0.0115145,-0.00668348,0.114152,-0.0593888,0.00592301,0.0184575,0.147437,0.0583598,0.0466422,0.0303197,-0.0571441,-0.137118,-0.0669653,0.0196527,-0.0730574,0.000783937,0.0402291,-0.0559204,0.129551,0.027439,-0.0642091,0.0184548,0.0907371,-0.014956,-0.0115674
-0.0331802,-0.182719,0.296473,0.492163,0.0581906,-0.194152,-0.210046,-0.166789,-0.127642,-0.0396593,-0.00401639,0.0251085,0.0804906,0.0951392,0.0398345,0.0177517,-0.0124095,-0.00991377,0.0181675,0.015178,-0.00828383,0.0339866,0.0420349,0.086364,0.103046,0.105988,0.0961247,0.0615186,0.0701193,0.0756293,0.0585165
-0.0113887,-0.103384,0.522447,0.353842,-0.0369906,-0.0567038,-0.0829759,-0.0726638,-0.050566,-0.0355161,-0.015235,-0.0322377,-0.0985975,-0.132388,-0.125198,-0.104474,-0.0660228,-0.0327256,-0.00564651,0.00505169,0.000758242,-0.00823935,-0.00875609,-0.0101739,-0.0123213,-0.024222,-0.0290169,-0.0346103,-0.0448014,-0.053639,-0.0547152
0.0251273,-0.0469855,-0.0752946,-0.0977099,-0.0616901,-0.0609903,-0.142558,-0.165308,-0.0175211,0.00128756,0.0970652,0.247211,0.31493,0.410795,0.416621,0.316111,0.225169,0.121239,0.126972,0.170529,0.100829,0.0776346,0.0285639,0.0816906,0.0847017,0.0189391,0.0144004,-0.0094921,0.0189091,0.0169083,-0.031724
-0.0720281,-0.039992,-0.127739,0.00291557,-0.0787978,0.0929877,-0.0175502,-0.0490375,0.048914,-0.0332974,0.0167288,-0.100354,0.0378674,0.0391663,-0.0263596,-0.0994283,-0.0600703,0.0387529,0.0218911,0.0290279,-0.0861606,0.0129735,-0.0499933,0.0333104,0.0605978,0.0669401,0.11867,-0.00449562,0.00676865,-0.0117345,-0.0103014
0.0874485,0.0227949,0.00830981,-0.0291629,0.102185,0.0804763,0.0460819,-0.055355,-0.0608704,-0.0137389,-0.0170354,0.00157264,0.00216131,-0.00567535,0.015148,-0.0537383,0.0316778,0.0181729,-0.000348069,-0.0908774,-0.0257245,0.0570595,-0.00865073,-0.0459254,0.0240166,-0.0200127,-0.0269757,-0.0943651,-0.0242718,-0.0255299,-0.0294705
-0.00387992,-0.00910113,-0.00131828,-0.067899,-0.0542851,-0.00346852,0.125599,0.19603,0.214346,0.199992,0.14119,0.118693,0.0877459,0.0394658,0.0122863,-0.0126328,-0.0125407,0.0142328,0.0587369,0.0735956,0.128617,0.187286,0.251118,0.285378,0.283351,0.254273,0.222768,0.214322,0.211852,0.22337,0.226761
-0.00421531,0.0376196,-0.0573882,-0.0861204,-0.115975,-0.0604124,-0.0304433,0.00155127,0.153321,0.349218,0.558754,0.694556,0.783264,0.779835,0.710221,0.599912,0.473876,0.315161,0.150218,0.0575217,0.0285725,0.0317401,-0.00561218,-0.0637149,-0.105741,-0.131856,-0.153363,-0.16113,-0.188403,-0.197733,-0.195093
-0.0197485,-0.0480729,0.448838,-0.0173028,-0.1737,-0.0267104,-0.0259047,0.0307802,0.0155475,0.0397464,-0.0314972,-0.0536684,-0.0371774,-0.00975372,0.0225542,0.0267973,0.0204223,-0.0233148,-0.0186686,-0.0681981,-0.079047,-0.0752569,-0.0652832,-0.0552625,-0.0426189,-0.0315768,-0.0352625,-0.0437012,-0.00974429,0.000869728,0.00387864
-0.000228067,-0.137543,-0.0065211,0.078228,0.0508092,0.0450839,-0.0327456,0.0644651,0.0122938,0.00648582,-0.0261717,0.0242841,-0.100073,0.00772071,-0.0251361,0.0354702,-0.0125376,0.0182671,-0.0760591,0.00289068,-0.00539165,-0.00770354,-0.0902549,-0.0522345,-0.0562131,0.013272,0.0114084,-0.0708227,0.116633,-0.108323,0.0698193
0.000402862,0.00790172,0.0329072,0.0402686,0.0424094,0.0131657,-0.0182417,-0.0193427,0.0095367,0.0403325,0.0602573,0.0635152,0.0730563,0.0596477,0.0367988,0.0207718,0.00894425,-0.00224686,-0.0515256,-0.10298,-0.1619,-0.210443,-0.253975,-0.260299,-0.236804,-0.205964,-0.19028,-0.188157,-0.191573,-0.194003,-0.187704
-0.0169674,0.0420754,-0.0283007,0.0098999,-0.00171777,0.0328944,-0.0162149,-0.0132525,0.00346032,0.0137956,-0.0423185,0.0449163,0.0312635,-0.0158884,8.14261e-05,0.0578677,-0.0661489,0.00776508,-0.0494034,0.028475,4.80042e-05,0.0372626,-0.0382788,0.00411816,-0.0104398,-0.0157628,-0.116923,-0.0203957,0.104111,0.104281,-0.0332009
0.0285833,-0.0409979,0.0141353,-0.0263307,-0.0308394,0.0766266,0.0491946,0.163888,-0.0488383,0.0568615,0.067182,0.0405667,0.0211846,-0.0361493,-0.0382694,0.0708953,0.0481716,0.100995,-0.0249182,0.0466889,-0.096082,0.0449988,-0.0861463,0.00283872,-0.0348306,-0.0469611,-0.0293857,0.040807,0.0464565,-0.0758248,-0.0130197
0.117024,-0.0805942,0.0158306,0.0676788,-0.0178751,0.02644,-0.0452771,-0.0173249,-0.00833476,-0.028411,0.00759244,-0.0367168,0.0575731,-0.024425,0.0705462,0.0256949,0.0123318,-0.0399355,0.0362817,-0.0283845,0.0159574,0.00697575,-0.0264616,-0.0213608,-0.0374144,-0.0486113,-0.0289678,-0.0234661,-0.0271997,-0.0183652,0.00175458
-0.0212163,0.0946046,0.0490572,-0.00390837,-0.0122417,-0.0184726,0.0458352,-0.0390162,-0.0775997,-0.0140411,0.000464732,0.0129492,-0.0255948,-0.0332633,-0.0529209,0.0518363,-0.0718439,0.0021095,0.0414451,-0.0616461,0.0522813,0.0763471,-0.00444142,0.00142326,0.0834991,-0.0541657,-0.0584708,0.0227415,0.0329448,0.0385596,-0.0377865
-0.0168119,0.0368504,-0.0326903,0.0124418,-0.0505665,0.000175691,0.00565206,-0.0295601,-0.0321737,-0.0388869,-0.0156464,-0.0164335,0.00865317,0.0110381,-0.0250541,0.0294733,-0.0325929,0.0299365,0.0173228,0.105438,0.03138,0.00963531,-0.0738374,0.0775626,0.0145686,0.00840457,0.0019199,-0.0798395,0.0309163,-0.00587918,0.0657228
-0.0814661,0.0256569,-0.0578698,0.12366,-0.0453829,-0.126412,0.0481578,-0.00107489,-0.0413314,0.0148772,-0.0353908,0.055861,-0.0121126,0.0278226,0.0808912,-0.0190452,-0.000570507,-0.000700784,0.0842131,-0.0136048,-0.029001,-0.0724122,0.0683145,0.0593296,0.051872,-0.0320699,-0.0474238,0.0751875,-0.0292625,0.047186,0.0699945
0.0269412,0.0161968,-0.130969,0.0330736,0.0174634,0.0974553,0.00814189,0.00334417,0.0761332,-0.00419594,0.0503807,-0.0150417,0.0431412,0.00464273,0.0204505,0.0798589,0.0410173,-0.0347241,-0.0265246,-0.0352953,0.00260183,-0.0489356,-0.0133639,-0.0104371,0.0134421,0.0109747,0.0219053,-0.0746468,0.0783117,-0.0284862,-0.0210766
-0.070098,-0.117736,0.876895,0.0338939,-0.357808,-0.434411,-0.372722,-0.283751,-0.223659,-0.178686,-0.185695,-0.124898,0.00842713,0.0624861,0.0588122,0.0805799,0.047007,0.0496913,0.0488632,0.0429016,0.013694,0.0170899,0.00753161,0.0146438,-0.00850186,-0.0507732,-0.0838919,-0.10745,-0.119294,-0.123964,-0.112384
-0.0298259,-0.117178,-0.260134,0.477094,0.813952,0.210991,-0.100478,-0.177947,-0.180683,-0.12795,-0.0592049,-0.0193264,-0.0124602,0.00521272,0.0193725,-0.000417935,-0.0288541,-0.07145,-0.124103,-0.149821,-0.160561,-0.170391,-0.189346,-0.226493,-0.2675,-0.291593,-0.294212,-0.270044,-0.251982,-0.237793,-0.234457
0.112769,-0.0323107,0.130459,0.0708566,-0.0118247,-0.0273874,0.0307713,0.0894376,0.0386785,0.0436862,0.03529,0.00202669,-0.0103527,-0.0190843,-0.0567961,-0.0441924,-0.024397,0.019004,0.0349711,0.0645547,0.0398181,0.0169815,-0.0112128,-0.0368718,-0.105009,-0.161125,-0.185499,-0.178599,-0.191405,-0.177846,-0.167602
-0.0283437,0.231762,-0.0808594,0.0556542,0.0142664,0.053398,-0.00371484,0.0232769,0.020054,-0.0831343,-0.00720171,-0.0261039,-0.0630127,-0.0080549,-0.00579171,-0.0711281,0.0181804,0.0431232,0.0188445,0.013921,0.0073685,-0.0133892,-0.0156897,-0.0265269,-0.0506347,-0.0357963,-0.0186189,0.0100456,0.0154976,0.0155177,-0.0109506
-0.00579231,-0.0111734,0.00655448,0.0316312,0.0466794,-0.0314909,-0.203365,-0.330971,-0.30771,-0.0646855,0.393607,0.750337,0.722562,0.353064,0.00719571,-0.190954,-0.2218,-0.139506,-0.0326535,-0.0147374,-0.0269522,-0.0403135,-0.0138018,0.0084977,0.0483399,0.0811129,0.108514,0.125921,0.126883,0.135681,0.135644
0.0164402,-0.0645789,-0.0251441,0.0149585,-0.0222413,0.0435058,-0.0289617,-0.0305269,-0.0643241,0.0759681,-0.0479812,0.0122609,-0.0582934,0.0191328,0.0134756,0.034543,0.0620991,-0.0487937,0.0170797,0.0588811,0.0628567,-0.0440556,-0.035817,0.0321887,0.0460595,-0.0516213,-0.000681825,0.0907697,-0.0356807,-0.0285355,-0.00275369
-0.0649301,-0.0701332,0.064868,0.0761024,0.0194262,0.0423027,0.00597809,0.0172299,0.0600312,-0.0354679,0.0163459,-0.0509461,0.0400608,0.0414695,0.0124648,0.129897,-0.0112102,0.046815,-0.0671791,-0.0107273,-0.01566,0.021608,-0.00526881,0.0606051,0.056225,0.0704732,-0.0418221,0.055677,0.0317474,-0.0307691,-0.0285359
-0.0832346,0.0122722,-0.000339611,0.0160153,-0.0987326,0.106766,-0.0341595,-0.000240298,0.0519087,0.0154867,-0.0190378,0.0289541,-0.0193349,0.00928311,-0.0289727,-0.04051,0.0378699,-0.0360246,0.0325839,0.0454112,0.0703754,0.0718261,-0.00728143,-0.0577285,0.0110722,0.0333393,-0.0368023,0.014992,0.0573196,-0.0483345,-0.0278016
-0.026442,0.20067,0.235025,0.0419361,-0.119311,-0.145817,-0.0844232,-0.0172785,0.046061,0.0463795,0.0387622,0.0280766,0.0226416,-0.00480971,-0.0107176,0.00580606,-0.00326621,-0.00719802,0.00943315,-0.00389889,-0.00377184,0.00420094,0.0235681,0.0225887,0.0295954,0.0478402,0.0467983,0.05763,0.0607577,0.060207,0.0538274
-0.0049959,-0.00389535,0.0236113,0.0417101,0.069276,0.0282795,-0.00259457,-0.0240892,-0.044335,-0.0109406,0.104409,0.291474,0.492455,0.666647,0.770701,0.766023,0.666549,0.454286,0.288571,0.287709,0.327168,0.312377,0.24792,0.186765,0.146197,0.115438,0.0882144,0.0579819,0.0363408,0.0175623,0.0121224
0.00100504,0.0102878,-0.0148395,0.0653817,0.0636619,0.0433671,-0.00272866,-0.0554235,-0.0739508,-0.0703166,-0.033461,0.0440327,0.169373,0.283973,0.32632,0.347069,0.411481,0.555632,0.66763,0.655578,0.555071,0.393128,0.277386,0.179325,0.086348,0.00125393,-0.0624012,-0.0820302,-0.0697033,-0.0527928,-0.0503102
0.0198909,-0.0335076,0.146323,-0.0406156,0.00437921,-0.0706212,0.0207344,-0.0175842,0.0275735,0.0524408,0.0351029,0.01943,0.00701429,-0.00689464,-0.0290111,-0.0232614,-0.110513,-0.00152246,0.00310515,-0.0310676,-0.0405558,-0.0152792,-0.0403491,0.00958892,0.0270269,0.0437561,-0.0306621,0.0190812,-0.0839356,-0.0158465,-0.0140568
-0.00955664,-0.0639514,0.0485118,0.214666,0.02845,-0.0612225,0.0414333,0.127608,0.199409,0.179984,0.152712,0.0677727,0.0215299,-0.0090903,-0.018692,-0.00599323,0.00621446,-0.00979352,-0.000484631,-0.0050748,-0.00173333,-0.0236362,-0.0406537,-0.0344207,-0.0423433,-0.0462017,-0.0513677,-0.0571803,-0.0633947,-0.0629038,-0.0532056
0.0228935,-0.00433512,-0.0104544,0.00492121,-0.0346693,-0.016607,0.0876563,-0.00418179,0.0431192,0.0179185,0.0169143,-0.0421356,-0.00603354,-0.0542329,-0.0352972,0.00217966,0.11479,-0.0554129,0.0181344,0.00489531,-0.0769211,0.0789868,-0.0300136,-0.00460327,-0.030083,0.000302439,-0.0390867,0.0497294,0.0440962,-0.0470539,0.0163227
0.0204119,-0.0240996,-0.0629472,-0.00694986,0.0190904,0.0542054,0.0223619,-0.00479978,-0.035596,-0.026434,-0.0190865,-0.0726088,0.017486,0.0267101,-0.0444037,0.0494727,-0.00552534,-0.0058728,-0.0522397,-0.0366226,-0.00203662,0.0449739,-0.0663671,-0.0551927,-0.094149,0.00406471,0.011587,0.0912942,0.00464492,0.0275758,-0.000470986
-0.0550984,-0.0214833,-0.153179,-0.00986572,0.194668,0.560943,0.351078,0.116464,-0.0428211,-0.0857044,-0.11158,-0.131629,-0.0778985,-0.0753783,-0.0202376,-0.0135633,-0.0150903,-0.064361,-0.00846053,-0.0178102,-0.0732293,-0.0362087,-0.00792578,-0.020373,-0.00783159,-0.0413063,-0.0379458,-0.0415553,-0.0487055,-0.050715,-0.0682596
-0.0085757,-0.0146193,-0.00875255,-0.00303362,-0.00225365,-0.025508,-0.0361255,0.00276915,-0.036258,-0.0338161,0.0568845,0.0146513,0.0370638,0.0154787,0.0059844,-0.0449816,-0.0723699,-0.0450278,0.0472372,0.138894,0.183461,0.100794,-0.0236511,-0.0550425,-0.0179767,0.034584,0.0797769,0.084172,0.0723209,0.0817711,0.075869
0.0627127,0.0332127,0.0523804,0.0493995,0.0679807,0.0257184,0.0328356,0.060009,0.0280893,0.0629158,0.00730087,-0.0226441,-0.00298218,-0.0415974,0.0548577,-0.0599894,0.0385736,0.0151556,0.00473297,0.0732202,0.0210035,-0.0313248,0.0273804,0.0522838,0.0488586,-0.0581193,0.0456014,0.0209701,0.0384222,0.0273832,0.0140746
-0.00218956,0.0301876,-0.0187418,0.0372402,-0.0616151,-0.00436572,0.0208777,0.0501174,0.0677419,-0.0114344,0.0053609,-0.0360276,-0.034323,0.0282314,-0.0652164,0.00348465,-0.00299952,-0.0118762,-0.0236953,-0.000587262,-0.0277751,-0.0122019,0.00358308,0.0930228,-0.00948189,0.0342785,-0.0483658,-0.0935248,0.00367274,-0.0207735,0.103415
0.00540294,-0.0830563,-0.0217677,0.0633552,-0.100632,-0.0197458,0.0176818,-0.0080468,-0.0292722,0.0358075,0.063527,0.067868,-0.0341331,0.0709951,-0.0170188,-0.0367177,-0.0519867,-0.0832744,0.0414316,0.0515531,-0.0303844,-0.041736,0.0437844,0.028943,-0.0480371,0.0431942,0.0581023,0.120576,0.0570644,0.0387055,-0.02077
-0.0823389,-0.0405904,-0.0226732,0.0581961,-0.0903489,0.0127302,-0.0167302,-0.0390777,-0.0410068,0.0110367,-0.000124624,0.0704471,0.0265629,-0.0266127,0.00933962,-0.040734,0.0649608,-0.0400291,-0.0366669,0.036511,-0.0547424,-0.0293358,0.0659411,0.0506557,-0.039059,0.0605205,0.0494922,-0.05367,-0.0185343,-0.0728334,-0.0428851
-0.137881,-0.00764142,0.0580538,0.0906038,-0.110615,0.00713142,-0.00477722,-0.0100475,-0.0160397,-0.0030636,0.00980916,-0.0671237,-0.00352651,0.00787782,-0.0556777,0.0336566,-0.0654672,0.0361965,-0.0175285,0.0316035,0.025993,-0.0256324,0.0269763,-0.123682,0.00516414,-0.0784744,-0.0787702,0.0542756,0.0442336,-0.0592431,-0.0478084
0.0685523,-0.0183781,0.100794,0.0523738,0.0539071,-0.0439165,0.0348745,0.0257088,0.0170767,0.00102694,-0.0370909,0.0808008,-0.00284528,0.0235769,-0.0820805,0.0360482,0.0208508,-0.0186249,0.0565201,0.0509162,0.0609804,0.0283436,0.0681023,0.0744541,0.166402,0.095831,0.151972,0.0278485,0.156915,0.0211826,0.036977
-0.0168424,0.00916878,0.0427083,0.0682008,0.00884556,0.0107684,0.0862422,-0.0318868,-0.00537466,-0.0912991,0.0381221,-0.111156,-0.0124401,-0.0328848,0.0481687,0.00385687,-0.0195177,-0.00981864,0.0236799,0.0551329,-0.0382259,-0.0966454,-0.11998,-0.0361386,0.0290883,-0.0366852,0.00951432,0.0206091,0.0534617,-0.0531708,-0.0269376
-0.00399687,0.0120796,-0.0758523,-0.0072322,0.191598,0.186321,0.0371672,-0.139251,-0.225932,-0.17912,-0.120296,-0.0369798,0.0115869,0.0303399,0.0305449,-0.0578576,0.0157781,-0.0353109,-0.00674316,-0.00393798,0.0122346,0.00852653,0.0456885,0.0747777,0.0927957,0.144135,0.108678,0.0752324,0.0626282,0.0505384,0.0658909
0.0117645,-0.0731737,0.148606,-0.0118149,0.00959782,-0.0353865,-0.031795,0.0179569,0.0521136,-0.0616563,-0.033866,-0.0707044,-0.0551119,-0.0528165,0.0139755,-0.0519122,0.0131767,0.0890212,-0.0235507,-0.0436029,0.0110247,-0.0548039,0.0566531,-0.0635231,0.00134002,0.08863,-0.004822,0.0318522,-0.00964236,-0.00717992,-0.0204055
0.0620754,-0.0468902,-0.0063885,-0.0562194,0.0491681,0.0161819,0.024235,-0.0338294,0.0429757,0.0142927,-0.0437015,0.0549472,0.0317314,0.0555241,0.0976619,-0.0310609,0.0398537,0.0221067,0.0552029,-0.0247748,-0.0261309,0.0464023,0.0489574,0.0380991,-0.0237932,0.0615673,-0.0526228,0.0306265,-0.0134585,-0.052574,-0.0346107
-0.00146178,-0.00548285,-0.00075259,0.00750732,0.0077397,0.0132416,0.00583616,-0.00188013,0.010013,-0.00793828,0.00039872,0.00618355,-0.00437477,-0.011433,-0.00227543,-0.00817799,-0.0237406,-0.0247332,-0.0546278,-0.123554,-0.188735,-0.238555,-0.282589,-0.269535,-0.206229,-0.163092,-0.157651,-0.143993,-0.135025,-0.11918,-0.114861
-0.0230737,0.0554412,0.102052,-0.0153117,0.0392668,-0.0134849,-0.0539366,0.0170914,0.0260259,0.0718301,-0.0466848,-0.00524103,-0.0402376,0.0762914,-0.0141059,0.00930597,0.0996939,-0.0477451,0.0470606,0.0567169,-0.0257888,0.0130038,-0.0138234,-0.0667678,0.086052,-0.0141626,0.0485669,-0.0528432,0.0138836,-0.0306001,-0.0899677
0.0233579,-0.0505993,-0.0296666,0.0778554,-0.00796105,-0.00500518,0.00926461,0.103697,0.0225267,0.0360068,-0.0106212,0.0292442,-0.0410688,-0.0339314,-0.0261554,-0.0366049,0.00837979,0.042793,-0.0232276,-0.0806821,0.0720396,0.0457248,-0.00143062,0.0297419,0.0456037,0.0455513,0.0334994,0.0994263,0.0125526,0.00511192,0.0621676
-0.00562111,0.00644758,0.0105796,-0.00472013,0.011277,0.0304445,-0.00631323,0.00890178,0.0354457,0.0227409,-0.013605,0.000128511,0.00234932,0.0150207,0.00467913,-0.00580953,-0.0117988,0.000944748,-0.00642017,0.0171433,0.060866,0.0795888,0.111684,0.159283,0.197999,0.210411,0.229949,0.231975,0.219067,0.206169,0.215793
-0.00450931,0.0288545,-0.00699799,-0.007099,-0.0159491,-0.00271342,0.0314441,0.0242227,0.00185441,-0.0357615,-0.0866253,-0.0706005,-0.0521434,0.00575107,0.0486342,0.0696291,0.0843477,0.0521384,0.0322255,0.0663854,0.115564,0.159123,0.224616,0.321227,0.403209,0.480149,0.510475,0.515055,0.491245,0.460802,0.465934
0.000967078,0.00181133,-0.00758154,0.0107503,0.0135534,-0.0143988,-0.00885184,-0.0199725,-0.00530907,-0.0555563,-0.0518892,-0.0694198,-0.0207792,0.0265038,0.0069685,-0.0487182,-0.000158672,-0.0413758,-0.0897603,0.0159663,0.117045,0.152092,0.164593,0.140582,0.0835921,-0.00441471,-0.0420313,-0.0372151,-0.0554345,-0.0348802,-0.0114056
-0.0129466,-0.0114079,0.167299,-0.202676,-0.163008,-0.0771212,0.00838637,0.0369757,0.0709205,0.0494031,0.0542815,0.0438354,0.0107814,-0.00605468,-0.0104019,-0.0264851,-0.0219013,-0.0085964,-0.0117368,-0.0174666,-0.00532977,-0.004325,-0.00191898,-0.00360491,0.00899776,0.0194368,0.0310045,0.038857,0.0410333,0.0521128,0.0454042
0.00311582,-0.0338563,-0.0124139,-0.011878,0.0123703,-0.00646285,-0.0244591,-0.0875858,0.00750203,-0.00723696,-0.030996,-0.00360359,0.0180892,0.00824207,0.0691851,0.0518692,0.0157587,-0.00235013,0.0167331,-0.00261037,-0.0379176,0.0319231,0.0469044,0.0155939,0.0556536,0.0392909,0.0291744,-0.0390283,-0.0345465,0.0345887,0.0659695
0.0572427,-0.0323655,0.0130241,0.0564849,0.0175964,-0.0577809,0.0103833,-0.049041,-0.0736879,-0.0673834,0.0354195,-0.0929267,0.0244896,0.0886293,-0.0670862,-0.0131215,0.0206529,-0.0747487,-0.0890917,0.0685031,0.00230002,-0.0124412,0.0697332,0.00302924,0.024342,-0.0300464,0.0230857,-0.0136805,0.0151587,-0.028321,-0.0328154
0.0547386,-0.0590052,0.00595193,-0.0874743,0.0581253,-0.0346236,-0.0278984,0.115329,0.00622898,0.100585,-0.0132869,0.00823757,-0.0155306,0.0957066,0.0297702,-0.0239391,-0.0794263,-0.0838767,-0.021464,-0.0137543,0.0506557,0.0270527,-0.115866,0.0620537,0.0421076,-0.0329839,-0.0359977,-0.0354551,-0.000515136,0.00524183,0.0211773
-0.00252799,-0.0192386,0.000446638,0.03338,-0.0410308,0.0118597,-0.0138677,-0.0366087,0.0837455,0.0290253,-0.026248,-0.0627511,-0.094731,-0.00957726,0.037688,-0.0607999,-0.00575453,0.108738,0.0147958,0.0305383,0.0321581,-0.0406908,-0.00174719,0.0899337,0.128936,0.144832,0.103598,0.0672861,0.0401915,0.105075,0.153341
-0.00310605,0.0180808,-0.0124602,0.0266084,-0.0413587,-0.0148653,0.00598705,0.021079,0.0156209,0.0023745,0.0256543,-0.0187768,-0.0744509,-0.0772552,-0.0536133,0.00332692,-0.0493561,-0.0196337,-0.00265277,-0.144543,-0.336948,-0.592254,-0.625125,-0.507327,-0.320337,-0.218238,-0.226475,-0.257142,-0.281584,-0.246823,-0.283392
-0.0372152,-0.0717938,-0.0705878,0.00693558,0.0409028,-0.00189349,-0.0955548,0.0459925,0.0632138,-0.00628109,0.0837409,0.0541549,0.127365,-0.153649,0.0213148,0.0850749,0.0590589,-0.0154202,-0.080819,0.0283178,0.00184402,-0.00925815,0.0199429,0.0775979,-0.011531,0.0584666,0.0612233,0.0390296,-0.0888407,-0.0614377,-0.0268498
-0.00991113,-0.0834808,-0.0661697,0.0917775,0.377301,0.611801,0.644664,0.513858,0.328338,0.152343,0.0274923,-0.0354962,-0.0296138,-0.0244336,-0.0224613,-0.0202108,0.00307115,0.0225465,0.0206925,0.0111653,-0.00984557,-0.0311989,-0.0323312,-0.0228727,-0.0262454,-0.0337256,-0.0352813,-0.0250062,-0.0141667,-0.0071663,-0.00718977
-0.0298873,0.0444486,0.0539601,0.0222775,-0.0314509,-0.0572631,0.0418782,-0.0169633,0.0278353,-0.0939182,0.0172365,-0.0246382,-0.0492795,0.0397682,-0.0949732,-0.0357657,-0.018711,-0.00974912,-0.0541483,0.00158653,-0.0663774,0.0264075,0.0082082,0.0205397,-0.0287372,0.0384727,-0.0126909,-0.0870764,0.028206,-0.0020414,-0.0483553
-0.0284133,0.00681247,-0.0162109,0.05756,0.00547713,0.074082,0.106252,-0.0610795,-0.512584,-1.04601,-1.53103,-1.75338,-1.6039,-1.07411,-0.226325,0.728159,1.40753,1.53543,1.18049,0.595678,0.159576,-0.0453013,-0.0887692,-0.09023,-0.0696049,-0.0355929,0.0141699,0.0905343,0.109227,0.118209,0.133225
-0.0154237,-0.0457623,-0.615067,0.835363,1.33343,0.158028,-0.265029,-0.295282,-0.234554,-0.196151,-0.132556,-0.091574,-0.0375612,-0.00356099,0.0281769,0.0056982,0.00595008,0.0108476,0.0229601,0.0348512,0.0517888,0.0434204,0.0450541,0.0336684,0.0290437,0.0169442,0.00924086,0.0282128,0.013967,0.0191369,0.0197834
-0.00637072,-0.000438574,7.873e-05,-0.0158737,0.0309072,0.0111011,0.0157145,0.0433628,0.0710841,0.0375087,-0.056352,-0.136017,-0.14784,-0.159321,-0.0601231,0.0740325,0.255252,0.377517,0.26891,-0.132999,-0.618895,-0.956685,-0.871964,-0.243686,0.595509,1.03832,1.04114,0.862011,0.690459,0.631792,0.62287
0.078092,-0.0195777,0.0146824,-0.0112029,0.0607267,0.0645612,-0.0147864,0.00343154,-0.000423921,0.0978439,0.0948458,0.0899147,0.0347589,-0.102482,0.0201241,-0.00184973,0.071756,0.0287895,-0.0707536,0.0138764,0.0153151,0.0142882,-0.0186868,0.0360617,0.0118602,-0.00507751,-0.0188421,0.101948,0.0293161,-0.00896377,-0.00757332
-0.0231932,-0.0779806,-0.0457594,0.00415678,-0.0549039,0.0186177,0.00365393,0.045437,0.0328688,0.0600667,-0.0129634,-0.037771,-0.0340754,-0.0648162,0.0583061,0.129047,-0.0299977,0.0346947,0.00550875,-0.0127635,-0.0289401,0.0203153,0.08958,0.0179969,0.0889334,-0.0139264,0.0774505,0.00664494,-0.0242788,0.0212745,0.0431906
0.000904851,-0.00965858,0.0112396,0.00931193,0.0075271,0.0318514,0.0294207,-0.0306333,-0.0914275,-0.0837078,-0.0844986,-0.116149,-0.0235995,0.156998,0.269026,0.195568,0.0645482,-0.0617776,-0.0786455,0.020258,0.126169,0.139871,0.0777258,0.0306831,0.0167169,0.00657028,0.0082167,0.0226383,-0.0164807,-0.0262357,-0.0338461
0.0276514,0.0649047,-0.029573,-0.00791598,0.0134243,-0.0497369,0.016006,-0.0370235,0.0167505,0.0279801,-0.036863,-0.0117941,-0.0334019,0.0133328,-0.011534,-0.0933469,-0.0929346,0.0244306,-0.0106014,-0.047883,-0.0379422,0.0172707,-0.0494225,-0.0386462,-0.0311268,-0.00393726,-0.0319438,0.10098,0.0687475,-0.00239008,-0.025933
0.00951276,-0.00959746,-0.0212256,-0.0645173,-0.103596,-0.13893,-0.166551,-0.162816,-0.112449,-0.104291,-0.0652759,0.0543488,0.258566,0.529687,0.750272,0.847277,0.809151,0.703549,0.476169,0.242554,0.159581,0.193276,0.214435,0.182541,0.153907,0.130354,0.114011,0.116651,0.122799,0.131035,0.133313
0.0261542,0.0245642,-0.0701145,0.0847668,-0.0253598,0.0143188,-0.00872257,-0.0556941,-0.0124688,0.0267603,0.0365954,-0.0124577,0.0567843,-0.0589575,0.072977,0.0097449,-0.0313316,-0.000913131,-0.0478258,-0.0141199,0.0758929,0.0243552,0.0879327,-0.0188863,-0.00538342,0.0205415,-0.0228309,-0.0741932,0.108577,0.00635829,0.028225
0.0121091,0.0168178,0.0327907,0.0631818,-0.0653925,0.00585624,0.029668,0.0105881,0.00168326,-0.0244582,0.0984919,0.0444876,-0.0547219,-0.0171008,-0.0568584,0.0172126,-0.09339,-0.0392419,0.0152429,0.0717039,-0.0347605,-0.0920738,0.0148346,-0.0262991,-0.0126669,-0.0568748,0.0149176,0.0591293,-0.106464,0.0437884,0.0701056
0.000209875,0.0010504,0.000196755,0.0126971,-0.00937761,-0.00835677,0.0168503,-0.0205562,0.00999296,0.0168602,-0.0168822,0.0244885,-0.0043943,-0.0141505,-0.0563424,-0.000485855,0.0020519,-0.0166127,-0.0593566,-0.0481796,-0.0521021,-0.0651739,-0.263595,-0.435451,-0.46719,-0.347127,-0.262593,-0.292765,-0.318952,-0.346963,-0.34561
0.0224742,-0.0259131,0.350039,0.664558,0.604772,0.376784,0.127695,-0.0900558,-0.147493,-0.163216,-0.138402,-0.0954477,-0.0741012,-0.0301454,-0.0116553,0.00568535,0.0120584,0.0121515,-0.0101752,0.0204347,0.0347687,0.0463663,0.0490756,0.0461849,0.0589791,0.0604797,0.0654438,0.0528814,0.0470889,0.042977,0.0394143
-0.0346442,-0.00351568,-0.00809082,0.160002,0.059543,-0.0470304,0.010617,-0.0749744,0.0070219,-0.00926912,0.0366628,-0.0623125,0.00881439,0.0133246,-0.0428816,-0.07606,0.0239817,0.00112356,0.0132714,0.0041188,-0.0324441,-0.0586855,-0.0450944,-0.0806213,0.0476237,-0.00368066,-0.00405015,0.0759375,0.0237874,0.0322761,0.00826817
0.0159195,0.00638713,-0.0567484,0.0960869,0.318855,0.452943,0.531935,0.572463,0.487984,0.361652,0.208918,0.104444,0.0266767,0.00617195,0.0173437,0.046046,0.0201829,-0.0310968,-0.06116,-0.0861401,-0.106048,-0.121306,-0.0832678,-0.0117327,0.0350522,0.0673674,0.0941793,0.106738,0.107132,0.0932702,0.0783586
0.0274905,0.0538731,0.057633,-0.0911587,-0.016021,0.0279525,0.0127063,-0.0353626,0.0493127,0.0936317,0.10784,-0.0936222,0.0599474,0.0778372,0.00813515,0.0501033,-0.085278,0.0450759,-0.0789741,0.0530371,0.0963255,0.033089,-0.0481171,-0.0092486,-0.0620053,-0.00264441,-0.0267808,-0.0431325,0.0568226,-0.0402803,-0.0430112
0.0163976,-0.0339128,0.0398991,0.0494301,-0.0365981,-0.0432777,0.00345408,0.0211879,0.0235381,-0.0180085,-0.00883828,-0.0709132,-0.0444398,0.00786906,-0.0298918,0.0396781,0.096882,0.00878793,0.0172689,0.00188697,0.00969345,0.0185719,-0.00819184,0.00969878,-0.0619784,-0.0316531,0.00705375,-0.0339358,0.0590724,0.0378399,0.0291878
-0.00646699,0.00324427,0.00895578,0.0194497,-0.0257579,-0.131429,-0.157885,-0.0625016,0.213666,0.31015,0.230753,0.0504791,0.0123854,-0.0623523,-0.0886675,-0.104734,-0.0474326,-0.0496715,-0.0265708,-0.00464123,-0.0172311,-0.00530721,0.00242275,0.0277665,0.0609221,0.099794,0.0911991,0.0716448,0.0892241,0.100734,0.074151
-0.00980104,0.0663518,-0.021667,0.0204998,-0.0412727,0.0845319,-0.0423636,0.0792607,0.00602235,0.0507951,-0.00958767,-0.0622636,0.0451212,-0.0460099,0.000449453,0.0262613,0.0228372,-0.0112315,0.0340367,-0.0205115,0.0252741,-0.0142884,0.038317,-0.0203239,0.0304804,0.0443377,0.062657,0.0131911,0.0253793,-0.00976429,0.0645493
-0.00637922,0.032365,0.0105399,-0.017084,-0.318269,-0.796551,-1.23012,-1.24705,-0.719813,0.162728,1.03301,1.57343,1.57569,1.19457,0.652994,0.135557,-0.214359,-0.332277,-0.31755,-0.260631,-0.211399,-0.194298,-0.144949,-0.126975,-0.130659,-0.149459,-0.192548,-0.220323,-0.250564,-0.251835,-0.232314
0.00365634,0.00179421,0.00866749,-0.0054004,-0.0165186,-0.0164725,-0.00599539,-0.0185387,-0.0385562,-0.0442395,-0.0405703,-0.0285037,-0.0311838,0.00992746,0.0981197,0.257645,0.425008,0.528036,0.55741,0.593997,0.632219,0.686109,0.699855,0.68203,0.625094,0.584249,0.576596,0.588216,0.622855,0.624598,0.624087
0.00891749,-0.00339257,0.0283395,-0.0106662,-0.0732541,0.0200299,-0.0172054,0.00872923,-0.0784939,-0.074747,-0.0521973,0.00398688,0.00530801,0.0227741,0.0259429,-0.00302591,-0.00107372,0.00587545,-0.0213285,0.0253931,0.0170208,0.0346233,0.0396925,0.0617038,0.0983995,0.0797218,0.0750434,0.0807848,0.0659904,0.0504833,0.0651604
-0.0381422,0.184564,-0.191142,-0.105923,-0.0298857,0.0277807,0.0225685,-0.0139133,0.0416701,0.0103841,-0.0273988,-0.00834274,0.00967885,-0.028061,-0.0328359,0.0249327,0.0476883,0.0656444,0.0629042,0.0217753,0.00756109,-0.0291365,-0.0427682,-0.0525124,-0.0277473,-0.0404855,-0.0313241,-0.027052,0.00791956,0.00210045,-0.019533
0.0689867,-0.0275561,0.0124931,0.00516975,-0.0204771,0.050403,-0.0263597,0.0776004,0.0185156,0.0112191,0.107605,-0.0337055,-0.00248696,0.0976659,0.0735699,0.100226,-0.0270762,0.0303589,0.0456365,0.00650581,-0.0285536,-0.0675714,0.0504341,0.0539626,0.0420589,-0.0128592,0.0221111,0.00256994,-0.0292173,-0.0343021,-0.0836605
0.00156115,0.0205449,0.131061,0.338313,0.409239,0.382568,0.216443,0.0760032,0.012923,0.0162606,-0.00490915,-0.00672198,-0.0177719,-0.0209519,0.0018521,-0.00367488,-0.0100364,-0.0119758,-0.00977123,-0.0161191,-0.0113869,-0.0134905,-0.00824095,-0.00555999,-0.0131626,-0.0237813,-0.0323859,-0.0358869,-0.0310445,-0.0328647,-0.0304307
-0.00958584,-0.0110689,-0.0805357,-0.040374,0.0495118,0.0172027,-0.0489299,0.0121526,0.0590054,0.0220616,-0.00734743,0.00423528,-0.00127376,0.00549158,0.0444729,0.00647331,-0.0577447,0.163605,-0.00729424,-0.0560603,-0.00958731,-0.0827708,-0.0491212,0.0191629,-0.0526104,-0.0162984,0.0119831,-0.0252439,-0.0097102,-0.000902878,0.0147464
-0.0602353,0.0359726,0.0272598,-0.039277,-0.0806257,0.0840403,0.0774016,0.0159832,-0.044333,-0.0205904,0.00768461,-0.0356855,-0.0260142,-0.0012048,-0.0407729,0.0491647,-0.0467876,0.0295203,-0.0314304,-0.0477425,-0.108072,-0.0256288,-0.0573359,-0.015652,0.0199536,-0.0720019,-0.0659555,-0.0158715,0.041845,0.063435,0.0398318
-0.0058463,-0.0104129,0.0409875,-0.0151127,-0.0106659,0.0533971,0.164267,0.28577,0.290284,0.168213,0.0532761,-0.0471407,-0.0731463,-0.0716061,0.00104825,0.051208,0.0586245,0.0484473,0.037436,-0.0210052,-0.0179146,0.0180383,0.0110825,0.00134186,0.0422097,0.0887639,0.104699,0.107476,0.0781107,0.0844392,0.0890434
0.0324599,-0.0285269,-0.062089,0.0913568,-0.0186153,0.0185661,-0.0063671,0.0114271,0.0639062,0.0108478,0.0354962,-0.0801761,-0.0116949,-0.0946463,-0.0291572,-0.0599134,0.00236544,0.0148508,0.191151,-0.00900212,0.0129818,-0.0610264,0.0284586,0.0870481,-0.0360065,0.0239407,0.0260592,0.0632911,0.0897389,0.0248125,0.053001
-0.00562702,-0.0106477,-0.013263,-0.024346,-0.0262584,0.0479195,0.108439,0.170584,0.223748,0.187324,0.0584129,-0.168698,-0.478796,-0.822195,-0.97664,-0.950155,-0.517023,0.381981,1.15848,1.24152,0.867372,0.415015,0.171038,0.0686394,0.0430263,-0.0057875,-0.0474453,-0.0456023,-0.073321,-0.060826,-0.0562037
-0.0157608,0.054571,0.0773685,0.0905193,0.059737,0.0142822,0.0473884,0.0276099,0.0457539,0.0369583,-0.0203614,0.00683738,-0.00482047,-0.0336226,-0.0317024,0.142081,0.0167997,0.000910499,-0.0303591,-0.0800771,0.00115795,0.142435,-0.0443217,0.0463772,0.0089872,-0.0418444,0.0424712,0.0369455,-0.0687482,-0.019846,0.00936623
0.00601107,-0.0170088,-0.00757013,-0.0414529,-0.0374925,0.037151,0.0324211,0.0454514,0.0744175,0.0743627,0.000769758,-0.107027,-0.230819,-0.361178,-0.334147,-0.0932616,0.280861,0.460655,0.398663,0.303537,0.319486,0.318927,0.185406,-0.0248073,-0.255407,-0.471104,-0.537793,-0.456366,-0.411211,-0.384384,-0.377012
0.0254409,-0.00106276,0.0654974,0.0142848,0.0344151,0.0470695,0.0319924,0.0786284,0.0540796,0.0583036,0.047477,0.00182779,0.0847137,0.0124491,0.0406474,-0.0181578,-0.0645348,0.0331948,0.0310044,0.0505976,0.104063,0.0593794,-0.0368995,0.000586715,-0.0628031,0.0592081,0.0435934,0.0585196,0.0770707,0.0487717,-0.0140079
-0.0544186,-0.0308253,-0.0204799,-0.0196419,0.0405166,-0.056581,-0.013553,0.0436675,0.0650019,0.00889943,-0.00447326,-0.10194,0.0351335,-0.00782993,0.0325026,-0.0158218,0.103213,0.0443422,0.0629907,0.0310547,-0.0457398,-0.0529089,0.047744,0.0272814,-0.0738307,0.129863,0.11455,0.0230481,-0.123843,-0.0135294,0.0246316
0.0034362,-0.0305175,-0.00527537,0.0643208,0.00377913,0.0467034,0.0394847,0.096092,0.0775245,0.0530886,0.0504885,0.0152845,0.00944886,0.0174942,0.0104892,-0.0155549,0.0316189,0.0198357,0.0058139,0.027585,0.0133609,-0.0194937,-0.0247449,-0.0108625,0.00127728,0.00898239,-0.0024887,-0.00694322,0.0154367,-0.010667,-0.00185859
-0.0995476,-0.0805438,-0.0687919,-0.0458217,-0.0505299,0.00474966,0.0700612,-0.0977263,-0.0515789,0.0194171,-0.0706681,0.0485765,0.0058426,-0.00931645,0.076384,-0.0622925,-0.083081,0.0691899,-0.0337981,-0.0187676,-0.0532293,0.029706,-0.0461412,-0.0959408,0.101363,0.0194753,0.0138418,0.0535502,0.0347424,-0.0225389,0.0167674
-0.000367086,-0.0143575,-0.0804702,0.0542059,0.194897,0.194252,-0.0381264,-0.126398,-0.157286,-0.182087,-0.154833,-0.140589,-0.0556126,-0.00594954,-0.0317433,-0.00258925,-0.0566065,0.0307591,0.0160637,0.0327823,0.00524469,0.0505693,0.0342244,0.0131472,-0.0223367,-0.0843949,-0.0584424,-0.0280027,0.00776477,0.0178079,0.0038999
-0.106438,-0.0158958,-0.0804336,-0.0410429,0.0459545,0.0516938,0.0886021,-0.0574807,0.00430085,-0.0356705,0.0276098,0.0690247,-0.0296787,-1.45521e-05,-0.0050406,-0.0307326,0.0170125,-0.0286061,0.0196705,0.0280476,-0.103636,0.0324634,0.0225262,-0.00541158,0.026977,-0.00673939,0.0181917,0.0254538,0.0178462,0.0031566,-0.0238311
0.000255286,-0.0493022,-0.215981,0.300061,0.539354,0.196371,-0.122224,-0.365779,-0.486462,-0.455165,-0.36969,-0.229738,-0.127517,-0.0784837,-0.0522158,-0.00233083,0.0262121,0.0190566,-0.0053632,0.00253059,0.0110902,0.012063,0.0160068,0.0319233,0.0394543,0.0447163,0.0383143,0.0216078,0.0135215,0.00895647,0.0062619
0.00943639,0.0302022,-0.0005429,-0.0442555,-0.0575553,-0.0118647,0.166897,0.38707,0.512271,0.535301,0.507261,0.469375,0.445628,0.430241,0.392864,0.333731,0.261467,0.199983,0.113928,0.0272014,-0.0280778,-0.0115116,0.0118833,0.0191731,0.0152808,0.0146318,0.0243355,0.0392415,0.0492575,0.0571338,0.0609787
-0.00073087,0.00486329,0.00881004,0.0133166,0.0344364,-0.0148846,-0.188375,-0.49813,-0.83093,-0.860436,-0.406053,0.343487,1.01934,1.25295,0.970769,0.384271,-0.086906,-0.221167,-0.17479,-0.132132,-0.119029,-0.138235,-0.147479,-0.152069,-0.171312,-0.211403,-0.246686,-0.263565,-0.266126,-0.25085,-0.247783
0.0145933,-0.0448458,-0.02084,0.0249564,0.116578,0.230887,0.261842,0.244525,0.160561,0.0535783,-0.00568478,-0.0474837,-0.0392234,-0.0167548,0.0316101,0.0535353,0.0580237,0.0558798,0.0336991,0.0281561,0.0477488,0.0633007,0.0248961,-0.0270535,-0.0438052,-0.0299801,-0.0122909,0.004091,0.00572317,0.00528577,0.00621229
-0.0837325,0.0246109,0.102905,0.101243,0.0271285,0.015115,0.0479988,-0.0189617,0.0894859,-0.0330177,-0.0538233,-0.0356913,-0.000145069,-0.0876394,-0.0525505,0.0346087,-0.0361236,0.0533091,0.00412559,-0.010184,0.0174071,-0.0345965,0.0231289,0.0488966,0.00688095,-0.0493651,0.00028357,-0.0377443,0.0166696,-0.0169164,0.0152539
0.00794691,0.0615094,0.0863407,0.0536118,0.00827311,0.0681579,0.0622312,0.0316099,0.0752513,0.138356,0.0094134,0.130978,-0.00675899,0.149014,-0.0366847,0.17097,0.0679572,0.0695087,0.0560527,0.0883182,0.00294492,-0.0575957,-0.061958,-0.0965416,-0.0353836,-0.0967707,-0.0335943,-0.0768944,-0.0263445,-0.00356956,0.0360366
-0.0308826,-0.10364,-0.130399,-0.0613349,0.0249527,0.112461,0.138344,0.133721,0.0986867,0.0343034,-0.00561653,-0.0187366,-0.00189193,0.00386163,0.0224631,0.0394318,0.0371045,0.0172198,0.0410952,0.063213,0.0666367,0.101121,0.106478,0.0775056,0.0703339,0.0531345,0.0922861,0.104066,0.0906989,0.102584,0.129798
-0.0481774,-0.0274217,-0.0274814,0.0957446,0.0268785,0.062952,0.0635885,-0.0679482,-0.0772075,0.0308711,-0.0146996,0.0304041,0.0544753,-0.0187362,-0.0596334,-0.0216671,0.00615268,-0.0292469,0.00026707,0.0303524,0.0859011,-0.0336451,-0.0564889,0.0275524,0.0338131,-0.0448072,-0.00209871,0.0143036,0.00310808,-0.0361105,-0.0643736
0.000649019,0.0347814,0.024874,0.00238558,-0.0197144,0.0212729,-0.00293152,0.0418681,0.0172802,-0.0100904,-0.0310025,-0.0534574,-0.0540373,0.0620004,-0.0217433,-0.0442963,0.0277047,-0.0405402,0.036269,0.037442,0.104785,-0.0177947,-0.0205914,-0.0238814,-0.0265325,-0.0128998,-0.00530982,0.0155467,0.0087757,-0.0315978,-0.00679284
0.0184353,0.00939053,0.103361,-0.0140773,-0.0823107,-0.0264658,0.0754169,0.0372094,-0.0469111,0.0161214,-0.0677922,0.0371236,-0.0412664,-0.0297447,0.091766,0.10453,0.0594585,0.0352787,-0.0334398,-0.0587552,0.0439657,0.0403044,0.0236656,0.0684355,0.0816332,0.0475371,0.0133831,0.0493113,-0.107486,0.0529227,-0.0266244
0.08716,-0.0144597,0.0605393,-0.0239854,-0.0157748,0.0637889,-0.0482088,0.022205,0.0231383,0.00436869,-0.00180782,-0.00231174,-0.0301414,0.0166432,0.0305796,0.054038,0.0337465,-0.026697,-0.0786237,-0.0778716,0.0107041,-0.0306959,-0.113588,-0.00971933,0.039556,-0.0298955,-0.0197457,-0.0328841,0.0605324,0.0500545,0.0166956
-0.00957913,-0.0175235,-0.0653937,-0.000482855,0.045712,-0.0330722,0.0029465,-0.0144449,-0.0449867,-0.0166746,0.0447903,0.068809,-0.0750554,0.000821642,-0.00988536,0.0135105,0.0296134,-0.0874775,0.0357431,-0.0733162,0.0652142,0.0166865,0.0666664,-0.0143921,0.099223,0.0298696,0.0510357,-0.00311654,0.0032569,-0.00984477,-0.036924
0.0265212,0.119229,0.0767018,0.166004,0.0947064,0.0602695,0.0957913,0.0824925,0.00683104,-0.0647416,0.0838793,0.05445,-0.041167,0.00249333,0.00225308,0.0238517,-0.0336033,0.0594465,0.0126532,0.0884893,0.0147411,-0.0181914,-0.0124547,0.112316,0.0105807,0.0304603,0.0271545,0.0698155,0.185008,0.0460234,0.0093528
0.0102372,0.0964136,0.0430184,0.0260512,0.0435277,0.00822054,0.0745485,-0.0288631,0.0801903,0.0810779,0.000760117,0.0195522,0.0264288,0.100312,0.0174996,0.0216218,0.142271,0.057926,0.0189659,0.0676576,0.0865977,0.0610846,0.0904207,-0.016711,-0.00689655,0.104776,-0.0120339,-0.00480258,0.0462603,0.0397425,0.0310043
0.00201109,-0.0226203,-0.267491,-0.160132,0.0182723,0.0982732,0.139344,0.11481,0.0699819,0.0233266,0.0192221,0.00757847,-0.0107811,-0.0137321,0.00565088,0.0112503,0.0291635,0.0239238,0.0309885,0.0325333,0.0474342,0.055907,0.0678449,0.06597,0.0654813,0.0690139,0.0754961,0.0833536,0.0796162,0.0767142,0.0744845
-0.0289669,0.0392014,-0.0128883,-0.0479418,-0.00993282,-0.0768458,0.00454197,0.0401844,0.0134584,0.00113956,0.0518269,-0.08698,-0.00877764,-0.058523,0.0427143,-0.0109927,-0.0306005,-0.019385,-0.0803258,-0.0561775,0.0182252,0.0503884,-0.0732144,-0.0379574,-0.0359748,-0.0050213,0.0606734,0.0497322,0.0113372,-0.0681724,0.0669686
-0.0233083,0.0474952,-0.0449914,0.0325082,0.0807555,0.0358488,0.0278245,0.0381285,0.0509894,0.0218593,0.0160204,-0.0408489,0.0519471,0.082748,0.00953146,0.122426,0.11494,0.0519007,0.0566772,-0.0432165,0.011081,-0.0210962,-0.0485642,-0.0254359,-0.0258066,-0.0495324,-0.0519466,-0.0102591,-0.00690674,-0.030671,-0.0218161
-0.0689836,0.0282802,0.0155471,0.0521817,0.0250689,-0.0465897,0.0957769,-0.0789161,-0.0485986,0.00511135,-0.0447336,-0.0189658,-0.0512795,-0.0432948,-0.0351495,0.0109987,-0.0462587,0.0346428,-0.0548771,0.0122813,-0.0193492,-0.0403969,-0.00478009,0.0261268,-0.0882602,0.0535946,0.080353,0.0349359,0.0538406,0.0398837,0.00891696
0.00257745,0.0232901,0.0224943,-0.0725711,-0.0701947,-0.0596689,-0.0652019,-0.0769428,-0.0217841,-0.0113977,0.0217567,0.0465446,0.052861,0.0409275,-0.0119701,-0.0221745,-0.00598543,0.0381966,0.0651204,0.0860038,0.0569708,-0.00061275,0.0012694,-0.0105193,-0.0276593,-0.0379131,-0.0422668,-0.0421067,-0.0149323,0.00949315,0.0113675
-0.00455455,0.0136985,-0.0256959,-0.0215821,-0.00783555,0.000995732,-0.137289,-0.157392,-0.0975849,-0.0858322,-0.133765,-0.106381,-0.133741,-0.24022,-0.225729,-0.301633,-0.181538,0.0441939,0.454527,0.732074,0.686257,0.337397,0.140441,0.0455272,0.012994,0.0760627,0.0766821,0.101474,0.148566,0.116907,0.140976
0.00586296,0.011618,-0.0147683,0.00249941,0.0120678,0.00340538,0.0255523,0.00923008,-0.0464976,-0.0845411,0.0371293,0.0345576,0.0108361,-0.0115028,-0.0430523,-0.0507684,0.0115766,-0.0100715,0.00505409,0.0173748,0.029063,0.0630889,0.00382557,-0.0440906,-0.0818754,-0.0701424,-0.112119,-0.0847984,-0.0813062,-0.147891,-0.0951266
-0.0372579,-0.104274,-0.271552,0.0527646,0.595823,0.39364,0.170187,-0.105243,-0.138335,-0.160757,-0.143862,-0.0374203,-0.0157721,0.0182235,0.0223506,0.0762114,0.0703147,0.0528181,0.0375962,0.0128901,0.0428997,-0.003092,-0.0139286,0.00719515,0.0198067,0.0572614,0.0684898,0.0299612,0.0510556,0.031072,0.0442448
-0.0301992,0.46667,-0.342009,-0.00889591,-0.0080932,-0.0183462,0.000517498,0.0436642,0.0121542,-0.0240909,0.0140764,0.0103267,0.005884,0.029043,0.0240052,-0.00302676,0.0185251,0.0427762,0.0160195,0.0257478,0.0302436,0.0488806,0.0666279,0.06068,0.0533675,0.0628233,0.0754943,0.0805517,0.068294,0.0798547,0.082557
-0.0523007,0.0205783,-0.0112796,0.0255946,0.0302117,-0.00964442,0.0317466,0.0381605,0.0441054,0.00584534,0.00912702,-0.0542049,0.0306809,-0.0916369,-0.0758877,0.0850056,-0.0285991,-0.058698,-0.0207743,0.0391589,-0.00961005,0.0102506,0.00502864,-0.00935989,-0.0557948,0.112385,-0.0433444,0.0170853,-0.047808,0.00217976,0.00155709
-0.000778942,0.0134649,0.00625503,-0.0467646,-0.014477,0.0231127,0.0218473,-0.0321897,0.0348865,-0.00902247,0.0594557,-0.103791,-0.00708789,0.0602471,-0.0124911,-0.0242218,0.010144,0.00208929,-0.0196251,0.00910197,0.00822377,-0.0091392,0.0695252,0.190024,0.169366,0.156592,0.117492,0.148704,0.138297,0.119689,0.0711053
-0.0521943,0.0230326,0.00323643,0.028432,-0.00406843,0.0267275,-0.00504331,-0.0274595,-0.0285687,-0.0601082,0.0711501,-0.068087,-0.0927138,0.0562273,-0.0984501,0.0425578,0.0108769,0.0169671,0.0636541,-0.0646566,-0.0617561,0.131635,-0.0374743,0.0659724,-0.0088953,0.0426829,0.0360101,0.0549444,0.0651034,0.0166068,-0.0146132
0.0273414,-0.02633,0.0479154,0.0584091,0.00625621,-0.0157738,-0.0110612,0.0267639,0.0212238,-0.0891169,0.0940499,-0.0188371,0.0187402,0.0426832,-0.0352837,-0.0278902,0.000562135,0.00763734,-0.0378231,-0.0760763,-0.059855,-0.0054589,-0.000746601,0.0149531,-0.0162948,-0.00293644,-0.0249296,-0.023172,-0.0558863,0.0332379,0.00421428
0.0954668,0.0247448,0.06381,0.0479504,0.0291443,-0.0373307,-0.0113966,-0.0324197,-0.00870114,0.000921331,0.0117044,0.04674,0.0205207,0.0490365,-0.0335619,-0.0502485,-0.0167585,0.0894753,0.0295925,0.0659923,-0.0297078,-0.0106325,0.0267307,0.0320237,0.0284314,0.0255949,0.0164422,0.0802163,0.0491849,0.00527355,0.00701518
0.00298281,-0.0795022,-0.235934,-0.168184,0.441238,0.878601,0.50067,0.018121,-0.185965,-0.242841,-0.185691,-0.120089,-0.0426387,-0.0255188,-0.0462541,-0.0593533,-0.0406794,-0.0214527,0.00449787,0.0207315,0.0258869,0.0314479,0.0324147,0.0409958,0.0243531,0.0228179,0.0156918,0.00389372,-0.0133351,-0.0274442,-0.0357811
-0.0368192,-0.208907,0.519678,-0.0113719,-0.0143007,0.0856693,0.0635692,0.0547754,0.0336878,-0.0364545,0.0260829,0.0278169,0.00477513,-0.0225058,0.00892727,0.00509136,0.0481757,0.0648705,0.0182938,0.00338683,0.0625276,0.0282303,-0.00355477,-0.0428381,-0.0551776,-0.0737871,-0.0955625,-0.0637108,-0.104613,-0.0809546,-0.0512113
-0.0457563,0.0234296,0.0154163,0.027367,-0.0396208,0.00279688,-0.0180494,-0.032815,0.11769,0.0853943,-0.0252823,-0.000696778,0.00275417,-0.0700745,-0.0263881,-0.0257089,-0.0406907,-0.0605995,0.0320778,-0.0351783,-0.0243912,0.0776875,0.00406893,-0.0750449,-0.0156915,-0.0664877,-0.00996877,-0.0661926,0.00995867,-0.0668924,-0.0132858
0.0234801,0.000713843,-0.0314622,0.0553824,0.00162236,0.00745959,0.0489359,-0.0356346,0.0483508,0.0529095,0.0326616,0.0273319,-0.0647807,0.0533491,-0.0453253,-0.0641473,0.0114953,0.0693076,-0.0157882,-0.0224109,0.0283593,0.0252268,0.101645,0.0115168,-0.0773718,-0.0709174,-0.00943036,0.0421998,0.00412582,0.00275536,0.0690343
0.0109339,-0.0490035,0.0395199,0.0292936,0.0713532,0.032203,0.0289494,0.0521047,0.0541803,0.0687281,0.0146381,-0.0175349,-0.0175699,-0.00231818,0.0163296,0.130527,0.0645767,0.0403648,0.053718,0.0365476,-0.0274334,-0.0235856,-0.00011799,-0.0144023,-0.0123291,-0.0021967,0.0319447,0.0231966,0.0451518,0.0514041,0.0751927
-0.00996085,0.0343079,0.0321212,0.0818457,0.0215066,0.0520747,0.0329345,0.00756807,0.0100089,0.00563857,-0.00770265,0.00808066,0.0214584,0.0571491,0.0278809,6.29944e-05,0.0659335,0.0656501,0.0102379,-0.0028883,-0.0165754,-0.00512542,-0.0645879,-0.0944486,-0.0994454,-0.097424,-0.0440605,-0.0781543,-0.0379559,-0.0734442,-0.0934575
-0.00481393,0.000316954,0.0352433,0.00988102,-0.0206648,-0.0196882,-0.105976,-0.0904206,-0.0229404,-0.0868491,-0.0469638,-0.0366041,-0.0745177,-0.0829862,-0.151007,-0.173457,-0.256362,-0.347798,-0.498389,-0.57798,-0.805975,-0.820151,-0.0922277,0.550159,0.432728,-0.0222619,-0.266175,-0.204972,-0.10649,-0.106054,-0.118023
-0.0460053,0.029128,0.0516342,0.0160185,-0.0234556,0.0486824,0.0573022,0.0545473,0.00290226,-0.0786841,0.024805,-0.108396,-0.0348388,0.0443496,0.0218829,0.0751755,0.0204651,-0.0578957,0.0359172,0.0680888,-0.0443469,0.0698461,0.0111783,-0.0184552,0.0205123,0.0643698,0.0330829,0.0974796,-0.0174518,-0.0102521,0.0297292
-0.0406548,-0.0427577,0.0777564,0.160426,0.0483946,-0.0515644,0.0282,0.062086,-0.00464173,0.151914,0.0410337,0.0609906,0.0161731,0.0225966,-0.0278078,0.0437007,0.0525323,0.00729043,0.0307612,0.043562,-0.106957,-0.0325478,0.0239854,0.0699308,0.0423805,0.0570232,0.0989633,0.0329946,0.0927441,0.0181462,-0.01964
-0.000626357,-0.00212614,-0.00787216,0.0256432,-0.0352692,0.0208903,0.0016142,0.00135693,0.0424877,0.0467126,0.00701519,-0.0607936,-0.0509412,-0.145692,-0.293912,-0.298807,-0.280541,-0.0243463,0.35941,0.701035,0.762791,0.610342,0.578764,0.611393,0.641503,0.621505,0.557648,0.464449,0.394277,0.343799,0.321631
-0.000193357,-0.019505,0.0399049,-0.0302687,-0.0105674,0.0119043,-0.0392455,0.0372364,-0.0137983,0.0738474,0.0238581,0.0115651,0.00451659,0.0240846,-0.0188547,-0.0404926,-0.0467562,-0.0130931,-0.0194101,-0.0355638,-0.0151429,0.0120523,0.119773,0.196932,0.265571,0.312336,0.330397,0.304036,0.290095,0.302523,0.297326
0.0472204,-0.0312107,0.0103824,-0.0335407,0.00808654,0.103895,7.32663e-05,-0.0421171,-0.0197842,-0.0484231,0.0273398,-0.0127418,-0.0300075,-0.0504174,-0.0534693,-0.0337288,-0.0570676,0.00327624,-0.0780051,0.0705536,0.0577427,0.00581834,-0.0644955,0.0660775,0.0371863,0.0265986,0.0544407,-0.0370011,0.00307207,-0.0461216,-0.0142379
0.115581,-0.0238869,-0.0028985,-0.0883143,0.019014,0.0795163,-0.00475546,0.023838,0.0750947,-0.0368385,0.0232053,-0.00176782,-0.000439674,-0.0717439,-0.0227201,0.0286116,0.0616414,0.0244774,0.0137187,-0.0128633,-0.0229034,0.0613856,-0.0461625,-0.0107024,0.0255681,0.0155742,0.0429318,-0.022518,0.0208551,-0.04846,0.0155261
-0.00680973,-0.0094853,-0.0428347,-0.0932521,-0.0459275,0.135516,0.32909,0.21506,-0.030662,-0.132348,-0.137688,-0.0746173,0.0584685,0.146474,0.125802,0.0598981,0.0286829,0.0131298,0.0118186,0.0570625,0.0471168,0.0322455,0.0302173,0.0339408,0.0280208,0.0236619,0.0304007,0.0389762,0.0535622,0.0633176,0.0681829
0.0109056,-0.101325,-0.125131,-0.00171437,0.0571526,-0.0358917,0.0103674,0.0103063,-0.0203673,-0.0178313,0.0208606,-0.0594265,0.00247803,0.0475425,0.105482,0.0231152,-0.0960131,-0.0762954,-0.0302279,-0.0732121,-0.0787377,0.013342,0.0179451,-0.00310126,-0.113275,0.0712987,-0.0339346,0.0494203,0.0106076,-0.024774,-0.0408907
0.0746196,0.00358962,-0.0428515,0.0816899,0.0709209,0.0440553,0.0214027,0.0284199,0.0048205,0.0258638,0.0277135,0.0469351,-0.00554435,-0.0492968,-0.0327829,-0.0488008,-0.069308,-0.0649577,-0.0448205,-0.0355811,-0.0046127,0.0314966,0.0452544,0.0423938,0.0443734,0.0401203,0.0385757,0.0197488,0.0212026,0.0240468,0.0308748
0.0762849,-0.0219721,-0.0672397,-0.0507041,0.049309,0.0295923,-0.0103806,-0.03727,0.0202485,0.0106242,0.125303,-0.0334117,0.0235676,-0.0265945,-0.0285733,-0.0435199,-0.00604033,-0.0439615,-0.0778486,-0.0431297,0.0666939,0.0437266,-0.0207512,-0.0583104,0.134127,0.000732736,0.0212312,0.0263818,0.0126818,0.0517025,0.0236491
0.0724758,0.0923657,-0.00106844,0.0231996,-0.124109,-0.00138466,0.0177267,0.0947546,0.0302423,0.000630711,-0.0267761,0.00032337,0.0320128,-0.028555,0.0229762,-0.0820141,0.0556151,0.0514393,0.00594697,0.0731725,0.00923694,-0.0249474,0.0372359,-0.00976687,-0.0860713,0.0316238,-0.00775331,0.0410523,0.0208047,0.0194147,-0.0524871
0.00195058,0.0133871,-0.0188927,0.00492282,0.0525566,-0.00562715,-0.0157239,-0.0198963,0.0016285,0.0085074,0.0799396,0.0135439,-0.0723166,-0.00457418,0.0215755,-0.0174396,-0.00477368,0.0482417,-0.00643414,-0.0406898,-0.0205308,0.0357887,-0.0569905,0.00966257,0.0428159,-0.00180533,0.0945561,0.0916863,0.0636123,0.0351976,0.0785345
